<?xml version="1.0"?>
<opencv_storage>
<cascade>
  <stageType>BOOST</stageType>
  <featureType>HAAR</featureType>
  <height>24</height>
  <width>24</width>
  <stageParams>
    <boostType>GAB</boostType>
    <minHitRate>9.9000000953674316e-01</minHitRate>
    <maxFalseAlarm>4.0000000596046448e-01</maxFalseAlarm>
    <weightTrimRate>9.4999999999999996e-01</weightTrimRate>
    <maxDepth>1</maxDepth>
    <maxWeakCount>100</maxWeakCount></stageParams>
  <featureParams>
    <maxCatCount>0</maxCatCount>
    <featSize>1</featSize>
    <mode>ALL</mode></featureParams>
  <stageNum>17</stageNum>
  <stages>
    <!-- stage 0 -->
    <_>
      <maxWeakCount>7</maxWeakCount>
      <stageThreshold>-3.3827069401741028e-01</stageThreshold>
      <weakClassifiers>
        <_>
          <internalNodes>
            0 -1 92 1.6837576031684875e-01</internalNodes>
          <leafValues>
            -3.5955941677093506e-01 8.9755809307098389e-01</leafValues></_>
        <_>
          <internalNodes>
            0 -1 27 -7.5776392221450806e-01</internalNodes>
          <leafValues>
            -1.7558543384075165e-01 7.7441340684890747e-01</leafValues></_>
        <_>
          <internalNodes>
            0 -1 127 2.8860646486282349e-01</internalNodes>
          <leafValues>
            -1.2171310186386108e-01 8.8183176517486572e-01</leafValues></_>
        <_>
          <internalNodes>
            0 -1 366 1.0995140764862299e-03</internalNodes>
          <leafValues>
            1.6928853094577789e-01 -8.6430686712265015e-01</leafValues></_>
        <_>
          <internalNodes>
            0 -1 366 -9.6692284569144249e-04</internalNodes>
          <leafValues>
            -8.3219748735427856e-01 1.5238618850708008e-01</leafValues></_>
        <_>
          <internalNodes>
            0 -1 137 -1.2651212513446808e-01</internalNodes>
          <leafValues>
            -1.8160104751586914e-01 9.0207356214523315e-01</leafValues></_>
        <_>
          <internalNodes>
            0 -1 546 1.4961240813136101e-02</internalNodes>
          <leafValues>
            2.1309837698936462e-01 -6.8679559230804443e-01</leafValues></_></weakClassifiers></_>
    <!-- stage 1 -->
    <_>
      <maxWeakCount>17</maxWeakCount>
      <stageThreshold>-6.9820660352706909e-01</stageThreshold>
      <weakClassifiers>
        <_>
          <internalNodes>
            0 -1 42 2.1987113356590271e-01</internalNodes>
          <leafValues>
            -2.4507486820220947e-01 8.0963712930679321e-01</leafValues></_>
        <_>
          <internalNodes>
            0 -1 21 5.8170380070805550e-03</internalNodes>
          <leafValues>
            -2.5439020991325378e-01 5.1272910833358765e-01</leafValues></_>
        <_>
          <internalNodes>
            0 -1 211 -3.8135372102260590e-02</internalNodes>
          <leafValues>
            5.7592606544494629e-01 -2.3308201134204865e-01</leafValues></_>
        <_>
          <internalNodes>
            0 -1 397 -4.0406000614166260e-01</internalNodes>
          <leafValues>
            -3.3532431721687317e-01 3.4457197785377502e-01</leafValues></_>
        <_>
          <internalNodes>
            0 -1 387 1.2692278251051903e-03</internalNodes>
          <leafValues>
            1.0198739916086197e-01 -6.7829704284667969e-01</leafValues></_>
        <_>
          <internalNodes>
            0 -1 347 -1.5963297337293625e-03</internalNodes>
          <leafValues>
            -9.2204147577285767e-01 8.8080644607543945e-02</leafValues></_>
        <_>
          <internalNodes>
            0 -1 163 3.7271678447723389e-02</internalNodes>
          <leafValues>
            -1.9225774705410004e-01 4.4019541144371033e-01</leafValues></_>
        <_>
          <internalNodes>
            0 -1 355 4.0866632480174303e-04</internalNodes>
          <leafValues>
            1.1339098215103149e-01 -6.7373991012573242e-01</leafValues></_>
        <_>
          <internalNodes>
            0 -1 14 -9.3486253172159195e-03</internalNodes>
          <leafValues>
            4.2533749341964722e-01 -1.8526546657085419e-01</leafValues></_>
        <_>
          <internalNodes>
            0 -1 340 1.7434748588129878e-03</internalNodes>
          <leafValues>
            1.3127505779266357e-01 -6.3934278488159180e-01</leafValues></_>
        <_>
          <internalNodes>
            0 -1 461 2.1763388067483902e-03</internalNodes>
          <leafValues>
            8.0414831638336182e-02 -7.1303272247314453e-01</leafValues></_>
        <_>
          <internalNodes>
            0 -1 482 1.0186252184212208e-03</internalNodes>
          <leafValues>
            1.0439416021108627e-01 -5.7178121805191040e-01</leafValues></_>
        <_>
          <internalNodes>
            0 -1 217 1.8697041086852551e-03</internalNodes>
          <leafValues>
            6.6723644733428955e-02 -8.8919818401336670e-01</leafValues></_>
        <_>
          <internalNodes>
            0 -1 547 -5.8739185333251953e-03</internalNodes>
          <leafValues>
            3.1733995676040649e-01 -2.2531037032604218e-01</leafValues></_>
        <_>
          <internalNodes>
            0 -1 468 4.5342120574787259e-04</internalNodes>
          <leafValues>
            1.0432304441928864e-01 -6.0527753829956055e-01</leafValues></_>
        <_>
          <internalNodes>
            0 -1 136 4.6654711477458477e-03</internalNodes>
          <leafValues>
            1.4417384564876556e-01 -4.1845977306365967e-01</leafValues></_>
        <_>
          <internalNodes>
            0 -1 316 3.3971802331507206e-03</internalNodes>
          <leafValues>
            6.7439019680023193e-02 -8.2035851478576660e-01</leafValues></_></weakClassifiers></_>
    <!-- stage 2 -->
    <_>
      <maxWeakCount>14</maxWeakCount>
      <stageThreshold>-8.5662460327148438e-01</stageThreshold>
      <weakClassifiers>
        <_>
          <internalNodes>
            0 -1 28 -1.5561370849609375e+00</internalNodes>
          <leafValues>
            -7.6744186878204346e-01 5.9408378601074219e-01</leafValues></_>
        <_>
          <internalNodes>
            0 -1 126 2.7831596136093140e-01</internalNodes>
          <leafValues>
            -3.9704349637031555e-01 6.9429367780685425e-01</leafValues></_>
        <_>
          <internalNodes>
            0 -1 538 -4.3697528541088104e-02</internalNodes>
          <leafValues>
            6.3227552175521851e-01 -2.1985016763210297e-01</leafValues></_>
        <_>
          <internalNodes>
            0 -1 81 -7.4456661939620972e-02</internalNodes>
          <leafValues>
            -1.1828051507472992e-01 8.0012702941894531e-01</leafValues></_>
        <_>
          <internalNodes>
            0 -1 422 4.8869196325540543e-03</internalNodes>
          <leafValues>
            -2.9385495185852051e-01 3.4082624316215515e-01</leafValues></_>
        <_>
          <internalNodes>
            0 -1 469 -4.3296953663229942e-03</internalNodes>
          <leafValues>
            -7.4733322858810425e-01 1.1306099593639374e-01</leafValues></_>
        <_>
          <internalNodes>
            0 -1 16 5.8102905750274658e-02</internalNodes>
          <leafValues>
            -1.9099527597427368e-01 4.9733296036720276e-01</leafValues></_>
        <_>
          <internalNodes>
            0 -1 78 -2.3917499929666519e-02</internalNodes>
          <leafValues>
            6.7988908290863037e-01 -1.2531983852386475e-01</leafValues></_>
        <_>
          <internalNodes>
            0 -1 282 -1.4688367024064064e-02</internalNodes>
          <leafValues>
            5.1049578189849854e-01 -1.6445867717266083e-01</leafValues></_>
        <_>
          <internalNodes>
            0 -1 200 -7.4109748005867004e-02</internalNodes>
          <leafValues>
            -9.4077035784721375e-02 9.3886619806289673e-01</leafValues></_>
        <_>
          <internalNodes>
            0 -1 102 1.6561791300773621e-02</internalNodes>
          <leafValues>
            -2.4902360141277313e-01 3.5941851139068604e-01</leafValues></_>
        <_>
          <internalNodes>
            0 -1 212 3.9791944436728954e-04</internalNodes>
          <leafValues>
            1.3695025444030762e-01 -6.3877391815185547e-01</leafValues></_>
        <_>
          <internalNodes>
            0 -1 431 -6.2858136370778084e-03</internalNodes>
          <leafValues>
            -7.6718944311141968e-01 9.4093725085258484e-02</leafValues></_>
        <_>
          <internalNodes>
            0 -1 20 -9.1500520706176758e-02</internalNodes>
          <leafValues>
            -9.6770012378692627e-01 5.8090202510356903e-02</leafValues></_></weakClassifiers></_>
    <!-- stage 3 -->
    <_>
      <maxWeakCount>20</maxWeakCount>
      <stageThreshold>-8.2681864500045776e-01</stageThreshold>
      <weakClassifiers>
        <_>
          <internalNodes>
            0 -1 124 1.5970158576965332e-01</internalNodes>
          <leafValues>
            -3.0798479914665222e-01 7.2391992807388306e-01</leafValues></_>
        <_>
          <internalNodes>
            0 -1 576 -1.0935889557003975e-02</internalNodes>
          <leafValues>
            5.7025998830795288e-01 -2.3002481460571289e-01</leafValues></_>
        <_>
          <internalNodes>
            0 -1 11 1.2447828426957130e-02</internalNodes>
          <leafValues>
            -2.2912199795246124e-01 4.6119430661201477e-01</leafValues></_>
        <_>
          <internalNodes>
            0 -1 18 -1.0001948103308678e-02</internalNodes>
          <leafValues>
            4.1184163093566895e-01 -2.2108216583728790e-01</leafValues></_>
        <_>
          <internalNodes>
            0 -1 417 5.6031486019492149e-04</internalNodes>
          <leafValues>
            8.9811928570270538e-02 -7.5549554824829102e-01</leafValues></_>
        <_>
          <internalNodes>
            0 -1 500 -2.1175611764192581e-02</internalNodes>
          <leafValues>
            5.0487869977951050e-01 -1.5471473336219788e-01</leafValues></_>
        <_>
          <internalNodes>
            0 -1 402 -5.5703555699437857e-04</internalNodes>
          <leafValues>
            -6.5834408998489380e-01 1.0918684303760529e-01</leafValues></_>
        <_>
          <internalNodes>
            0 -1 552 -3.3779017627239227e-02</internalNodes>
          <leafValues>
            6.5839606523513794e-01 -1.1237532645463943e-01</leafValues></_>
        <_>
          <internalNodes>
            0 -1 79 -4.3987449258565903e-02</internalNodes>
          <leafValues>
            4.9400258064270020e-01 -1.6698323190212250e-01</leafValues></_>
        <_>
          <internalNodes>
            0 -1 388 -1.0860585607588291e-03</internalNodes>
          <leafValues>
            -7.0843809843063354e-01 1.2269473075866699e-01</leafValues></_>
        <_>
          <internalNodes>
            0 -1 245 5.1134526729583740e-03</internalNodes>
          <leafValues>
            -1.7825266718864441e-01 4.3864035606384277e-01</leafValues></_>
        <_>
          <internalNodes>
            0 -1 260 -2.3206707090139389e-02</internalNodes>
          <leafValues>
            -5.7443374395370483e-01 1.3596548140048981e-01</leafValues></_>
        <_>
          <internalNodes>
            0 -1 440 -1.5481555601581931e-03</internalNodes>
          <leafValues>
            -9.4243228435516357e-01 5.5463563650846481e-02</leafValues></_>
        <_>
          <internalNodes>
            0 -1 324 -2.4156714789569378e-03</internalNodes>
          <leafValues>
            1.0667288303375244e-01 -5.7938086986541748e-01</leafValues></_>
        <_>
          <internalNodes>
            0 -1 153 4.6623028814792633e-02</internalNodes>
          <leafValues>
            -1.1333200335502625e-01 6.4389419555664062e-01</leafValues></_>
        <_>
          <internalNodes>
            0 -1 231 1.0348128154873848e-02</internalNodes>
          <leafValues>
            -2.1032564342021942e-01 3.3777987957000732e-01</leafValues></_>
        <_>
          <internalNodes>
            0 -1 114 1.2465539388358593e-02</internalNodes>
          <leafValues>
            -1.3517251610755920e-01 5.4780346155166626e-01</leafValues></_>
        <_>
          <internalNodes>
            0 -1 347 1.1061632540076971e-03</internalNodes>
          <leafValues>
            1.0752961039543152e-01 -7.4591779708862305e-01</leafValues></_>
        <_>
          <internalNodes>
            0 -1 290 5.3975293412804604e-03</internalNodes>
          <leafValues>
            -2.1487367153167725e-01 3.3546796441078186e-01</leafValues></_>
        <_>
          <internalNodes>
            0 -1 319 4.6755140647292137e-04</internalNodes>
          <leafValues>
            1.1224403232336044e-01 -6.1664003133773804e-01</leafValues></_></weakClassifiers></_>
    <!-- stage 4 -->
    <_>
      <maxWeakCount>19</maxWeakCount>
      <stageThreshold>-8.6821752786636353e-01</stageThreshold>
      <weakClassifiers>
        <_>
          <internalNodes>
            0 -1 24 9.8719191551208496e-01</internalNodes>
          <leafValues>
            -3.4399516880512238e-02 8.5614848136901855e-01</leafValues></_>
        <_>
          <internalNodes>
            0 -1 494 -6.3101155683398247e-03</internalNodes>
          <leafValues>
            6.2497019767761230e-01 -1.8951976299285889e-01</leafValues></_>
        <_>
          <internalNodes>
            0 -1 325 -2.5336176156997681e-02</internalNodes>
          <leafValues>
            -4.5345279574394226e-01 3.4477597475051880e-01</leafValues></_>
        <_>
          <internalNodes>
            0 -1 15 1.2433695374056697e-03</internalNodes>
          <leafValues>
            -3.9525845646858215e-01 3.5820713639259338e-01</leafValues></_>
        <_>
          <internalNodes>
            0 -1 390 -9.5765767619013786e-03</internalNodes>
          <leafValues>
            4.8275825381278992e-01 -2.8998509049415588e-01</leafValues></_>
        <_>
          <internalNodes>
            0 -1 502 6.7588798701763153e-03</internalNodes>
          <leafValues>
            -1.5404070913791656e-01 4.8291507363319397e-01</leafValues></_>
        <_>
          <internalNodes>
            0 -1 511 -3.9680615067481995e-02</internalNodes>
          <leafValues>
            -2.4044778943061829e-01 3.5214656591415405e-01</leafValues></_>
        <_>
          <internalNodes>
            0 -1 139 1.9284341484308243e-02</internalNodes>
          <leafValues>
            -9.5443725585937500e-02 7.7099329233169556e-01</leafValues></_>
        <_>
          <internalNodes>
            0 -1 111 -2.0781107014045119e-04</internalNodes>
          <leafValues>
            2.3722288012504578e-01 -2.7833533287048340e-01</leafValues></_>
        <_>
          <internalNodes>
            0 -1 120 4.9725230783224106e-03</internalNodes>
          <leafValues>
            -1.8861876428127289e-01 3.8430607318878174e-01</leafValues></_>
        <_>
          <internalNodes>
            0 -1 272 -1.2376833474263549e-03</internalNodes>
          <leafValues>
            -5.5965918302536011e-01 1.3009405136108398e-01</leafValues></_>
        <_>
          <internalNodes>
            0 -1 93 -2.3196994152385741e-04</internalNodes>
          <leafValues>
            2.3860587179660797e-01 -2.4594904482364655e-01</leafValues></_>
        <_>
          <internalNodes>
            0 -1 428 -3.4374728798866272e-02</internalNodes>
          <leafValues>
            -6.9394218921661377e-01 8.4217198193073273e-02</leafValues></_>
        <_>
          <internalNodes>
            0 -1 132 2.9336530715227127e-03</internalNodes>
          <leafValues>
            -2.4195261299610138e-01 2.6310575008392334e-01</leafValues></_>
        <_>
          <internalNodes>
            0 -1 232 -2.5064941495656967e-02</internalNodes>
          <leafValues>
            7.4597084522247314e-01 -8.7467126548290253e-02</leafValues></_>
        <_>
          <internalNodes>
            0 -1 553 -2.0463149994611740e-03</internalNodes>
          <leafValues>
            -6.3786774873733521e-01 1.2152385711669922e-01</leafValues></_>
        <_>
          <internalNodes>
            0 -1 203 -7.0330710150301456e-04</internalNodes>
          <leafValues>
            2.0231592655181885e-01 -3.0418798327445984e-01</leafValues></_>
        <_>
          <internalNodes>
            0 -1 584 -1.9119478762149811e-02</internalNodes>
          <leafValues>
            4.8838219046592712e-01 -1.3551272451877594e-01</leafValues></_>
        <_>
          <internalNodes>
            0 -1 341 -1.2797421775758266e-02</internalNodes>
          <leafValues>
            4.4284135103225708e-01 -1.8914267420768738e-01</leafValues></_></weakClassifiers></_>
    <!-- stage 5 -->
    <_>
      <maxWeakCount>27</maxWeakCount>
      <stageThreshold>-7.4113899469375610e-01</stageThreshold>
      <weakClassifiers>
        <_>
          <internalNodes>
            0 -1 63 1.0972931981086731e-01</internalNodes>
          <leafValues>
            -2.7351567521691322e-02 7.5189524888992310e-01</leafValues></_>
        <_>
          <internalNodes>
            0 -1 54 2.6364998891949654e-02</internalNodes>
          <leafValues>
            -3.1455257534980774e-01 4.4613063335418701e-01</leafValues></_>
        <_>
          <internalNodes>
            0 -1 10 6.8391542881727219e-03</internalNodes>
          <leafValues>
            -1.6388182342052460e-01 5.0105094909667969e-01</leafValues></_>
        <_>
          <internalNodes>
            0 -1 23 -4.8822641372680664e-02</internalNodes>
          <leafValues>
            -4.4749546051025391e-01 1.5798473358154297e-01</leafValues></_>
        <_>
          <internalNodes>
            0 -1 157 3.4480357170104980e-01</internalNodes>
          <leafValues>
            -1.5716427564620972e-01 5.0577890872955322e-01</leafValues></_>
        <_>
          <internalNodes>
            0 -1 165 -2.6389624923467636e-02</internalNodes>
          <leafValues>
            6.6845303773880005e-01 -9.0322755277156830e-02</leafValues></_>
        <_>
          <internalNodes>
            0 -1 499 5.9800930321216583e-03</internalNodes>
          <leafValues>
            -1.5739782154560089e-01 3.3923366665840149e-01</leafValues></_>
        <_>
          <internalNodes>
            0 -1 281 -3.0463561415672302e-03</internalNodes>
          <leafValues>
            2.6586616039276123e-01 -1.9714593887329102e-01</leafValues></_>
        <_>
          <internalNodes>
            0 -1 205 -1.1436476372182369e-02</internalNodes>
          <leafValues>
            4.5840981602668762e-01 -1.2313710153102875e-01</leafValues></_>
        <_>
          <internalNodes>
            0 -1 503 -5.1504746079444885e-02</internalNodes>
          <leafValues>
            -8.5786372423171997e-01 7.4641510844230652e-02</leafValues></_>
        <_>
          <internalNodes>
            0 -1 60 2.0060814917087555e-02</internalNodes>
          <leafValues>
            -1.2960702180862427e-01 5.0271284580230713e-01</leafValues></_>
        <_>
          <internalNodes>
            0 -1 385 -2.9827395337633789e-04</internalNodes>
          <leafValues>
            -5.5045098066329956e-01 1.0595083981752396e-01</leafValues></_>
        <_>
          <internalNodes>
            0 -1 156 1.6752377152442932e-02</internalNodes>
          <leafValues>
            -2.0859527587890625e-01 2.7512836456298828e-01</leafValues></_>
        <_>
          <internalNodes>
            0 -1 529 1.6877140849828720e-02</internalNodes>
          <leafValues>
            -1.3545331358909607e-01 3.5753113031387329e-01</leafValues></_>
        <_>
          <internalNodes>
            0 -1 460 -1.8654251471161842e-03</internalNodes>
          <leafValues>
            -9.2083430290222168e-01 6.4359046518802643e-02</leafValues></_>
        <_>
          <internalNodes>
            0 -1 363 9.1964396415278316e-04</internalNodes>
          <leafValues>
            4.3442938476800919e-02 -8.2141506671905518e-01</leafValues></_>
        <_>
          <internalNodes>
            0 -1 318 -4.8628924414515495e-03</internalNodes>
          <leafValues>
            2.4665568768978119e-01 -1.7863492667675018e-01</leafValues></_>
        <_>
          <internalNodes>
            0 -1 371 6.3264202326536179e-03</internalNodes>
          <leafValues>
            -1.3286346197128296e-01 4.2173001170158386e-01</leafValues></_>
        <_>
          <internalNodes>
            0 -1 384 -1.1248724162578583e-01</internalNodes>
          <leafValues>
            4.4121414422988892e-01 -1.0790607333183289e-01</leafValues></_>
        <_>
          <internalNodes>
            0 -1 585 4.3482860201038420e-04</internalNodes>
          <leafValues>
            -2.9558232426643372e-01 1.8977965414524078e-01</leafValues></_>
        <_>
          <internalNodes>
            0 -1 346 -1.0291888378560543e-02</internalNodes>
          <leafValues>
            3.6290794610977173e-01 -1.3046464323997498e-01</leafValues></_>
        <_>
          <internalNodes>
            0 -1 417 -1.0824871715158224e-03</internalNodes>
          <leafValues>
            -9.0364658832550049e-01 5.3057845681905746e-02</leafValues></_>
        <_>
          <internalNodes>
            0 -1 638 6.2767212511971593e-05</internalNodes>
          <leafValues>
            1.5758714079856873e-01 -2.5202247500419617e-01</leafValues></_>
        <_>
          <internalNodes>
            0 -1 176 -3.8890107534825802e-03</internalNodes>
          <leafValues>
            2.0354676246643066e-01 -2.1145214140415192e-01</leafValues></_>
        <_>
          <internalNodes>
            0 -1 33 -2.2578356787562370e-02</internalNodes>
          <leafValues>
            5.2897089719772339e-01 -9.4712466001510620e-02</leafValues></_>
        <_>
          <internalNodes>
            0 -1 69 8.8210068643093109e-03</internalNodes>
          <leafValues>
            -1.0644048452377319e-01 3.6631080508232117e-01</leafValues></_>
        <_>
          <internalNodes>
            0 -1 175 5.8747536968439817e-04</internalNodes>
          <leafValues>
            7.0519492030143738e-02 -6.0627961158752441e-01</leafValues></_></weakClassifiers></_>
    <!-- stage 6 -->
    <_>
      <maxWeakCount>28</maxWeakCount>
      <stageThreshold>-6.6698831319808960e-01</stageThreshold>
      <weakClassifiers>
        <_>
          <internalNodes>
            0 -1 24 1.0807504653930664e+00</internalNodes>
          <leafValues>
            3.2220270484685898e-02 8.0048269033432007e-01</leafValues></_>
        <_>
          <internalNodes>
            0 -1 12 2.1477237343788147e-02</internalNodes>
          <leafValues>
            -1.7974631488323212e-01 5.5773109197616577e-01</leafValues></_>
        <_>
          <internalNodes>
            0 -1 570 -1.5753742307424545e-02</internalNodes>
          <leafValues>
            4.5528319478034973e-01 -2.1808034181594849e-01</leafValues></_>
        <_>
          <internalNodes>
            0 -1 48 -2.5900095701217651e-01</internalNodes>
          <leafValues>
            8.1058256328105927e-02 -6.6160029172897339e-01</leafValues></_>
        <_>
          <internalNodes>
            0 -1 221 -1.0776624083518982e-02</internalNodes>
          <leafValues>
            2.8767845034599304e-01 -2.2779242694377899e-01</leafValues></_>
        <_>
          <internalNodes>
            0 -1 308 -4.5914622023701668e-03</internalNodes>
          <leafValues>
            -6.8273085355758667e-01 7.5877666473388672e-02</leafValues></_>
        <_>
          <internalNodes>
            0 -1 242 -6.2540397047996521e-02</internalNodes>
          <leafValues>
            -7.0565021038055420e-01 6.5085731446743011e-02</leafValues></_>
        <_>
          <internalNodes>
            0 -1 588 5.0313830375671387e-02</internalNodes>
          <leafValues>
            -1.0716131329536438e-01 5.2193599939346313e-01</leafValues></_>
        <_>
          <internalNodes>
            0 -1 336 7.7581942081451416e-02</internalNodes>
          <leafValues>
            -1.5802575647830963e-01 4.5839059352874756e-01</leafValues></_>
        <_>
          <internalNodes>
            0 -1 293 -1.9757747650146484e-03</internalNodes>
          <leafValues>
            1.0723542422056198e-01 -5.5142480134963989e-01</leafValues></_>
        <_>
          <internalNodes>
            0 -1 326 -8.5054029477760196e-04</internalNodes>
          <leafValues>
            2.1024912595748901e-01 -2.4860522150993347e-01</leafValues></_>
        <_>
          <internalNodes>
            0 -1 213 2.7431098278611898e-03</internalNodes>
          <leafValues>
            7.8528776764869690e-02 -6.3533443212509155e-01</leafValues></_>
        <_>
          <internalNodes>
            0 -1 386 -4.3877713382244110e-02</internalNodes>
          <leafValues>
            -7.4890369176864624e-01 5.4114762693643570e-02</leafValues></_>
        <_>
          <internalNodes>
            0 -1 382 2.5328428018838167e-03</internalNodes>
          <leafValues>
            6.9687850773334503e-02 -6.4404582977294922e-01</leafValues></_>
        <_>
          <internalNodes>
            0 -1 276 -1.5773065388202667e-03</internalNodes>
          <leafValues>
            1.7110380530357361e-01 -2.7614942193031311e-01</leafValues></_>
        <_>
          <internalNodes>
            0 -1 600 -1.2865157332271338e-03</internalNodes>
          <leafValues>
            -5.0731229782104492e-01 8.0820992588996887e-02</leafValues></_>
        <_>
          <internalNodes>
            0 -1 599 5.0575430504977703e-03</internalNodes>
          <leafValues>
            5.9339635074138641e-02 -6.9665211439132690e-01</leafValues></_>
        <_>
          <internalNodes>
            0 -1 170 -5.1667526364326477e-02</internalNodes>
          <leafValues>
            -5.7338160276412964e-01 6.6364705562591553e-02</leafValues></_>
        <_>
          <internalNodes>
            0 -1 312 -1.4911790378391743e-02</internalNodes>
          <leafValues>
            3.4645059704780579e-01 -1.3181456923484802e-01</leafValues></_>
        <_>
          <internalNodes>
            0 -1 629 2.0491506904363632e-02</internalNodes>
          <leafValues>
            7.6161421835422516e-02 -5.4994976520538330e-01</leafValues></_>
        <_>
          <internalNodes>
            0 -1 543 -4.1494332253932953e-03</internalNodes>
          <leafValues>
            2.6171815395355225e-01 -1.6485600173473358e-01</leafValues></_>
        <_>
          <internalNodes>
            0 -1 537 -3.3561863005161285e-02</internalNodes>
          <leafValues>
            4.0854927897453308e-01 -1.1767133325338364e-01</leafValues></_>
        <_>
          <internalNodes>
            0 -1 101 -2.6132100820541382e-01</internalNodes>
          <leafValues>
            5.7783967256546021e-01 -6.7262999713420868e-02</leafValues></_>
        <_>
          <internalNodes>
            0 -1 234 3.0292261391878128e-02</internalNodes>
          <leafValues>
            -1.2055833637714386e-01 3.3781489729881287e-01</leafValues></_>
        <_>
          <internalNodes>
            0 -1 359 3.6253285361453891e-04</internalNodes>
          <leafValues>
            8.4400713443756104e-02 -4.6604222059249878e-01</leafValues></_>
        <_>
          <internalNodes>
            0 -1 365 1.5874528326094151e-03</internalNodes>
          <leafValues>
            -1.4058618247509003e-01 2.9333928227424622e-01</leafValues></_>
        <_>
          <internalNodes>
            0 -1 358 3.6050166818313301e-04</internalNodes>
          <leafValues>
            -1.8883880972862244e-01 2.0424190163612366e-01</leafValues></_>
        <_>
          <internalNodes>
            0 -1 562 -3.6124788224697113e-02</internalNodes>
          <leafValues>
            -7.9697096347808838e-01 5.2119877189397812e-02</leafValues></_></weakClassifiers></_>
    <!-- stage 7 -->
    <_>
      <maxWeakCount>32</maxWeakCount>
      <stageThreshold>-6.4041191339492798e-01</stageThreshold>
      <weakClassifiers>
        <_>
          <internalNodes>
            0 -1 207 -5.1791720092296600e-02</internalNodes>
          <leafValues>
            6.5776568651199341e-01 -1.4080718159675598e-01</leafValues></_>
        <_>
          <internalNodes>
            0 -1 540 -6.0214757919311523e-02</internalNodes>
          <leafValues>
            5.4150396585464478e-01 -1.6679561138153076e-01</leafValues></_>
        <_>
          <internalNodes>
            0 -1 578 5.8544933795928955e-02</internalNodes>
          <leafValues>
            -1.2783098220825195e-01 6.2130111455917358e-01</leafValues></_>
        <_>
          <internalNodes>
            0 -1 458 7.6637258753180504e-03</internalNodes>
          <leafValues>
            -2.5281399488449097e-01 2.9198452830314636e-01</leafValues></_>
        <_>
          <internalNodes>
            0 -1 430 -3.1996865291148424e-03</internalNodes>
          <leafValues>
            2.3824936151504517e-01 -2.3867622017860413e-01</leafValues></_>
        <_>
          <internalNodes>
            0 -1 527 -1.9471283303573728e-03</internalNodes>
          <leafValues>
            -6.2397271394729614e-01 8.4499672055244446e-02</leafValues></_>
        <_>
          <internalNodes>
            0 -1 117 -2.1468652412295341e-03</internalNodes>
          <leafValues>
            3.3098974823951721e-01 -1.6468751430511475e-01</leafValues></_>
        <_>
          <internalNodes>
            0 -1 507 2.2038898896425962e-03</internalNodes>
          <leafValues>
            7.9709999263286591e-02 -6.6661339998245239e-01</leafValues></_>
        <_>
          <internalNodes>
            0 -1 532 1.4319443143904209e-03</internalNodes>
          <leafValues>
            9.2182442545890808e-02 -5.2445834875106812e-01</leafValues></_>
        <_>
          <internalNodes>
            0 -1 524 7.9595658462494612e-04</internalNodes>
          <leafValues>
            -2.3867812752723694e-01 2.1104088425636292e-01</leafValues></_>
        <_>
          <internalNodes>
            0 -1 202 -1.7426900565624237e-02</internalNodes>
          <leafValues>
            5.0313568115234375e-01 -9.7623534500598907e-02</leafValues></_>
        <_>
          <internalNodes>
            0 -1 99 7.5871003791689873e-03</internalNodes>
          <leafValues>
            -1.1184767633676529e-01 4.2223733663558960e-01</leafValues></_>
        <_>
          <internalNodes>
            0 -1 280 -2.1865524351596832e-02</internalNodes>
          <leafValues>
            -7.0062452554702759e-01 6.9565273821353912e-02</leafValues></_>
        <_>
          <internalNodes>
            0 -1 512 -2.9119844548404217e-03</internalNodes>
          <leafValues>
            -5.2250999212265015e-01 7.5197599828243256e-02</leafValues></_>
        <_>
          <internalNodes>
            0 -1 131 7.8086985740810633e-04</internalNodes>
          <leafValues>
            -1.9775399565696716e-01 2.2515074908733368e-01</leafValues></_>
        <_>
          <internalNodes>
            0 -1 315 2.0390229765325785e-03</internalNodes>
          <leafValues>
            5.6656539440155029e-02 -7.7957528829574585e-01</leafValues></_>
        <_>
          <internalNodes>
            0 -1 135 -5.5254746228456497e-02</internalNodes>
          <leafValues>
            -7.6026752591133118e-02 6.6676849126815796e-01</leafValues></_>
        <_>
          <internalNodes>
            0 -1 429 1.3968613347969949e-04</internalNodes>
          <leafValues>
            -2.0178875327110291e-01 2.3436971008777618e-01</leafValues></_>
        <_>
          <internalNodes>
            0 -1 506 6.0271314578130841e-04</internalNodes>
          <leafValues>
            6.6474437713623047e-02 -6.3346564769744873e-01</leafValues></_>
        <_>
          <internalNodes>
            0 -1 356 -4.0375918615609407e-04</internalNodes>
          <leafValues>
            1.5664021670818329e-01 -2.6048469543457031e-01</leafValues></_>
        <_>
          <internalNodes>
            0 -1 171 -2.0996102690696716e-01</internalNodes>
          <leafValues>
            -6.6507256031036377e-01 6.6248483955860138e-02</leafValues></_>
        <_>
          <internalNodes>
            0 -1 620 -1.3087545521557331e-02</internalNodes>
          <leafValues>
            6.3041532039642334e-01 -6.9593690335750580e-02</leafValues></_>
        <_>
          <internalNodes>
            0 -1 419 -3.2808179967105389e-03</internalNodes>
          <leafValues>
            -8.1038534641265869e-01 5.7130459696054459e-02</leafValues></_>
        <_>
          <internalNodes>
            0 -1 360 -1.4673176221549511e-02</internalNodes>
          <leafValues>
            2.6318639516830444e-01 -1.5820363163948059e-01</leafValues></_>
        <_>
          <internalNodes>
            0 -1 608 2.7215273585170507e-03</internalNodes>
          <leafValues>
            -1.1615462601184845e-01 4.1449210047721863e-01</leafValues></_>
        <_>
          <internalNodes>
            0 -1 447 -4.9327816814184189e-03</internalNodes>
          <leafValues>
            -6.3507801294326782e-01 8.1386961042881012e-02</leafValues></_>
        <_>
          <internalNodes>
            0 -1 496 1.0039792396128178e-02</internalNodes>
          <leafValues>
            4.7317743301391602e-02 -7.1205329895019531e-01</leafValues></_>
        <_>
          <internalNodes>
            0 -1 328 -4.0825703740119934e-01</internalNodes>
          <leafValues>
            -5.6455534696578979e-01 6.1265736818313599e-02</leafValues></_>
        <_>
          <internalNodes>
            0 -1 198 2.1271097660064697e-01</internalNodes>
          <leafValues>
            -9.0257979929447174e-02 5.1683384180068970e-01</leafValues></_>
        <_>
          <internalNodes>
            0 -1 24 1.2024480104446411e+00</internalNodes>
          <leafValues>
            -8.4126688539981842e-02 4.9468925595283508e-01</leafValues></_>
        <_>
          <internalNodes>
            0 -1 344 -2.2677490487694740e-03</internalNodes>
          <leafValues>
            3.0152454972267151e-01 -1.3648605346679688e-01</leafValues></_>
        <_>
          <internalNodes>
            0 -1 508 -3.7806960754096508e-03</internalNodes>
          <leafValues>
            -5.0559610128402710e-01 8.9203089475631714e-02</leafValues></_></weakClassifiers></_>
    <!-- stage 8 -->
    <_>
      <maxWeakCount>45</maxWeakCount>
      <stageThreshold>-6.7110562324523926e-01</stageThreshold>
      <weakClassifiers>
        <_>
          <internalNodes>
            0 -1 41 3.2939034700393677e-01</internalNodes>
          <leafValues>
            4.2735044844448566e-03 6.7529106140136719e-01</leafValues></_>
        <_>
          <internalNodes>
            0 -1 571 -2.6620306074619293e-02</internalNodes>
          <leafValues>
            5.6638729572296143e-01 -1.7171069979667664e-01</leafValues></_>
        <_>
          <internalNodes>
            0 -1 421 -5.6816632859408855e-03</internalNodes>
          <leafValues>
            3.3221584558486938e-01 -2.1821418404579163e-01</leafValues></_>
        <_>
          <internalNodes>
            0 -1 70 3.7431333214044571e-02</internalNodes>
          <leafValues>
            -1.9324654340744019e-01 2.8783342242240906e-01</leafValues></_>
        <_>
          <internalNodes>
            0 -1 292 -2.3975811898708344e-01</internalNodes>
          <leafValues>
            -3.4026148915290833e-01 1.5209116041660309e-01</leafValues></_>
        <_>
          <internalNodes>
            0 -1 15 3.6003359127789736e-03</internalNodes>
          <leafValues>
            -1.6501934826374054e-01 2.7239805459976196e-01</leafValues></_>
        <_>
          <internalNodes>
            0 -1 427 1.9583408720791340e-03</internalNodes>
          <leafValues>
            -2.1200338006019592e-01 2.1350106596946716e-01</leafValues></_>
        <_>
          <internalNodes>
            0 -1 586 9.4095813110470772e-03</internalNodes>
          <leafValues>
            -1.0819251835346222e-01 3.6968609690666199e-01</leafValues></_>
        <_>
          <internalNodes>
            0 -1 412 -1.2764656916260719e-02</internalNodes>
          <leafValues>
            2.9318705201148987e-01 -1.5228998661041260e-01</leafValues></_>
        <_>
          <internalNodes>
            0 -1 151 1.4560160040855408e-01</internalNodes>
          <leafValues>
            4.8893772065639496e-02 -7.1094453334808350e-01</leafValues></_>
        <_>
          <internalNodes>
            0 -1 133 -7.0846512913703918e-02</internalNodes>
          <leafValues>
            -4.1832676529884338e-01 8.0528296530246735e-02</leafValues></_>
        <_>
          <internalNodes>
            0 -1 1 -6.8841865868307650e-05</internalNodes>
          <leafValues>
            -2.7383178472518921e-01 1.3445851206779480e-01</leafValues></_>
        <_>
          <internalNodes>
            0 -1 34 -2.9803415760397911e-02</internalNodes>
          <leafValues>
            5.3318196535110474e-01 -7.6003178954124451e-02</leafValues></_>
        <_>
          <internalNodes>
            0 -1 1 7.2319773607887328e-05</internalNodes>
          <leafValues>
            1.4831729233264923e-01 -2.4097946286201477e-01</leafValues></_>
        <_>
          <internalNodes>
            0 -1 432 -1.2810721527785063e-03</internalNodes>
          <leafValues>
            1.3687810301780701e-01 -2.5981056690216064e-01</leafValues></_>
        <_>
          <internalNodes>
            0 -1 435 -5.5519305169582367e-02</internalNodes>
          <leafValues>
            3.1174618005752563e-01 -1.2404168397188187e-01</leafValues></_>
        <_>
          <internalNodes>
            0 -1 209 -3.7993562873452902e-03</internalNodes>
          <leafValues>
            4.2008069157600403e-01 -1.0263779759407043e-01</leafValues></_>
        <_>
          <internalNodes>
            0 -1 199 -6.3867890276014805e-03</internalNodes>
          <leafValues>
            -5.4786407947540283e-01 7.8806184232234955e-02</leafValues></_>
        <_>
          <internalNodes>
            0 -1 330 7.8838039189577103e-03</internalNodes>
          <leafValues>
            -1.3882857561111450e-01 3.0781677365303040e-01</leafValues></_>
        <_>
          <internalNodes>
            0 -1 87 -1.2890102880191989e-05</internalNodes>
          <leafValues>
            -2.2174718976020813e-01 1.5858498215675354e-01</leafValues></_>
        <_>
          <internalNodes>
            0 -1 580 7.4952701106667519e-04</internalNodes>
          <leafValues>
            -1.0424899309873581e-01 3.1686493754386902e-01</leafValues></_>
        <_>
          <internalNodes>
            0 -1 594 1.8703410751186311e-04</internalNodes>
          <leafValues>
            1.3344869017601013e-01 -2.5916150212287903e-01</leafValues></_>
        <_>
          <internalNodes>
            0 -1 335 -1.3365077786147594e-02</internalNodes>
          <leafValues>
            -3.9402639865875244e-01 8.4569260478019714e-02</leafValues></_>
        <_>
          <internalNodes>
            0 -1 188 6.8617373704910278e-02</internalNodes>
          <leafValues>
            -8.7841250002384186e-02 4.2136466503143311e-01</leafValues></_>
        <_>
          <internalNodes>
            0 -1 261 -1.6503360122442245e-02</internalNodes>
          <leafValues>
            5.5706268548965454e-01 -5.2141185849905014e-02</leafValues></_>
        <_>
          <internalNodes>
            0 -1 301 2.9581245034933090e-03</internalNodes>
          <leafValues>
            -1.5678943693637848e-01 2.3345926403999329e-01</leafValues></_>
        <_>
          <internalNodes>
            0 -1 440 1.8562629120424390e-03</internalNodes>
          <leafValues>
            3.2210282981395721e-02 -8.8223844766616821e-01</leafValues></_>
        <_>
          <internalNodes>
            0 -1 518 -8.5191559046506882e-03</internalNodes>
          <leafValues>
            2.5939676165580750e-01 -1.2175057828426361e-01</leafValues></_>
        <_>
          <internalNodes>
            0 -1 463 -7.7219093218445778e-03</internalNodes>
          <leafValues>
            -4.1361120343208313e-01 8.6013130843639374e-02</leafValues></_>
        <_>
          <internalNodes>
            0 -1 636 6.4155006839428097e-05</internalNodes>
          <leafValues>
            1.2744262814521790e-01 -2.2827294468879700e-01</leafValues></_>
        <_>
          <internalNodes>
            0 -1 613 -2.8149117715656757e-03</internalNodes>
          <leafValues>
            3.4252655506134033e-01 -9.3519151210784912e-02</leafValues></_>
        <_>
          <internalNodes>
            0 -1 110 -7.1217408403754234e-03</internalNodes>
          <leafValues>
            -7.4034875631332397e-01 4.1784718632698059e-02</leafValues></_>
        <_>
          <internalNodes>
            0 -1 289 -9.1845113784074783e-03</internalNodes>
          <leafValues>
            2.4910913407802582e-01 -1.2627394497394562e-01</leafValues></_>
        <_>
          <internalNodes>
            0 -1 410 -3.7262485420797020e-05</internalNodes>
          <leafValues>
            1.3490344583988190e-01 -2.3436473309993744e-01</leafValues></_>
        <_>
          <internalNodes>
            0 -1 406 -8.4698789578396827e-05</internalNodes>
          <leafValues>
            1.5888476371765137e-01 -1.8862082064151764e-01</leafValues></_>
        <_>
          <internalNodes>
            0 -1 454 -6.9695082493126392e-04</internalNodes>
          <leafValues>
            2.0231764018535614e-01 -1.5941341221332550e-01</leafValues></_>
        <_>
          <internalNodes>
            0 -1 534 1.4167445478960872e-03</internalNodes>
          <leafValues>
            -1.0682953149080276e-01 3.2719254493713379e-01</leafValues></_>
        <_>
          <internalNodes>
            0 -1 40 2.2329443693161011e-01</internalNodes>
          <leafValues>
            4.3503329157829285e-02 -7.8353494405746460e-01</leafValues></_>
        <_>
          <internalNodes>
            0 -1 145 -8.6329528130590916e-04</internalNodes>
          <leafValues>
            -5.1139420270919800e-01 5.7664543390274048e-02</leafValues></_>
        <_>
          <internalNodes>
            0 -1 230 1.7195693217217922e-03</internalNodes>
          <leafValues>
            -1.5541432797908783e-01 2.0450493693351746e-01</leafValues></_>
        <_>
          <internalNodes>
            0 -1 38 2.9666954651474953e-03</internalNodes>
          <leafValues>
            -1.4320676028728485e-01 2.6185989379882812e-01</leafValues></_>
        <_>
          <internalNodes>
            0 -1 350 -2.7240929193794727e-03</internalNodes>
          <leafValues>
            2.8860104084014893e-01 -1.0700879245996475e-01</leafValues></_>
        <_>
          <internalNodes>
            0 -1 636 -6.9553563662339002e-05</internalNodes>
          <leafValues>
            -2.4436192214488983e-01 1.2153228372335434e-01</leafValues></_>
        <_>
          <internalNodes>
            0 -1 30 4.4772215187549591e-03</internalNodes>
          <leafValues>
            -6.8289116024971008e-02 4.6500563621520996e-01</leafValues></_>
        <_>
          <internalNodes>
            0 -1 632 4.0906830690801144e-05</internalNodes>
          <leafValues>
            1.8425470590591431e-01 -1.7492167651653290e-01</leafValues></_></weakClassifiers></_>
    <!-- stage 9 -->
    <_>
      <maxWeakCount>43</maxWeakCount>
      <stageThreshold>-6.5850251913070679e-01</stageThreshold>
      <weakClassifiers>
        <_>
          <internalNodes>
            0 -1 58 1.9207322970032692e-02</internalNodes>
          <leafValues>
            6.3291140832006931e-03 6.1803084611892700e-01</leafValues></_>
        <_>
          <internalNodes>
            0 -1 631 1.3368229381740093e-02</internalNodes>
          <leafValues>
            -1.1618119478225708e-01 5.5154770612716675e-01</leafValues></_>
        <_>
          <internalNodes>
            0 -1 47 5.7904191315174103e-02</internalNodes>
          <leafValues>
            -2.9453572630882263e-01 2.4696664512157440e-01</leafValues></_>
        <_>
          <internalNodes>
            0 -1 17 5.1829717122018337e-03</internalNodes>
          <leafValues>
            -3.0152064561843872e-01 2.4981330335140228e-01</leafValues></_>
        <_>
          <internalNodes>
            0 -1 144 -5.0188675522804260e-03</internalNodes>
          <leafValues>
            3.0138647556304932e-01 -2.3363696038722992e-01</leafValues></_>
        <_>
          <internalNodes>
            0 -1 142 -4.8410268500447273e-03</internalNodes>
          <leafValues>
            2.2556181252002716e-01 -1.9064490497112274e-01</leafValues></_>
        <_>
          <internalNodes>
            0 -1 140 -6.1256480403244495e-03</internalNodes>
          <leafValues>
            5.0563728809356689e-01 -1.1020575463771820e-01</leafValues></_>
        <_>
          <internalNodes>
            0 -1 605 5.1475148648023605e-03</internalNodes>
          <leafValues>
            -1.0818320512771606e-01 3.4721657633781433e-01</leafValues></_>
        <_>
          <internalNodes>
            0 -1 208 2.3427095729857683e-03</internalNodes>
          <leafValues>
            8.3578653633594513e-02 -4.6158921718597412e-01</leafValues></_>
        <_>
          <internalNodes>
            0 -1 189 -4.6317069791257381e-03</internalNodes>
          <leafValues>
            3.4858724474906921e-01 -1.1522871255874634e-01</leafValues></_>
        <_>
          <internalNodes>
            0 -1 84 -2.1779827773571014e-02</internalNodes>
          <leafValues>
            -1.2989419698715210e-01 3.1078404188156128e-01</leafValues></_>
        <_>
          <internalNodes>
            0 -1 190 1.9221524707973003e-03</internalNodes>
          <leafValues>
            -1.4472903311252594e-01 2.5192865729331970e-01</leafValues></_>
        <_>
          <internalNodes>
            0 -1 510 2.7088560163974762e-03</internalNodes>
          <leafValues>
            6.8889439105987549e-02 -4.7969707846641541e-01</leafValues></_>
        <_>
          <internalNodes>
            0 -1 68 -1.2756664305925369e-02</internalNodes>
          <leafValues>
            3.2498264312744141e-01 -1.1230114847421646e-01</leafValues></_>
        <_>
          <internalNodes>
            0 -1 339 1.5176702290773392e-02</internalNodes>
          <leafValues>
            4.9959436058998108e-02 -7.0535433292388916e-01</leafValues></_>
        <_>
          <internalNodes>
            0 -1 118 -1.0207423474639654e-03</internalNodes>
          <leafValues>
            2.2824591398239136e-01 -1.6235208511352539e-01</leafValues></_>
        <_>
          <internalNodes>
            0 -1 49 1.5152496099472046e-01</internalNodes>
          <leafValues>
            -1.8500204384326935e-01 1.8109472095966339e-01</leafValues></_>
        <_>
          <internalNodes>
            0 -1 485 -3.9558606222271919e-03</internalNodes>
          <leafValues>
            4.3722653388977051e-01 -1.2813456356525421e-01</leafValues></_>
        <_>
          <internalNodes>
            0 -1 434 -9.1477520763874054e-02</internalNodes>
          <leafValues>
            3.0361744761466980e-01 -1.2624818086624146e-01</leafValues></_>
        <_>
          <internalNodes>
            0 -1 104 -4.8731334507465363e-02</internalNodes>
          <leafValues>
            4.6985247731208801e-01 -7.2382919490337372e-02</leafValues></_>
        <_>
          <internalNodes>
            0 -1 453 -5.4917647503316402e-04</internalNodes>
          <leafValues>
            2.1276992559432983e-01 -1.6377240419387817e-01</leafValues></_>
        <_>
          <internalNodes>
            0 -1 288 1.5530843287706375e-02</internalNodes>
          <leafValues>
            -1.1207287013530731e-01 3.0741599202156067e-01</leafValues></_>
        <_>
          <internalNodes>
            0 -1 295 -3.1405719928443432e-03</internalNodes>
          <leafValues>
            2.6382812857627869e-01 -1.3331222534179688e-01</leafValues></_>
        <_>
          <internalNodes>
            0 -1 639 6.1741215176880360e-05</internalNodes>
          <leafValues>
            1.2251712381839752e-01 -2.7370727062225342e-01</leafValues></_>
        <_>
          <internalNodes>
            0 -1 195 -5.4010008461773396e-03</internalNodes>
          <leafValues>
            -3.8333699107170105e-01 8.6302362382411957e-02</leafValues></_>
        <_>
          <internalNodes>
            0 -1 520 1.1377540649846196e-03</internalNodes>
          <leafValues>
            -1.3283291459083557e-01 2.4391442537307739e-01</leafValues></_>
        <_>
          <internalNodes>
            0 -1 95 5.8210482820868492e-03</internalNodes>
          <leafValues>
            -1.7665734887123108e-01 1.7706319689750671e-01</leafValues></_>
        <_>
          <internalNodes>
            0 -1 373 1.9498519599437714e-01</internalNodes>
          <leafValues>
            -8.7822251021862030e-02 4.3943223357200623e-01</leafValues></_>
        <_>
          <internalNodes>
            0 -1 493 -6.5087787806987762e-03</internalNodes>
          <leafValues>
            2.8237232565879822e-01 -1.0669934749603271e-01</leafValues></_>
        <_>
          <internalNodes>
            0 -1 597 3.6303082015365362e-03</internalNodes>
          <leafValues>
            5.3879827260971069e-02 -6.5129369497299194e-01</leafValues></_>
        <_>
          <internalNodes>
            0 -1 76 2.6921764016151428e-02</internalNodes>
          <leafValues>
            -5.8322262018918991e-02 5.5523872375488281e-01</leafValues></_>
        <_>
          <internalNodes>
            0 -1 311 -3.2020276412367821e-03</internalNodes>
          <leafValues>
            -5.7844281196594238e-01 7.1610145270824432e-02</leafValues></_>
        <_>
          <internalNodes>
            0 -1 619 -9.0475250035524368e-03</internalNodes>
          <leafValues>
            5.2773821353912354e-01 -6.5577141940593719e-02</leafValues></_>
        <_>
          <internalNodes>
            0 -1 314 2.1252635633572936e-04</internalNodes>
          <leafValues>
            9.4352386891841888e-02 -3.7927171587944031e-01</leafValues></_>
        <_>
          <internalNodes>
            0 -1 53 7.1409799158573151e-02</internalNodes>
          <leafValues>
            -2.3373028635978699e-01 1.2884055078029633e-01</leafValues></_>
        <_>
          <internalNodes>
            0 -1 45 2.8068874962627888e-03</internalNodes>
          <leafValues>
            4.5264292508363724e-02 -6.4859771728515625e-01</leafValues></_>
        <_>
          <internalNodes>
            0 -1 555 3.5463937092572451e-04</internalNodes>
          <leafValues>
            -1.3117764890193939e-01 2.4608618021011353e-01</leafValues></_>
        <_>
          <internalNodes>
            0 -1 273 -2.0727943629026413e-03</internalNodes>
          <leafValues>
            -4.0885651111602783e-01 7.8385971486568451e-02</leafValues></_>
        <_>
          <internalNodes>
            0 -1 489 -1.7757208552211523e-03</internalNodes>
          <leafValues>
            6.1759561300277710e-01 -5.6515231728553772e-02</leafValues></_>
        <_>
          <internalNodes>
            0 -1 314 -2.9944413108751178e-04</internalNodes>
          <leafValues>
            -3.9470815658569336e-01 8.1842839717864990e-02</leafValues></_>
        <_>
          <internalNodes>
            0 -1 598 -8.5296912584453821e-04</internalNodes>
          <leafValues>
            2.7915552258491516e-01 -1.1070985347032547e-01</leafValues></_>
        <_>
          <internalNodes>
            0 -1 583 -3.2291823299601674e-04</internalNodes>
          <leafValues>
            1.7769251763820648e-01 -1.7973539233207703e-01</leafValues></_>
        <_>
          <internalNodes>
            0 -1 630 1.0656692087650299e-02</internalNodes>
          <leafValues>
            5.2294410765171051e-02 -5.7979178428649902e-01</leafValues></_></weakClassifiers></_>
    <!-- stage 10 -->
    <_>
      <maxWeakCount>51</maxWeakCount>
      <stageThreshold>-6.6874080896377563e-01</stageThreshold>
      <weakClassifiers>
        <_>
          <internalNodes>
            0 -1 277 1.6844335943460464e-02</internalNodes>
          <leafValues>
            8.2696318626403809e-02 6.1614823341369629e-01</leafValues></_>
        <_>
          <internalNodes>
            0 -1 321 -4.1561424732208252e-02</internalNodes>
          <leafValues>
            -4.7459778189659119e-01 1.9733087718486786e-01</leafValues></_>
        <_>
          <internalNodes>
            0 -1 589 2.8297094628214836e-02</internalNodes>
          <leafValues>
            -1.8987949192523956e-01 4.8052743077278137e-01</leafValues></_>
        <_>
          <internalNodes>
            0 -1 164 4.6009957790374756e-02</internalNodes>
          <leafValues>
            -1.8232330679893494e-01 2.8964838385581970e-01</leafValues></_>
        <_>
          <internalNodes>
            0 -1 516 -3.7589929997920990e-03</internalNodes>
          <leafValues>
            2.0612056553363800e-01 -2.3093855381011963e-01</leafValues></_>
        <_>
          <internalNodes>
            0 -1 411 4.1988416342064738e-04</internalNodes>
          <leafValues>
            6.1295013874769211e-02 -5.3486412763595581e-01</leafValues></_>
        <_>
          <internalNodes>
            0 -1 413 -1.0328191565349698e-03</internalNodes>
          <leafValues>
            -6.5401864051818848e-01 6.2389720231294632e-02</leafValues></_>
        <_>
          <internalNodes>
            0 -1 439 2.5821453891694546e-04</internalNodes>
          <leafValues>
            -1.9037632644176483e-01 1.9826428592205048e-01</leafValues></_>
        <_>
          <internalNodes>
            0 -1 9 -1.0524910874664783e-02</internalNodes>
          <leafValues>
            -2.5128749012947083e-01 1.5951830148696899e-01</leafValues></_>
        <_>
          <internalNodes>
            0 -1 172 -1.8222031649202108e-03</internalNodes>
          <leafValues>
            -5.7810097932815552e-01 5.3621500730514526e-02</leafValues></_>
        <_>
          <internalNodes>
            0 -1 437 -7.3421071283519268e-04</internalNodes>
          <leafValues>
            -5.3701227903366089e-01 5.6619767099618912e-02</leafValues></_>
        <_>
          <internalNodes>
            0 -1 88 -1.8775998614728451e-03</internalNodes>
          <leafValues>
            1.6337299346923828e-01 -2.0229716598987579e-01</leafValues></_>
        <_>
          <internalNodes>
            0 -1 452 -1.0711826616898179e-03</internalNodes>
          <leafValues>
            2.0075327157974243e-01 -1.6643951833248138e-01</leafValues></_>
        <_>
          <internalNodes>
            0 -1 177 -1.5260503860190511e-03</internalNodes>
          <leafValues>
            2.9705289006233215e-01 -1.2545919418334961e-01</leafValues></_>
        <_>
          <internalNodes>
            0 -1 279 -6.6040549427270889e-04</internalNodes>
          <leafValues>
            -3.0445715785026550e-01 1.1376463621854782e-01</leafValues></_>
        <_>
          <internalNodes>
            0 -1 354 8.8878601673059165e-05</internalNodes>
          <leafValues>
            8.1930592656135559e-02 -3.6358845233917236e-01</leafValues></_>
        <_>
          <internalNodes>
            0 -1 129 -7.9038769006729126e-02</internalNodes>
          <leafValues>
            6.5462249517440796e-01 -4.9810752272605896e-02</leafValues></_>
        <_>
          <internalNodes>
            0 -1 139 1.9366566091775894e-02</internalNodes>
          <leafValues>
            -6.4178280532360077e-02 4.6688902378082275e-01</leafValues></_>
        <_>
          <internalNodes>
            0 -1 559 -3.3886882010847330e-04</internalNodes>
          <leafValues>
            -2.5660842657089233e-01 1.1744869500398636e-01</leafValues></_>
        <_>
          <internalNodes>
            0 -1 146 -1.1859483271837234e-01</internalNodes>
          <leafValues>
            -8.9623242616653442e-01 3.0070792883634567e-02</leafValues></_>
        <_>
          <internalNodes>
            0 -1 51 6.3225778285413980e-04</internalNodes>
          <leafValues>
            -2.0368672907352448e-01 1.4474233984947205e-01</leafValues></_>
        <_>
          <internalNodes>
            0 -1 342 8.3934864960610867e-04</internalNodes>
          <leafValues>
            5.0959445536136627e-02 -5.5294287204742432e-01</leafValues></_>
        <_>
          <internalNodes>
            0 -1 162 -8.9280456304550171e-03</internalNodes>
          <leafValues>
            3.1348171830177307e-01 -9.2668808996677399e-02</leafValues></_>
        <_>
          <internalNodes>
            0 -1 441 -6.5656583756208420e-03</internalNodes>
          <leafValues>
            2.9805037379264832e-01 -9.6242949366569519e-02</leafValues></_>
        <_>
          <internalNodes>
            0 -1 345 -6.8041263148188591e-03</internalNodes>
          <leafValues>
            2.9969158768653870e-01 -1.1281412839889526e-01</leafValues></_>
        <_>
          <internalNodes>
            0 -1 303 -1.4215011615306139e-03</internalNodes>
          <leafValues>
            -6.0142672061920166e-01 5.5680911988019943e-02</leafValues></_>
        <_>
          <internalNodes>
            0 -1 285 1.1241219472140074e-03</internalNodes>
          <leafValues>
            4.0644552558660507e-02 -6.3210588693618774e-01</leafValues></_>
        <_>
          <internalNodes>
            0 -1 252 3.4412587992846966e-03</internalNodes>
          <leafValues>
            -1.2905225157737732e-01 2.3706127703189850e-01</leafValues></_>
        <_>
          <internalNodes>
            0 -1 36 1.0673167705535889e+00</internalNodes>
          <leafValues>
            -8.6908981204032898e-02 3.1944233179092407e-01</leafValues></_>
        <_>
          <internalNodes>
            0 -1 187 4.6859316527843475e-02</internalNodes>
          <leafValues>
            -7.4925698339939117e-02 4.0428468585014343e-01</leafValues></_>
        <_>
          <internalNodes>
            0 -1 220 -5.6604966521263123e-03</internalNodes>
          <leafValues>
            2.7066189050674438e-01 -1.1731956154108047e-01</leafValues></_>
        <_>
          <internalNodes>
            0 -1 149 7.5903546530753374e-04</internalNodes>
          <leafValues>
            -1.6427369415760040e-01 1.7921391129493713e-01</leafValues></_>
        <_>
          <internalNodes>
            0 -1 44 8.2798823714256287e-03</internalNodes>
          <leafValues>
            -6.8533413112163544e-02 4.1684979200363159e-01</leafValues></_>
        <_>
          <internalNodes>
            0 -1 403 -3.1420012237504125e-04</internalNodes>
          <leafValues>
            -4.2491734027862549e-01 7.9981215298175812e-02</leafValues></_>
        <_>
          <internalNodes>
            0 -1 416 8.8942277943715453e-04</internalNodes>
          <leafValues>
            5.9649631381034851e-02 -4.9485781788825989e-01</leafValues></_>
        <_>
          <internalNodes>
            0 -1 291 -4.5789061114192009e-03</internalNodes>
          <leafValues>
            3.3463671803474426e-01 -9.2527061700820923e-02</leafValues></_>
        <_>
          <internalNodes>
            0 -1 545 7.5173668563365936e-02</internalNodes>
          <leafValues>
            -5.0446320325136185e-02 5.6966495513916016e-01</leafValues></_>
        <_>
          <internalNodes>
            0 -1 526 -1.3395090354606509e-03</internalNodes>
          <leafValues>
            1.8647970259189606e-01 -1.5640562772750854e-01</leafValues></_>
        <_>
          <internalNodes>
            0 -1 609 -1.4246611855924129e-02</internalNodes>
          <leafValues>
            -5.7487326860427856e-01 5.0817728042602539e-02</leafValues></_>
        <_>
          <internalNodes>
            0 -1 214 3.3169835805892944e-03</internalNodes>
          <leafValues>
            2.4646395817399025e-02 -8.2303643226623535e-01</leafValues></_>
        <_>
          <internalNodes>
            0 -1 233 -2.0752535783685744e-04</internalNodes>
          <leafValues>
            -2.9542341828346252e-01 7.9886645078659058e-02</leafValues></_>
        <_>
          <internalNodes>
            0 -1 476 1.5926051419228315e-03</internalNodes>
          <leafValues>
            -9.8313577473163605e-02 2.6344165205955505e-01</leafValues></_>
        <_>
          <internalNodes>
            0 -1 474 9.6454378217458725e-04</internalNodes>
          <leafValues>
            -1.1650916934013367e-01 2.3027406632900238e-01</leafValues></_>
        <_>
          <internalNodes>
            0 -1 535 -1.3001490151509643e-03</internalNodes>
          <leafValues>
            -3.0145454406738281e-01 8.6930766701698303e-02</leafValues></_>
        <_>
          <internalNodes>
            0 -1 536 5.5213063023984432e-04</internalNodes>
          <leafValues>
            5.7379540055990219e-02 -4.5360660552978516e-01</leafValues></_>
        <_>
          <internalNodes>
            0 -1 554 1.6831534449011087e-03</internalNodes>
          <leafValues>
            -8.5073970258235931e-02 3.5078838467597961e-01</leafValues></_>
        <_>
          <internalNodes>
            0 -1 201 1.6126797709148377e-04</internalNodes>
          <leafValues>
            1.0115375369787216e-01 -2.6305332779884338e-01</leafValues></_>
        <_>
          <internalNodes>
            0 -1 243 -1.5733901411294937e-02</internalNodes>
          <leafValues>
            4.6071153879165649e-01 -6.1668485403060913e-02</leafValues></_>
        <_>
          <internalNodes>
            0 -1 466 3.7105547380633652e-04</internalNodes>
          <leafValues>
            -1.9200772047042847e-01 1.6310033202171326e-01</leafValues></_>
        <_>
          <internalNodes>
            0 -1 227 -2.7010591700673103e-02</internalNodes>
          <leafValues>
            4.6611213684082031e-01 -6.2089718878269196e-02</leafValues></_>
        <_>
          <internalNodes>
            0 -1 141 -1.8912167288362980e-03</internalNodes>
          <leafValues>
            -3.0320266261696815e-02 7.9618859291076660e-01</leafValues></_></weakClassifiers></_>
    <!-- stage 11 -->
    <_>
      <maxWeakCount>54</maxWeakCount>
      <stageThreshold>-6.1829900741577148e-01</stageThreshold>
      <weakClassifiers>
        <_>
          <internalNodes>
            0 -1 139 8.1663746386766434e-03</internalNodes>
          <leafValues>
            6.8691253662109375e-02 6.0944479703903198e-01</leafValues></_>
        <_>
          <internalNodes>
            0 -1 104 1.2622523307800293e-01</internalNodes>
          <leafValues>
            -1.7003364861011505e-01 3.6149105429649353e-01</leafValues></_>
        <_>
          <internalNodes>
            0 -1 548 -4.7996565699577332e-02</internalNodes>
          <leafValues>
            3.7728109955787659e-01 -1.4771446585655212e-01</leafValues></_>
        <_>
          <internalNodes>
            0 -1 13 3.6807172000408173e-03</internalNodes>
          <leafValues>
            -2.3412325978279114e-01 1.7512591183185577e-01</leafValues></_>
        <_>
          <internalNodes>
            0 -1 186 -8.9714683592319489e-02</internalNodes>
          <leafValues>
            -6.0436159372329712e-01 6.8816564977169037e-02</leafValues></_>
        <_>
          <internalNodes>
            0 -1 573 6.1205932870507240e-03</internalNodes>
          <leafValues>
            -2.1689218282699585e-01 1.7207625508308411e-01</leafValues></_>
        <_>
          <internalNodes>
            0 -1 310 1.0932842269539833e-03</internalNodes>
          <leafValues>
            9.8671607673168182e-02 -3.8018783926963806e-01</leafValues></_>
        <_>
          <internalNodes>
            0 -1 283 -2.7117718011140823e-02</internalNodes>
          <leafValues>
            3.0206197500228882e-01 -1.3824854791164398e-01</leafValues></_>
        <_>
          <internalNodes>
            0 -1 55 -3.1478200107812881e-02</internalNodes>
          <leafValues>
            5.0769072771072388e-01 -9.0072646737098694e-02</leafValues></_>
        <_>
          <internalNodes>
            0 -1 383 -3.6932833609171212e-04</internalNodes>
          <leafValues>
            1.3957926630973816e-01 -2.9428780078887939e-01</leafValues></_>
        <_>
          <internalNodes>
            0 -1 530 1.1243814602494240e-02</internalNodes>
          <leafValues>
            6.1884939670562744e-02 -4.6986612677574158e-01</leafValues></_>
        <_>
          <internalNodes>
            0 -1 418 2.0005647093057632e-03</internalNodes>
          <leafValues>
            -1.5694555640220642e-01 2.2221174836158752e-01</leafValues></_>
        <_>
          <internalNodes>
            0 -1 621 -2.9204133898019791e-03</internalNodes>
          <leafValues>
            -5.6976228952407837e-01 5.2202839404344559e-02</leafValues></_>
        <_>
          <internalNodes>
            0 -1 509 8.6063537746667862e-03</internalNodes>
          <leafValues>
            5.5941972881555557e-02 -5.0031334161758423e-01</leafValues></_>
        <_>
          <internalNodes>
            0 -1 490 -4.4961017556488514e-04</internalNodes>
          <leafValues>
            -5.2616399526596069e-01 5.2938818931579590e-02</leafValues></_>
        <_>
          <internalNodes>
            0 -1 481 4.2622862383723259e-04</internalNodes>
          <leafValues>
            -1.8894875049591064e-01 1.4440517127513885e-01</leafValues></_>
        <_>
          <internalNodes>
            0 -1 426 2.6454473845660686e-03</internalNodes>
          <leafValues>
            -1.0918681323528290e-01 2.9284650087356567e-01</leafValues></_>
        <_>
          <internalNodes>
            0 -1 83 -2.9541149735450745e-02</internalNodes>
          <leafValues>
            4.2314907908439636e-01 -6.6555611789226532e-02</leafValues></_>
        <_>
          <internalNodes>
            0 -1 513 -4.5009749010205269e-03</internalNodes>
          <leafValues>
            2.7756699919700623e-01 -1.0267020016908646e-01</leafValues></_>
        <_>
          <internalNodes>
            0 -1 436 1.7591423820704222e-03</internalNodes>
          <leafValues>
            5.5463384836912155e-02 -5.2641123533248901e-01</leafValues></_>
        <_>
          <internalNodes>
            0 -1 320 -1.4207504689693451e-02</internalNodes>
          <leafValues>
            2.4955791234970093e-01 -1.1571317166090012e-01</leafValues></_>
        <_>
          <internalNodes>
            0 -1 161 8.4027558565139771e-02</internalNodes>
          <leafValues>
            6.7721210420131683e-02 -5.0181156396865845e-01</leafValues></_>
        <_>
          <internalNodes>
            0 -1 404 -1.4556224923580885e-03</internalNodes>
          <leafValues>
            2.0499932765960693e-01 -1.3761998713016510e-01</leafValues></_>
        <_>
          <internalNodes>
            0 -1 105 -4.7614462673664093e-02</internalNodes>
          <leafValues>
            -3.6955922842025757e-01 8.3229728043079376e-02</leafValues></_>
        <_>
          <internalNodes>
            0 -1 293 -5.9121949598193169e-03</internalNodes>
          <leafValues>
            -2.5268536806106567e-01 1.2403432279825211e-01</leafValues></_>
        <_>
          <internalNodes>
            0 -1 579 -7.8137242235243320e-04</internalNodes>
          <leafValues>
            2.5294119119644165e-01 -1.0877440124750137e-01</leafValues></_>
        <_>
          <internalNodes>
            0 -1 574 7.5342524796724319e-03</internalNodes>
          <leafValues>
            -5.2445072680711746e-02 5.5888414382934570e-01</leafValues></_>
        <_>
          <internalNodes>
            0 -1 237 -2.5732629001140594e-02</internalNodes>
          <leafValues>
            -7.1462821960449219e-01 4.3481260538101196e-02</leafValues></_>
        <_>
          <internalNodes>
            0 -1 551 -6.3076633960008621e-03</internalNodes>
          <leafValues>
            -6.0704010725021362e-01 3.6108788102865219e-02</leafValues></_>
        <_>
          <internalNodes>
            0 -1 271 -4.2971320450305939e-02</internalNodes>
          <leafValues>
            5.8448880910873413e-01 -4.7219965606927872e-02</leafValues></_>
        <_>
          <internalNodes>
            0 -1 65 -1.6612838953733444e-02</internalNodes>
          <leafValues>
            1.5923944115638733e-01 -2.2576764225959778e-01</leafValues></_>
        <_>
          <internalNodes>
            0 -1 219 2.9796960297971964e-03</internalNodes>
          <leafValues>
            -8.2307495176792145e-02 3.2226765155792236e-01</leafValues></_>
        <_>
          <internalNodes>
            0 -1 367 2.0264475606381893e-03</internalNodes>
          <leafValues>
            4.0067505091428757e-02 -6.8804079294204712e-01</leafValues></_>
        <_>
          <internalNodes>
            0 -1 309 -6.2771826051175594e-03</internalNodes>
          <leafValues>
            -4.9102458357810974e-01 4.4912640005350113e-02</leafValues></_>
        <_>
          <internalNodes>
            0 -1 542 2.9326658695936203e-03</internalNodes>
          <leafValues>
            -9.5353417098522186e-02 2.9054608941078186e-01</leafValues></_>
        <_>
          <internalNodes>
            0 -1 334 1.0900458320975304e-02</internalNodes>
          <leafValues>
            4.4906124472618103e-02 -6.0976958274841309e-01</leafValues></_>
        <_>
          <internalNodes>
            0 -1 480 -7.9188926611095667e-04</internalNodes>
          <leafValues>
            2.3733226954936981e-01 -1.1522185802459717e-01</leafValues></_>
        <_>
          <internalNodes>
            0 -1 143 -1.1111320927739143e-03</internalNodes>
          <leafValues>
            1.8456056714057922e-01 -1.5555420517921448e-01</leafValues></_>
        <_>
          <internalNodes>
            0 -1 134 7.2153750807046890e-03</internalNodes>
          <leafValues>
            -1.6868893802165985e-01 1.5208573639392853e-01</leafValues></_>
        <_>
          <internalNodes>
            0 -1 274 -9.3301385641098022e-03</internalNodes>
          <leafValues>
            3.5131290555000305e-01 -8.2595720887184143e-02</leafValues></_>
        <_>
          <internalNodes>
            0 -1 56 1.9379116594791412e-02</internalNodes>
          <leafValues>
            -1.2588702142238617e-01 2.5301331281661987e-01</leafValues></_>
        <_>
          <internalNodes>
            0 -1 269 5.2747847512364388e-03</internalNodes>
          <leafValues>
            5.2295144647359848e-02 -5.2475172281265259e-01</leafValues></_>
        <_>
          <internalNodes>
            0 -1 637 -1.3893692521378398e-03</internalNodes>
          <leafValues>
            -3.7812623381614685e-01 6.8309836089611053e-02</leafValues></_>
        <_>
          <internalNodes>
            0 -1 180 -6.1459243297576904e-02</internalNodes>
          <leafValues>
            -3.6002099514007568e-01 7.1746319532394409e-02</leafValues></_>
        <_>
          <internalNodes>
            0 -1 322 -1.4101935550570488e-02</internalNodes>
          <leafValues>
            3.9679285883903503e-01 -6.5916039049625397e-02</leafValues></_>
        <_>
          <internalNodes>
            0 -1 491 3.6945106694474816e-04</internalNodes>
          <leafValues>
            -1.3702289760112762e-01 2.0083217322826385e-01</leafValues></_>
        <_>
          <internalNodes>
            0 -1 251 2.5560487993061543e-03</internalNodes>
          <leafValues>
            4.8006240278482437e-02 -5.0591301918029785e-01</leafValues></_>
        <_>
          <internalNodes>
            0 -1 185 5.0378905143588781e-04</internalNodes>
          <leafValues>
            -8.6535602807998657e-02 3.2854187488555908e-01</leafValues></_>
        <_>
          <internalNodes>
            0 -1 182 6.0140546411275864e-03</internalNodes>
          <leafValues>
            -1.2487863004207611e-01 2.1628563106060028e-01</leafValues></_>
        <_>
          <internalNodes>
            0 -1 456 2.7839932590723038e-04</internalNodes>
          <leafValues>
            6.7473784089088440e-02 -3.5476547479629517e-01</leafValues></_>
        <_>
          <internalNodes>
            0 -1 467 1.9633944611996412e-03</internalNodes>
          <leafValues>
            -1.1459700763225555e-01 2.0466487109661102e-01</leafValues></_>
        <_>
          <internalNodes>
            0 -1 181 4.1584358550608158e-03</internalNodes>
          <leafValues>
            -1.2561704218387604e-01 2.0835272967815399e-01</leafValues></_>
        <_>
          <internalNodes>
            0 -1 7 3.6805875424761325e-05</internalNodes>
          <leafValues>
            1.4288273453712463e-01 -1.9402697682380676e-01</leafValues></_>
        <_>
          <internalNodes>
            0 -1 32 -4.9964672327041626e-01</internalNodes>
          <leafValues>
            5.2313816547393799e-01 -5.1105916500091553e-02</leafValues></_></weakClassifiers></_>
    <!-- stage 12 -->
    <_>
      <maxWeakCount>57</maxWeakCount>
      <stageThreshold>-6.1667495965957642e-01</stageThreshold>
      <weakClassifiers>
        <_>
          <internalNodes>
            0 -1 25 1.1727653443813324e-01</internalNodes>
          <leafValues>
            -8.0482894554734230e-03 5.4089981317520142e-01</leafValues></_>
        <_>
          <internalNodes>
            0 -1 539 -7.4580296874046326e-02</internalNodes>
          <leafValues>
            4.2606449127197266e-01 -1.4676974713802338e-01</leafValues></_>
        <_>
          <internalNodes>
            0 -1 18 -7.7185048721730709e-03</internalNodes>
          <leafValues>
            2.2152307629585266e-01 -2.0607078075408936e-01</leafValues></_>
        <_>
          <internalNodes>
            0 -1 108 4.9496106803417206e-03</internalNodes>
          <leafValues>
            -1.2205394357442856e-01 3.4594270586967468e-01</leafValues></_>
        <_>
          <internalNodes>
            0 -1 258 -3.2759945839643478e-02</internalNodes>
          <leafValues>
            -5.4353713989257812e-01 2.8287071734666824e-02</leafValues></_>
        <_>
          <internalNodes>
            0 -1 495 1.4200080186128616e-02</internalNodes>
          <leafValues>
            -1.1658324301242828e-01 2.8713944554328918e-01</leafValues></_>
        <_>
          <internalNodes>
            0 -1 401 3.2105343416333199e-03</internalNodes>
          <leafValues>
            -2.4140624701976776e-01 1.4472059905529022e-01</leafValues></_>
        <_>
          <internalNodes>
            0 -1 166 4.9809932708740234e-02</internalNodes>
          <leafValues>
            9.0125396847724915e-02 -4.0806883573532104e-01</leafValues></_>
        <_>
          <internalNodes>
            0 -1 389 -2.6401644572615623e-03</internalNodes>
          <leafValues>
            1.7189347743988037e-01 -1.7875082790851593e-01</leafValues></_>
        <_>
          <internalNodes>
            0 -1 631 -5.2519245073199272e-03</internalNodes>
          <leafValues>
            4.1125884652137756e-01 -9.4887904822826385e-02</leafValues></_>
        <_>
          <internalNodes>
            0 -1 470 -5.2652973681688309e-03</internalNodes>
          <leafValues>
            2.4989452958106995e-01 -1.2293615192174911e-01</leafValues></_>
        <_>
          <internalNodes>
            0 -1 264 -2.0195398479700089e-02</internalNodes>
          <leafValues>
            5.4962044954299927e-01 -6.8699628114700317e-02</leafValues></_>
        <_>
          <internalNodes>
            0 -1 298 3.0830613104626536e-04</internalNodes>
          <leafValues>
            -2.2685624659061432e-01 1.4042676985263824e-01</leafValues></_>
        <_>
          <internalNodes>
            0 -1 544 8.2648508250713348e-02</internalNodes>
          <leafValues>
            3.9572302252054214e-02 -7.0451635122299194e-01</leafValues></_>
        <_>
          <internalNodes>
            0 -1 286 3.4484663046896458e-04</internalNodes>
          <leafValues>
            6.2688186764717102e-02 -4.3153676390647888e-01</leafValues></_>
        <_>
          <internalNodes>
            0 -1 147 -7.7008046209812164e-03</internalNodes>
          <leafValues>
            2.4162259697914124e-01 -1.2261180579662323e-01</leafValues></_>
        <_>
          <internalNodes>
            0 -1 484 4.1351281106472015e-04</internalNodes>
          <leafValues>
            -2.3416140675544739e-01 1.2277666479349136e-01</leafValues></_>
        <_>
          <internalNodes>
            0 -1 593 -5.3385365754365921e-04</internalNodes>
          <leafValues>
            2.3100323975086212e-01 -1.1822653561830521e-01</leafValues></_>
        <_>
          <internalNodes>
            0 -1 39 4.2310979217290878e-02</internalNodes>
          <leafValues>
            4.3981879949569702e-02 -6.9489908218383789e-01</leafValues></_>
        <_>
          <internalNodes>
            0 -1 77 -2.1278802305459976e-03</internalNodes>
          <leafValues>
            2.4512131512165070e-01 -1.2437291443347931e-01</leafValues></_>
        <_>
          <internalNodes>
            0 -1 116 -2.3175487876869738e-04</internalNodes>
          <leafValues>
            -3.3394962549209595e-01 8.8125281035900116e-02</leafValues></_>
        <_>
          <internalNodes>
            0 -1 398 -6.2153674662113190e-03</internalNodes>
          <leafValues>
            2.7756032347679138e-01 -1.0898704081773758e-01</leafValues></_>
        <_>
          <internalNodes>
            0 -1 592 -3.8843662478029728e-03</internalNodes>
          <leafValues>
            -4.6371960639953613e-01 6.7459210753440857e-02</leafValues></_>
        <_>
          <internalNodes>
            0 -1 460 -1.8669001292437315e-03</internalNodes>
          <leafValues>
            -8.9588272571563721e-01 2.4321522563695908e-02</leafValues></_>
        <_>
          <internalNodes>
            0 -1 642 -1.9298151601105928e-03</internalNodes>
          <leafValues>
            -1.0041541606187820e-01 2.9282733798027039e-01</leafValues></_>
        <_>
          <internalNodes>
            0 -1 75 1.3292552903294563e-02</internalNodes>
          <leafValues>
            -4.4095288962125778e-02 6.2042790651321411e-01</leafValues></_>
        <_>
          <internalNodes>
            0 -1 399 -2.2894497960805893e-03</internalNodes>
          <leafValues>
            6.8090029060840607e-02 -4.5266181230545044e-01</leafValues></_>
        <_>
          <internalNodes>
            0 -1 368 1.3446254888549447e-04</internalNodes>
          <leafValues>
            1.6715332865715027e-01 -1.7601038515567780e-01</leafValues></_>
        <_>
          <internalNodes>
            0 -1 160 -2.9068596661090851e-02</internalNodes>
          <leafValues>
            -3.9000415802001953e-01 7.4170887470245361e-02</leafValues></_>
        <_>
          <internalNodes>
            0 -1 167 5.5113490670919418e-03</internalNodes>
          <leafValues>
            -1.4470401406288147e-01 1.8780738115310669e-01</leafValues></_>
        <_>
          <internalNodes>
            0 -1 223 -9.1646663844585419e-02</internalNodes>
          <leafValues>
            -4.0642961859703064e-01 6.7714296281337738e-02</leafValues></_>
        <_>
          <internalNodes>
            0 -1 254 3.1096663326025009e-02</internalNodes>
          <leafValues>
            2.6865381747484207e-02 -8.6402207612991333e-01</leafValues></_>
        <_>
          <internalNodes>
            0 -1 464 -2.2069346159696579e-02</internalNodes>
          <leafValues>
            -7.5452715158462524e-01 2.8566867113113403e-02</leafValues></_>
        <_>
          <internalNodes>
            0 -1 228 -3.7784114480018616e-02</internalNodes>
          <leafValues>
            5.4084503650665283e-01 -5.5807847529649734e-02</leafValues></_>
        <_>
          <internalNodes>
            0 -1 519 1.6657615196891129e-04</internalNodes>
          <leafValues>
            -1.8990144133567810e-01 1.5651434659957886e-01</leafValues></_>
        <_>
          <internalNodes>
            0 -1 206 7.6733501628041267e-03</internalNodes>
          <leafValues>
            -5.6926023215055466e-02 4.7838065028190613e-01</leafValues></_>
        <_>
          <internalNodes>
            0 -1 240 -4.9754306674003601e-03</internalNodes>
          <leafValues>
            -5.2050495147705078e-01 5.6929539889097214e-02</leafValues></_>
        <_>
          <internalNodes>
            0 -1 122 -8.9533878490328789e-03</internalNodes>
          <leafValues>
            2.7221000194549561e-01 -9.4771452248096466e-02</leafValues></_>
        <_>
          <internalNodes>
            0 -1 155 -2.5076717138290405e-03</internalNodes>
          <leafValues>
            2.1140904724597931e-01 -1.2435604631900787e-01</leafValues></_>
        <_>
          <internalNodes>
            0 -1 112 1.6918208450078964e-02</internalNodes>
          <leafValues>
            -1.5426535904407501e-01 1.9106358289718628e-01</leafValues></_>
        <_>
          <internalNodes>
            0 -1 62 -1.5058019198477268e-02</internalNodes>
          <leafValues>
            3.3920255303382874e-01 -8.9102059602737427e-02</leafValues></_>
        <_>
          <internalNodes>
            0 -1 210 -1.5304040163755417e-02</internalNodes>
          <leafValues>
            1.4953811466693878e-01 -1.8044319748878479e-01</leafValues></_>
        <_>
          <internalNodes>
            0 -1 338 3.4164622426033020e-02</internalNodes>
          <leafValues>
            5.2242796868085861e-02 -5.3032970428466797e-01</leafValues></_>
        <_>
          <internalNodes>
            0 -1 4 -7.5716103310696781e-05</internalNodes>
          <leafValues>
            -2.3391309380531311e-01 1.1175374686717987e-01</leafValues></_>
        <_>
          <internalNodes>
            0 -1 374 -3.6035722587257624e-04</internalNodes>
          <leafValues>
            1.4516361057758331e-01 -1.6704651713371277e-01</leafValues></_>
        <_>
          <internalNodes>
            0 -1 304 3.1380201689898968e-03</internalNodes>
          <leafValues>
            8.0833353102207184e-02 -3.2357293367385864e-01</leafValues></_>
        <_>
          <internalNodes>
            0 -1 253 -4.8910761252045631e-03</internalNodes>
          <leafValues>
            2.1539893746376038e-01 -1.1474397778511047e-01</leafValues></_>
        <_>
          <internalNodes>
            0 -1 123 -1.1353021860122681e-01</internalNodes>
          <leafValues>
            -8.4850579500198364e-01 4.1064675897359848e-02</leafValues></_>
        <_>
          <internalNodes>
            0 -1 450 8.2957418635487556e-04</internalNodes>
          <leafValues>
            2.3381428793072701e-02 -6.9239336252212524e-01</leafValues></_>
        <_>
          <internalNodes>
            0 -1 615 4.5254295691847801e-03</internalNodes>
          <leafValues>
            -6.6364213824272156e-02 3.8570570945739746e-01</leafValues></_>
        <_>
          <internalNodes>
            0 -1 607 3.3550271764397621e-03</internalNodes>
          <leafValues>
            -1.0882009565830231e-01 2.5025752186775208e-01</leafValues></_>
        <_>
          <internalNodes>
            0 -1 596 9.7310490673407912e-05</internalNodes>
          <leafValues>
            1.0446003079414368e-01 -2.5209671258926392e-01</leafValues></_>
        <_>
          <internalNodes>
            0 -1 641 -2.1783533156849444e-04</internalNodes>
          <leafValues>
            -3.0087819695472717e-01 9.4863213598728180e-02</leafValues></_>
        <_>
          <internalNodes>
            0 -1 475 -4.8679709434509277e-03</internalNodes>
          <leafValues>
            4.6843349933624268e-01 -7.0204704999923706e-02</leafValues></_>
        <_>
          <internalNodes>
            0 -1 517 -1.0102265514433384e-03</internalNodes>
          <leafValues>
            2.3067274689674377e-01 -9.6797801554203033e-02</leafValues></_>
        <_>
          <internalNodes>
            0 -1 106 -1.2612648308277130e-01</internalNodes>
          <leafValues>
            3.0877107381820679e-01 -7.4927955865859985e-02</leafValues></_>
        <_>
          <internalNodes>
            0 -1 612 -1.4949899632483721e-03</internalNodes>
          <leafValues>
            2.3843152821063995e-01 -1.0651373863220215e-01</leafValues></_></weakClassifiers></_>
    <!-- stage 13 -->
    <_>
      <maxWeakCount>65</maxWeakCount>
      <stageThreshold>-5.0873970985412598e-01</stageThreshold>
      <weakClassifiers>
        <_>
          <internalNodes>
            0 -1 97 3.5737809538841248e-01</internalNodes>
          <leafValues>
            1.1493461579084396e-01 5.8984637260437012e-01</leafValues></_>
        <_>
          <internalNodes>
            0 -1 12 1.8494673073291779e-02</internalNodes>
          <leafValues>
            -2.1209388971328735e-01 2.9500967264175415e-01</leafValues></_>
        <_>
          <internalNodes>
            0 -1 575 -5.4629370570182800e-03</internalNodes>
          <leafValues>
            1.9115558266639709e-01 -2.3743455111980438e-01</leafValues></_>
        <_>
          <internalNodes>
            0 -1 80 -1.9315091893076897e-02</internalNodes>
          <leafValues>
            -8.8222637772560120e-02 4.4102197885513306e-01</leafValues></_>
        <_>
          <internalNodes>
            0 -1 238 -6.3198427669703960e-03</internalNodes>
          <leafValues>
            1.5809664130210876e-01 -2.3889271914958954e-01</leafValues></_>
        <_>
          <internalNodes>
            0 -1 392 1.5375069342553616e-03</internalNodes>
          <leafValues>
            -1.5700754523277283e-01 2.0970043540000916e-01</leafValues></_>
        <_>
          <internalNodes>
            0 -1 352 -1.3362092897295952e-02</internalNodes>
          <leafValues>
            -6.0545980930328369e-01 4.7238517552614212e-02</leafValues></_>
        <_>
          <internalNodes>
            0 -1 3 9.4553851522505283e-04</internalNodes>
          <leafValues>
            -1.8890047073364258e-01 1.6781148314476013e-01</leafValues></_>
        <_>
          <internalNodes>
            0 -1 603 4.3833558447659016e-03</internalNodes>
          <leafValues>
            -5.0813853740692139e-02 5.4925811290740967e-01</leafValues></_>
        <_>
          <internalNodes>
            0 -1 459 -3.1778678297996521e-01</internalNodes>
          <leafValues>
            -2.1838614344596863e-01 1.3492849469184875e-01</leafValues></_>
        <_>
          <internalNodes>
            0 -1 313 5.1748933037742972e-04</internalNodes>
          <leafValues>
            6.7786738276481628e-02 -3.7952739000320435e-01</leafValues></_>
        <_>
          <internalNodes>
            0 -1 275 1.8002348951995373e-03</internalNodes>
          <leafValues>
            6.6606067121028900e-02 -3.8276877999305725e-01</leafValues></_>
        <_>
          <internalNodes>
            0 -1 349 -4.3694674968719482e-03</internalNodes>
          <leafValues>
            2.3212203383445740e-01 -1.1530597507953644e-01</leafValues></_>
        <_>
          <internalNodes>
            0 -1 255 8.7493471801280975e-03</internalNodes>
          <leafValues>
            -1.7498420178890228e-01 1.5623074769973755e-01</leafValues></_>
        <_>
          <internalNodes>
            0 -1 35 -2.2623179852962494e-01</internalNodes>
          <leafValues>
            4.8903837800025940e-01 -5.1744032651185989e-02</leafValues></_>
        <_>
          <internalNodes>
            0 -1 247 -3.8828407414257526e-03</internalNodes>
          <leafValues>
            1.7426678538322449e-01 -2.0062425732612610e-01</leafValues></_>
        <_>
          <internalNodes>
            0 -1 633 -1.0267565026879311e-02</internalNodes>
          <leafValues>
            4.4380757212638855e-01 -5.6422684341669083e-02</leafValues></_>
        <_>
          <internalNodes>
            0 -1 168 2.6715561747550964e-02</internalNodes>
          <leafValues>
            -9.1179296374320984e-02 2.8726497292518616e-01</leafValues></_>
        <_>
          <internalNodes>
            0 -1 377 2.6095879729837179e-04</internalNodes>
          <leafValues>
            -1.9427442550659180e-01 1.6546362638473511e-01</leafValues></_>
        <_>
          <internalNodes>
            0 -1 235 -1.2576909363269806e-01</internalNodes>
          <leafValues>
            -4.6426545828580856e-02 6.0305875539779663e-01</leafValues></_>
        <_>
          <internalNodes>
            0 -1 471 5.9805763885378838e-03</internalNodes>
          <leafValues>
            -1.1397416144609451e-01 2.4090598523616791e-01</leafValues></_>
        <_>
          <internalNodes>
            0 -1 415 -9.2456024140119553e-03</internalNodes>
          <leafValues>
            -4.2292362451553345e-01 6.7398242652416229e-02</leafValues></_>
        <_>
          <internalNodes>
            0 -1 563 -1.0306110605597496e-02</internalNodes>
          <leafValues>
            4.3817287683486938e-01 -5.8909218758344650e-02</leafValues></_>
        <_>
          <internalNodes>
            0 -1 624 5.8484471082920209e-05</internalNodes>
          <leafValues>
            1.1140619963407516e-01 -2.2347725927829742e-01</leafValues></_>
        <_>
          <internalNodes>
            0 -1 59 -2.2500503808259964e-02</internalNodes>
          <leafValues>
            4.9626654386520386e-01 -5.1095642149448395e-02</leafValues></_>
        <_>
          <internalNodes>
            0 -1 43 1.4534315560013056e-03</internalNodes>
          <leafValues>
            5.6337598711252213e-02 -4.5565137267112732e-01</leafValues></_>
        <_>
          <internalNodes>
            0 -1 46 5.7108558714389801e-02</internalNodes>
          <leafValues>
            3.5081230103969574e-02 -6.4097684621810913e-01</leafValues></_>
        <_>
          <internalNodes>
            0 -1 229 3.0314803007058799e-04</internalNodes>
          <leafValues>
            -1.7592623829841614e-01 1.4373508095741272e-01</leafValues></_>
        <_>
          <internalNodes>
            0 -1 497 -5.7321349158883095e-03</internalNodes>
          <leafValues>
            1.8078528344631195e-01 -1.3083815574645996e-01</leafValues></_>
        <_>
          <internalNodes>
            0 -1 531 3.5162019776180387e-04</internalNodes>
          <leafValues>
            -1.4593243598937988e-01 1.7751970887184143e-01</leafValues></_>
        <_>
          <internalNodes>
            0 -1 572 3.4785727038979530e-03</internalNodes>
          <leafValues>
            -6.0769375413656235e-02 3.8550516963005066e-01</leafValues></_>
        <_>
          <internalNodes>
            0 -1 590 -4.5479680411517620e-03</internalNodes>
          <leafValues>
            -5.2300304174423218e-01 4.8856407403945923e-02</leafValues></_>
        <_>
          <internalNodes>
            0 -1 560 -1.7388984560966492e-02</internalNodes>
          <leafValues>
            -3.9932361245155334e-01 6.2068954110145569e-02</leafValues></_>
        <_>
          <internalNodes>
            0 -1 204 9.7189648076891899e-03</internalNodes>
          <leafValues>
            2.8605885803699493e-02 -7.0193320512771606e-01</leafValues></_>
        <_>
          <internalNodes>
            0 -1 472 2.2151955636218190e-04</internalNodes>
          <leafValues>
            -1.4881911873817444e-01 1.4516599476337433e-01</leafValues></_>
        <_>
          <internalNodes>
            0 -1 323 -4.5322384685277939e-03</internalNodes>
          <leafValues>
            2.2533439099788666e-01 -1.0727469623088837e-01</leafValues></_>
        <_>
          <internalNodes>
            0 -1 183 4.8314519226551056e-03</internalNodes>
          <leafValues>
            -7.0226870477199554e-02 3.5286036133766174e-01</leafValues></_>
        <_>
          <internalNodes>
            0 -1 372 -1.0284118354320526e-02</internalNodes>
          <leafValues>
            2.8615939617156982e-01 -8.5587099194526672e-02</leafValues></_>
        <_>
          <internalNodes>
            0 -1 115 -1.3037988537689671e-05</internalNodes>
          <leafValues>
            -1.4896221458911896e-01 1.7468607425689697e-01</leafValues></_>
        <_>
          <internalNodes>
            0 -1 614 -4.0142419748008251e-03</internalNodes>
          <leafValues>
            -3.7049686908721924e-01 6.8630822002887726e-02</leafValues></_>
        <_>
          <internalNodes>
            0 -1 265 1.5166338533163071e-02</internalNodes>
          <leafValues>
            -8.6515337228775024e-02 2.9940435290336609e-01</leafValues></_>
        <_>
          <internalNodes>
            0 -1 169 -1.5907136723399162e-02</internalNodes>
          <leafValues>
            -4.0499493479728699e-01 5.7324323803186417e-02</leafValues></_>
        <_>
          <internalNodes>
            0 -1 66 -5.3463561926037073e-04</internalNodes>
          <leafValues>
            1.5664045512676239e-01 -1.4512726664543152e-01</leafValues></_>
        <_>
          <internalNodes>
            0 -1 567 -2.5016777217388153e-03</internalNodes>
          <leafValues>
            1.6025964915752411e-01 -1.3960847258567810e-01</leafValues></_>
        <_>
          <internalNodes>
            0 -1 437 4.8662396147847176e-04</internalNodes>
          <leafValues>
            7.3272168636322021e-02 -3.1098857522010803e-01</leafValues></_>
        <_>
          <internalNodes>
            0 -1 438 1.3047794345766306e-04</internalNodes>
          <leafValues>
            8.9522905647754669e-02 -2.5008404254913330e-01</leafValues></_>
        <_>
          <internalNodes>
            0 -1 113 3.8408148102462292e-03</internalNodes>
          <leafValues>
            -6.9017998874187469e-02 3.5082095861434937e-01</leafValues></_>
        <_>
          <internalNodes>
            0 -1 244 2.6216492988169193e-03</internalNodes>
          <leafValues>
            -8.7082304060459137e-02 2.8123331069946289e-01</leafValues></_>
        <_>
          <internalNodes>
            0 -1 72 -4.4047264382243156e-03</internalNodes>
          <leafValues>
            1.6850408911705017e-01 -1.4449019730091095e-01</leafValues></_>
        <_>
          <internalNodes>
            0 -1 409 5.2728895097970963e-03</internalNodes>
          <leafValues>
            6.3073255121707916e-02 -3.5812884569168091e-01</leafValues></_>
        <_>
          <internalNodes>
            0 -1 627 -1.1926522478461266e-02</internalNodes>
          <leafValues>
            6.0944443941116333e-01 -3.6645628511905670e-02</leafValues></_>
        <_>
          <internalNodes>
            0 -1 626 1.2455192518245894e-05</internalNodes>
          <leafValues>
            1.8780323863029480e-01 -1.2772434949874878e-01</leafValues></_>
        <_>
          <internalNodes>
            0 -1 634 -1.1532862117746845e-05</internalNodes>
          <leafValues>
            -1.9318291544914246e-01 1.6173946857452393e-01</leafValues></_>
        <_>
          <internalNodes>
            0 -1 357 -7.3724146932363510e-03</internalNodes>
          <leafValues>
            1.2296161055564880e-01 -1.9137726724147797e-01</leafValues></_>
        <_>
          <internalNodes>
            0 -1 498 2.6326947845518589e-03</internalNodes>
          <leafValues>
            -8.1890702247619629e-02 3.0193299055099487e-01</leafValues></_>
        <_>
          <internalNodes>
            0 -1 557 1.7696771537885070e-03</internalNodes>
          <leafValues>
            -1.1762648820877075e-01 2.2185268998146057e-01</leafValues></_>
        <_>
          <internalNodes>
            0 -1 449 1.9172455649822950e-03</internalNodes>
          <leafValues>
            3.8309846073389053e-02 -6.9800382852554321e-01</leafValues></_>
        <_>
          <internalNodes>
            0 -1 224 -8.3720766007900238e-02</internalNodes>
          <leafValues>
            -6.5585303306579590e-01 3.0998509377241135e-02</leafValues></_>
        <_>
          <internalNodes>
            0 -1 623 -9.5158051699399948e-03</internalNodes>
          <leafValues>
            -5.5657154321670532e-01 3.6434926092624664e-02</leafValues></_>
        <_>
          <internalNodes>
            0 -1 618 -1.3439002213999629e-03</internalNodes>
          <leafValues>
            -5.2170974016189575e-01 4.3872576206922531e-02</leafValues></_>
        <_>
          <internalNodes>
            0 -1 391 6.7099404986947775e-04</internalNodes>
          <leafValues>
            4.9048546701669693e-02 -4.2426249384880066e-01</leafValues></_>
        <_>
          <internalNodes>
            0 -1 100 6.1066932976245880e-03</internalNodes>
          <leafValues>
            -7.7400676906108856e-02 3.2024019956588745e-01</leafValues></_>
        <_>
          <internalNodes>
            0 -1 98 -2.8816759586334229e-03</internalNodes>
          <leafValues>
            4.1778227686882019e-01 -5.5824670940637589e-02</leafValues></_>
        <_>
          <internalNodes>
            0 -1 393 3.3128703944385052e-03</internalNodes>
          <leafValues>
            -6.2183648347854614e-02 3.9072093367576599e-01</leafValues></_>
        <_>
          <internalNodes>
            0 -1 420 -1.2855590321123600e-03</internalNodes>
          <leafValues>
            2.0412506163120270e-01 -1.1714294552803040e-01</leafValues></_></weakClassifiers></_>
    <!-- stage 14 -->
    <_>
      <maxWeakCount>60</maxWeakCount>
      <stageThreshold>-5.1984971761703491e-01</stageThreshold>
      <weakClassifiers>
        <_>
          <internalNodes>
            0 -1 71 6.1579093337059021e-02</internalNodes>
          <leafValues>
            1.7512275278568268e-01 6.5264099836349487e-01</leafValues></_>
        <_>
          <internalNodes>
            0 -1 92 3.6677756905555725e-01</internalNodes>
          <leafValues>
            -1.8051019310951233e-01 3.1633126735687256e-01</leafValues></_>
        <_>
          <internalNodes>
            0 -1 31 1.4577276306226850e-03</internalNodes>
          <leafValues>
            -1.7226910591125488e-01 3.0961704254150391e-01</leafValues></_>
        <_>
          <internalNodes>
            0 -1 421 -2.5627622380852699e-03</internalNodes>
          <leafValues>
            1.2491941452026367e-01 -2.5768697261810303e-01</leafValues></_>
        <_>
          <internalNodes>
            0 -1 443 -7.7912032604217529e-02</internalNodes>
          <leafValues>
            -4.5737391710281372e-01 7.1339115500450134e-02</leafValues></_>
        <_>
          <internalNodes>
            0 -1 577 -5.1275569945573807e-02</internalNodes>
          <leafValues>
            3.5420879721641541e-01 -8.0965228378772736e-02</leafValues></_>
        <_>
          <internalNodes>
            0 -1 130 3.1725113512948155e-04</internalNodes>
          <leafValues>
            -2.1734124422073364e-01 1.2101423740386963e-01</leafValues></_>
        <_>
          <internalNodes>
            0 -1 591 1.7138774273917079e-03</internalNodes>
          <leafValues>
            -8.9233502745628357e-02 3.3414456248283386e-01</leafValues></_>
        <_>
          <internalNodes>
            0 -1 457 2.9171442147344351e-03</internalNodes>
          <leafValues>
            4.0016245096921921e-02 -7.4656361341476440e-01</leafValues></_>
        <_>
          <internalNodes>
            0 -1 408 1.3865182176232338e-02</internalNodes>
          <leafValues>
            6.8183615803718567e-02 -3.9108875393867493e-01</leafValues></_>
        <_>
          <internalNodes>
            0 -1 366 7.3635065928101540e-04</internalNodes>
          <leafValues>
            4.9771938472986221e-02 -5.2297741174697876e-01</leafValues></_>
        <_>
          <internalNodes>
