<?xml version="1.0"?>
<opencv_storage>
<stage15>
  <maxWeakCount>61</maxWeakCount>
  <stageThreshold>-5.3357017040252686e-01</stageThreshold>
  <weakClassifiers>
    <_>
      <internalNodes>
        0 -1 97562 -4.9052551388740540e-02</internalNodes>
      <leafValues>
        5.5676329135894775e-01 9.8918080329895020e-02</leafValues></_>
    <_>
      <internalNodes>
        0 -1 69274 -3.0296659097075462e-02</internalNodes>
      <leafValues>
        2.3855124413967133e-01 -2.2041635215282440e-01</leafValues></_>
    <_>
      <internalNodes>
        0 -1 261023 -3.5443566739559174e-03</internalNodes>
      <leafValues>
        -2.1679292619228363e-01 2.1997322142124176e-01</leafValues></_>
    <_>
      <internalNodes>
        0 -1 258954 -1.1331157758831978e-02</internalNodes>
      <leafValues>
        3.9510557055473328e-01 -7.9558342695236206e-02</leafValues></_>
    <_>
      <internalNodes>
        0 -1 137778 -4.0920758619904518e-03</internalNodes>
      <leafValues>
        1.3994203507900238e-01 -2.3328855633735657e-01</leafValues></_>
    <_>
      <internalNodes>
        0 -1 246796 -2.3067989968694746e-04</internalNodes>
      <leafValues>
        -2.4637100100517273e-01 1.3789509236812592e-01</leafValues></_>
    <_>
      <internalNodes>
        0 -1 214643 6.8561127409338951e-04</internalNodes>
      <leafValues>
        -1.7307609319686890e-01 2.0471075177192688e-01</leafValues></_>
    <_>
      <internalNodes>
        0 -1 1 -4.6593244769610465e-04</internalNodes>
      <leafValues>
        -4.4662320613861084e-01 5.5263143032789230e-02</leafValues></_>
    <_>
      <internalNodes>
        0 -1 228145 7.8226655721664429e-02</internalNodes>
      <leafValues>
        -8.0313242971897125e-02 3.8975465297698975e-01</leafValues></_>
    <_>
      <internalNodes>
        0 -1 217376 -4.4156908988952637e-02</internalNodes>
      <leafValues>
        5.9001934528350830e-01 -4.7738235443830490e-02</leafValues></_>
    <_>
      <internalNodes>
        0 -1 251820 -1.8946826457977295e-02</internalNodes>
      <leafValues>
        3.3955305814743042e-01 -8.5212610661983490e-02</leafValues></_>
    <_>
      <internalNodes>
        0 -1 56562 1.0528985876590014e-03</internalNodes>
      <leafValues>
        -2.2525174915790558e-01 1.3353069126605988e-01</leafValues></_>
    <_>
      <internalNodes>
        0 -1 99319 -8.3364332094788551e-03</internalNodes>
      <leafValues>
        3.8151815533638000e-01 -8.0318771302700043e-02</leafValues></_>
    <_>
      <internalNodes>
        0 -1 185492 -1.3701077550649643e-03</internalNodes>
      <leafValues>
        4.0675088763237000e-02 -7.8608137369155884e-01</leafValues></_>
    <_>
      <internalNodes>
        0 -1 48 -4.8331123252864927e-05</internalNodes>
      <leafValues>
        -2.2001960873603821e-01 1.0520651191473007e-01</leafValues></_>
    <_>
      <internalNodes>
        0 -1 53633 1.7190117388963699e-02</internalNodes>
      <leafValues>
        4.5190859586000443e-02 -4.9772313237190247e-01</leafValues></_>
    <_>
      <internalNodes>
        0 -1 253076 2.4054832756519318e-03</internalNodes>
      <leafValues>
        -7.5437366962432861e-02 3.3754542469978333e-01</leafValues></_>
    <_>
      <internalNodes>
        0 -1 98179 -6.1115343123674393e-04</internalNodes>
      <leafValues>
        -4.7197946906089783e-01 5.2050765603780746e-02</leafValues></_>
    <_>
      <internalNodes>
        0 -1 105266 -1.0974436253309250e-01</internalNodes>
      <leafValues>
        -5.4383605718612671e-01 4.5507363975048065e-02</leafValues></_>
    <_>
      <internalNodes>
        0 -1 247903 -3.9727268740534782e-03</internalNodes>
      <leafValues>
        1.6939011216163635e-01 -1.5987244248390198e-01</leafValues></_>
    <_>
      <internalNodes>
        0 -1 253592 -1.3754794374108315e-02</internalNodes>
      <leafValues>
        4.1757658123970032e-01 -5.9723280370235443e-02</leafValues></_>
    <_>
      <internalNodes>
        0 -1 258788 -4.8869652673602104e-03</internalNodes>
      <leafValues>
        2.3500882089138031e-01 -9.5353044569492340e-02</leafValues></_>
    <_>
      <internalNodes>
        0 -1 191188 -4.3939799070358276e-04</internalNodes>
      <leafValues>
        9.2942103743553162e-02 -2.5695928931236267e-01</leafValues></_>
    <_>
      <internalNodes>
        0 -1 238285 -4.9726017750799656e-03</internalNodes>
      <leafValues>
        2.8315392136573792e-01 -9.4213314354419708e-02</leafValues></_>
    <_>
      <internalNodes>
        0 -1 62672 -1.2600133195519447e-03</internalNodes>
      <leafValues>
        -5.7311052083969116e-01 4.2673692107200623e-02</leafValues></_>
    <_>
      <internalNodes>
        0 -1 126773 1.3881603255867958e-02</internalNodes>
      <leafValues>
        4.5220281928777695e-02 -4.7158673405647278e-01</leafValues></_>
    <_>
      <internalNodes>
        0 -1 74352 -2.7296718209981918e-02</internalNodes>
      <leafValues>
        2.6604139804840088e-01 -9.7326159477233887e-02</leafValues></_>
    <_>
      <internalNodes>
        0 -1 142667 1.7324190412182361e-04</internalNodes>
      <leafValues>
        8.4466546773910522e-02 -2.8384074568748474e-01</leafValues></_>
    <_>
      <internalNodes>
        0 -1 83079 -2.1624455694109201e-03</internalNodes>
      <leafValues>
        2.1433395147323608e-01 -1.2966760993003845e-01</leafValues></_>
    <_>
      <internalNodes>
        0 -1 173231 -7.2460237424820662e-04</internalNodes>
      <leafValues>
        2.3647858202457428e-01 -1.1734040081501007e-01</leafValues></_>
    <_>
      <internalNodes>
        0 -1 258601 -1.6893392428755760e-02</internalNodes>
      <leafValues>
        -4.4405648112297058e-01 6.0999635607004166e-02</leafValues></_>
    <_>
      <internalNodes>
        0 -1 195796 -7.0692040026187897e-03</internalNodes>
      <leafValues>
        2.3245473206043243e-01 -9.9960491061210632e-02</leafValues></_>
    <_>
      <internalNodes>
        0 -1 89272 -1.2285104021430016e-02</internalNodes>
      <leafValues>
        -4.4784924387931824e-01 6.4844965934753418e-02</leafValues></_>
    <_>
      <internalNodes>
        0 -1 17520 3.1389179639518261e-03</internalNodes>
      <leafValues>
        -4.1206825524568558e-02 6.5578210353851318e-01</leafValues></_>
    <_>
      <internalNodes>
        0 -1 156223 9.9929503630846739e-04</internalNodes>
      <leafValues>
        -8.9464657008647919e-02 2.2406671941280365e-01</leafValues></_>
    <_>
      <internalNodes>
        0 -1 113665 -2.9006304685026407e-03</internalNodes>
      <leafValues>
        2.3639251291751862e-01 -1.0350880771875381e-01</leafValues></_>
    <_>
      <internalNodes>
        0 -1 244910 2.1049868315458298e-02</internalNodes>
      <leafValues>
        4.3393742293119431e-02 -5.7307308912277222e-01</leafValues></_>
    <_>
      <internalNodes>
        0 -1 251589 -5.5420408025383949e-03</internalNodes>
      <leafValues>
        -5.3826653957366943e-01 3.7955246865749359e-02</leafValues></_>
    <_>
      <internalNodes>
        0 -1 223187 -1.0277118533849716e-02</internalNodes>
      <leafValues>
        1.7211598157882690e-01 -1.3078716397285461e-01</leafValues></_>
    <_>
      <internalNodes>
        0 -1 107788 -1.0829493403434753e-01</internalNodes>
      <leafValues>
        -2.5512518361210823e-02 9.0567338466644287e-01</leafValues></_>
    <_>
      <internalNodes>
        0 -1 98003 3.7017497234046459e-03</internalNodes>
      <leafValues>
        -7.8338980674743652e-02 2.7873826026916504e-01</leafValues></_>
    <_>
      <internalNodes>
        0 -1 9770 1.1477445252239704e-02</internalNodes>
      <leafValues>
        -5.9422180056571960e-02 3.8030430674552917e-01</leafValues></_>
    <_>
      <internalNodes>
        0 -1 199297 6.1411934439092875e-04</internalNodes>
      <leafValues>
        -1.1224243789911270e-01 2.1275581419467926e-01</leafValues></_>
    <_>
      <internalNodes>
        0 -1 38745 2.8865575790405273e-02</internalNodes>
      <leafValues>
        -9.1739304363727570e-02 2.9743608832359314e-01</leafValues></_>
    <_>
      <internalNodes>
        0 -1 232770 8.9176809415221214e-03</internalNodes>
      <leafValues>
        5.5085521191358566e-02 -5.1336872577667236e-01</leafValues></_>
    <_>
      <internalNodes>
        0 -1 235859 -3.9887577295303345e-02</internalNodes>
      <leafValues>
        -9.1151404380798340e-01 1.9415823742747307e-02</leafValues></_>
    <_>
      <internalNodes>
        0 -1 53271 2.4672467261552811e-03</internalNodes>
      <leafValues>
        -1.3861401379108429e-01 1.6426785290241241e-01</leafValues></_>
    <_>
      <internalNodes>
        0 -1 169507 1.5820509288460016e-03</internalNodes>
      <leafValues>
        -1.6160123050212860e-01 1.6732992231845856e-01</leafValues></_>
    <_>
      <internalNodes>
        0 -1 259498 6.0521218983922154e-05</internalNodes>
      <leafValues>
        1.0600988566875458e-01 -2.3345556855201721e-01</leafValues></_>
    <_>
      <internalNodes>
        0 -1 15645 -6.6076114308089018e-04</internalNodes>
      <leafValues>
        1.5962223708629608e-01 -1.4576832950115204e-01</leafValues></_>
    <_>
      <internalNodes>
        0 -1 111195 4.4974293559789658e-03</internalNodes>
      <leafValues>
        5.2898079156875610e-02 -4.1923910379409790e-01</leafValues></_>
    <_>
      <internalNodes>
        0 -1 707 -1.7692819237709045e-01</internalNodes>
      <leafValues>
        3.8604986667633057e-01 -6.9954849779605865e-02</leafValues></_>
    <_>
      <internalNodes>
        0 -1 181606 -3.8712454261258245e-04</internalNodes>
      <leafValues>
        -3.1677019596099854e-01 7.6846905052661896e-02</leafValues></_>
    <_>
      <internalNodes>
        0 -1 76438 3.9889849722385406e-03</internalNodes>
      <leafValues>
        -1.1919534951448441e-01 1.9304314255714417e-01</leafValues></_>
    <_>
      <internalNodes>
        0 -1 156904 -5.7381093502044678e-02</internalNodes>
      <leafValues>
        -7.0033901929855347e-01 3.0260056257247925e-02</leafValues></_>
    <_>
      <internalNodes>
        0 -1 255120 -3.3901026472449303e-03</internalNodes>
      <leafValues>
        -3.5403722524642944e-01 5.2688680589199066e-02</leafValues></_>
    <_>
      <internalNodes>
        0 -1 74570 4.8374086618423462e-02</internalNodes>
      <leafValues>
        6.5532475709915161e-02 -2.9253575205802917e-01</leafValues></_>
    <_>
      <internalNodes>
        0 -1 74529 -7.3798246681690216e-02</internalNodes>
      <leafValues>
        -3.0192267894744873e-01 7.7191904187202454e-02</leafValues></_>
    <_>
      <internalNodes>
        0 -1 223613 -3.4010998206213117e-04</internalNodes>
      <leafValues>
        1.4934325218200684e-01 -1.5622374415397644e-01</leafValues></_>
    <_>
      <internalNodes>
        0 -1 160037 -2.7692709118127823e-03</internalNodes>
      <leafValues>
        2.6907300949096680e-01 -9.3323759734630585e-02</leafValues></_>
    <_>
      <internalNodes>
        0 -1 98902 5.8501504361629486e-02</internalNodes>
      <leafValues>
        4.6798046678304672e-02 -5.2458256483078003e-01</leafValues></_></weakClassifiers></stage15>
</opencv_storage>
