<?xml version="1.0"?>
<opencv_storage>
<stage11>
  <maxWeakCount>63</maxWeakCount>
  <stageThreshold>-8.8770282268524170e-01</stageThreshold>
  <weakClassifiers>
    <_>
      <internalNodes>
        0 -1 255621 3.5377662628889084e-02</internalNodes>
      <leafValues>
        1.2459016591310501e-01 7.3392856121063232e-01</leafValues></_>
    <_>
      <internalNodes>
        0 -1 47909 9.7128348425030708e-03</internalNodes>
      <leafValues>
        -1.6545681655406952e-01 4.5129561424255371e-01</leafValues></_>
    <_>
      <internalNodes>
        0 -1 104004 6.8737126886844635e-02</internalNodes>
      <leafValues>
        -2.3158299922943115e-01 2.9945731163024902e-01</leafValues></_>
    <_>
      <internalNodes>
        0 -1 157041 -7.5028799474239349e-03</internalNodes>
      <leafValues>
        2.7093508839607239e-01 -2.5025945901870728e-01</leafValues></_>
    <_>
      <internalNodes>
        0 -1 38196 -4.3934646993875504e-02</internalNodes>
      <leafValues>
        -5.4796582460403442e-01 7.7377431094646454e-02</leafValues></_>
    <_>
      <internalNodes>
        0 -1 260475 -9.2772236093878746e-03</internalNodes>
      <leafValues>
        7.0989763736724854e-01 -6.2944069504737854e-02</leafValues></_>
    <_>
      <internalNodes>
        0 -1 251181 -4.7036358155310154e-03</internalNodes>
      <leafValues>
        4.0924188494682312e-01 -9.7948953509330750e-02</leafValues></_>
    <_>
      <internalNodes>
        0 -1 50437 -8.9483126066625118e-04</internalNodes>
      <leafValues>
        2.0989449322223663e-01 -1.7126706242561340e-01</leafValues></_>
    <_>
      <internalNodes>
        0 -1 73843 2.5098910555243492e-04</internalNodes>
      <leafValues>
        -1.8792718648910522e-01 1.7533512413501740e-01</leafValues></_>
    <_>
      <internalNodes>
        0 -1 233721 1.0033352673053741e-01</internalNodes>
      <leafValues>
        6.2026169151067734e-02 -5.0759059190750122e-01</leafValues></_>
    <_>
      <internalNodes>
        0 -1 7818 -2.7624616399407387e-02</internalNodes>
      <leafValues>
        5.2595818042755127e-01 -6.2194861471652985e-02</leafValues></_>
    <_>
      <internalNodes>
        0 -1 30249 2.4532642215490341e-02</internalNodes>
      <leafValues>
        6.0916185379028320e-02 -5.5642873048782349e-01</leafValues></_>
    <_>
      <internalNodes>
        0 -1 257402 -2.2669089958071709e-03</internalNodes>
      <leafValues>
        2.9304376244544983e-01 -9.6668340265750885e-02</leafValues></_>
    <_>
      <internalNodes>
        0 -1 248251 1.9278491381555796e-03</internalNodes>
      <leafValues>
        -1.1029393970966339e-01 2.9869192838668823e-01</leafValues></_>
    <_>
      <internalNodes>
        0 -1 111374 4.0004579350352287e-03</internalNodes>
      <leafValues>
        -1.5257585048675537e-01 2.0247219502925873e-01</leafValues></_>
    <_>
      <internalNodes>
        0 -1 93334 -5.0395809113979340e-02</internalNodes>
      <leafValues>
        -4.9055878072977066e-02 6.1993527412414551e-01</leafValues></_>
    <_>
      <internalNodes>
        0 -1 17575 4.2348094284534454e-03</internalNodes>
      <leafValues>
        -8.3579100668430328e-02 3.3186730742454529e-01</leafValues></_>
    <_>
      <internalNodes>
        0 -1 82878 -2.2140087094157934e-03</internalNodes>
      <leafValues>
        -3.8478708267211914e-01 8.2696348428726196e-02</leafValues></_>
    <_>
      <internalNodes>
        0 -1 66687 1.3521523214876652e-04</internalNodes>
      <leafValues>
        9.1473080217838287e-02 -2.9459020495414734e-01</leafValues></_>
    <_>
      <internalNodes>
        0 -1 3222 2.3866423871368170e-03</internalNodes>
      <leafValues>
        -1.4730213582515717e-01 1.8896228075027466e-01</leafValues></_>
    <_>
      <internalNodes>
        0 -1 68241 -9.1158999130129814e-03</internalNodes>
      <leafValues>
        3.0308285355567932e-01 -1.1484050750732422e-01</leafValues></_>
    <_>
      <internalNodes>
        0 -1 17026 -9.0821791673079133e-05</internalNodes>
      <leafValues>
        -2.3453274369239807e-01 1.2082798779010773e-01</leafValues></_>
    <_>
      <internalNodes>
        0 -1 17026 6.1692015151493251e-05</internalNodes>
      <leafValues>
        1.2315738201141357e-01 -2.4336683750152588e-01</leafValues></_>
    <_>
      <internalNodes>
        0 -1 134080 8.9395802933722734e-04</internalNodes>
      <leafValues>
        -1.6725346446037292e-01 1.6450671851634979e-01</leafValues></_>
    <_>
      <internalNodes>
        0 -1 39885 -1.7125930637121201e-02</internalNodes>
      <leafValues>
        2.9912170767784119e-01 -1.0120450705289841e-01</leafValues></_>
    <_>
      <internalNodes>
        0 -1 77219 -5.6283354759216309e-02</internalNodes>
      <leafValues>
        -4.5366281270980835e-01 6.2050573527812958e-02</leafValues></_>
    <_>
      <internalNodes>
        0 -1 142072 -9.4123650342226028e-03</internalNodes>
      <leafValues>
        2.0374780893325806e-01 -1.2805008888244629e-01</leafValues></_>
    <_>
      <internalNodes>
        0 -1 110506 1.1411778628826141e-01</internalNodes>
      <leafValues>
        -1.0428855568170547e-01 3.6660957336425781e-01</leafValues></_>
    <_>
      <internalNodes>
        0 -1 59793 -3.9689399302005768e-02</internalNodes>
      <leafValues>
        -7.3539602756500244e-01 4.8796296119689941e-02</leafValues></_>
    <_>
      <internalNodes>
        0 -1 72142 1.7157489061355591e-01</internalNodes>
      <leafValues>
        4.6212024986743927e-02 -5.0210124254226685e-01</leafValues></_>
    <_>
      <internalNodes>
        0 -1 240052 -3.0664256773889065e-03</internalNodes>
      <leafValues>
        2.4287594854831696e-01 -1.1188920587301254e-01</leafValues></_>
    <_>
      <internalNodes>
        0 -1 241991 -7.6536675915122032e-03</internalNodes>
      <leafValues>
        2.9563331604003906e-01 -9.0555340051651001e-02</leafValues></_>
    <_>
      <internalNodes>
        0 -1 127800 -1.0496570030227304e-03</internalNodes>
      <leafValues>
        -3.3863276243209839e-01 8.2671619951725006e-02</leafValues></_>
    <_>
      <internalNodes>
        0 -1 29126 3.9542969316244125e-03</internalNodes>
      <leafValues>
        -7.5254403054714203e-02 3.5406196117401123e-01</leafValues></_>
    <_>
      <internalNodes>
        0 -1 163792 -5.7003786787390709e-04</internalNodes>
      <leafValues>
        -4.8902407288551331e-01 6.0747962445020676e-02</leafValues></_>
    <_>
      <internalNodes>
        0 -1 74464 5.2990399301052094e-02</internalNodes>
      <leafValues>
        6.2474679201841354e-02 -4.3231987953186035e-01</leafValues></_>
    <_>
      <internalNodes>
        0 -1 56640 2.2938943584449589e-04</internalNodes>
      <leafValues>
        -1.8989953398704529e-01 1.5789496898651123e-01</leafValues></_>
    <_>
      <internalNodes>
        0 -1 49479 -5.7563185691833496e-03</internalNodes>
      <leafValues>
        3.5287511348724365e-01 -8.0360695719718933e-02</leafValues></_>
    <_>
      <internalNodes>
        0 -1 4747 1.2184631824493408e-01</internalNodes>
      <leafValues>
        4.6571549028158188e-02 -5.8825242519378662e-01</leafValues></_>
    <_>
      <internalNodes>
        0 -1 261016 -5.6190147006418556e-05</internalNodes>
      <leafValues>
        -2.0439925789833069e-01 1.2129928916692734e-01</leafValues></_>
    <_>
      <internalNodes>
        0 -1 121693 3.6117704585194588e-03</internalNodes>
      <leafValues>
        -1.2491191923618317e-01 1.9495394825935364e-01</leafValues></_>
    <_>
      <internalNodes>
        0 -1 219535 -6.0615374241024256e-04</internalNodes>
      <leafValues>
        2.8819322586059570e-01 -1.1016587167978287e-01</leafValues></_>
    <_>
      <internalNodes>
        0 -1 119828 -4.8972267657518387e-02</internalNodes>
      <leafValues>
        -4.4874969124794006e-01 7.0327199995517731e-02</leafValues></_>
    <_>
      <internalNodes>
        0 -1 59347 2.8040152043104172e-02</internalNodes>
      <leafValues>
        -8.8318325579166412e-02 2.8073978424072266e-01</leafValues></_>
    <_>
      <internalNodes>
        0 -1 122686 -4.5720161870121956e-04</internalNodes>
      <leafValues>
        -4.5628789067268372e-01 5.3603433072566986e-02</leafValues></_>
    <_>
      <internalNodes>
        0 -1 184738 -2.1474272944033146e-03</internalNodes>
      <leafValues>
        2.6003879308700562e-01 -9.6329756081104279e-02</leafValues></_>
    <_>
      <internalNodes>
        0 -1 132859 -6.1431396752595901e-03</internalNodes>
      <leafValues>
        3.0884277820587158e-01 -8.4397725760936737e-02</leafValues></_>
    <_>
      <internalNodes>
        0 -1 261009 6.2099454225972295e-05</internalNodes>
      <leafValues>
        1.0671047121286392e-01 -2.3419286310672760e-01</leafValues></_>
    <_>
      <internalNodes>
        0 -1 147066 6.8095780443400145e-04</internalNodes>
      <leafValues>
        -1.0200946033000946e-01 2.4833446741104126e-01</leafValues></_>
    <_>
      <internalNodes>
        0 -1 250846 1.4390423893928528e-03</internalNodes>
      <leafValues>
        -9.7450166940689087e-02 2.6558417081832886e-01</leafValues></_>
    <_>
      <internalNodes>
        0 -1 260287 1.5819274995010346e-04</internalNodes>
      <leafValues>
        1.7912241816520691e-01 -1.6320019960403442e-01</leafValues></_>
    <_>
      <internalNodes>
        0 -1 156297 2.6836013421416283e-03</internalNodes>
      <leafValues>
        3.4519605338573456e-02 -9.2659044265747070e-01</leafValues></_>
    <_>
      <internalNodes>
        0 -1 33534 -2.1102368831634521e-02</internalNodes>
      <leafValues>
        -5.7655189186334610e-02 5.0836932659149170e-01</leafValues></_>
    <_>
      <internalNodes>
        0 -1 254054 3.7236083298921585e-03</internalNodes>
      <leafValues>
        -7.7608898282051086e-02 3.0893248319625854e-01</leafValues></_>
    <_>
      <internalNodes>
        0 -1 44608 -1.7469446361064911e-01</internalNodes>
      <leafValues>
        3.2015043497085571e-01 -8.3505332469940186e-02</leafValues></_>
    <_>
      <internalNodes>
        0 -1 118526 -4.4855318963527679e-02</internalNodes>
      <leafValues>
        -5.6510484218597412e-01 5.1344588398933411e-02</leafValues></_>
    <_>
      <internalNodes>
        0 -1 168887 -1.2098989100195467e-04</internalNodes>
      <leafValues>
        -2.1895956993103027e-01 1.1421161144971848e-01</leafValues></_>
    <_>
      <internalNodes>
        0 -1 250325 2.0696647698059678e-04</internalNodes>
      <leafValues>
        -1.8887609243392944e-01 1.3374464213848114e-01</leafValues></_>
    <_>
      <internalNodes>
        0 -1 238809 4.5483531430363655e-03</internalNodes>
      <leafValues>
        6.2580421566963196e-02 -4.5014244318008423e-01</leafValues></_>
    <_>
      <internalNodes>
        0 -1 254113 -3.3655199222266674e-03</internalNodes>
      <leafValues>
        2.1578530967235565e-01 -1.1627173423767090e-01</leafValues></_>
    <_>
      <internalNodes>
        0 -1 75582 3.3965361118316650e-01</internalNodes>
      <leafValues>
        -3.5129457712173462e-02 6.0811400413513184e-01</leafValues></_>
    <_>
      <internalNodes>
        0 -1 180670 -5.4374343017116189e-04</internalNodes>
      <leafValues>
        1.1648089438676834e-01 -2.1597585082054138e-01</leafValues></_>
    <_>
      <internalNodes>
        0 -1 16240 2.8070587664842606e-02</internalNodes>
      <leafValues>
        -5.7455696165561676e-02 5.0261229276657104e-01</leafValues></_></weakClassifiers></stage11>
</opencv_storage>
