<?xml version="1.0"?>
<opencv_storage>
<stage1>
  <maxWeakCount>18</maxWeakCount>
  <stageThreshold>-1.2234172821044922e+00</stageThreshold>
  <weakClassifiers>
    <_>
      <internalNodes>
        0 -1 22468 1.9555726647377014e-01</internalNodes>
      <leafValues>
        -2.3341523110866547e-01 8.2489579916000366e-01</leafValues></_>
    <_>
      <internalNodes>
        0 -1 6514 9.3638293445110321e-02</internalNodes>
      <leafValues>
        -1.3322336971759796e-01 6.4700734615325928e-01</leafValues></_>
    <_>
      <internalNodes>
        0 -1 232924 -2.1662195213139057e-03</internalNodes>
      <leafValues>
        4.1372913122177124e-01 -2.9644042253494263e-01</leafValues></_>
    <_>
      <internalNodes>
        0 -1 256064 -1.4526080340147018e-02</internalNodes>
      <leafValues>
        -2.0007577538490295e-01 4.8581394553184509e-01</leafValues></_>
    <_>
      <internalNodes>
        0 -1 167411 3.0385497957468033e-03</internalNodes>
      <leafValues>
        1.1817412823438644e-01 -6.7324221134185791e-01</leafValues></_>
    <_>
      <internalNodes>
        0 -1 128133 9.9057424813508987e-04</internalNodes>
      <leafValues>
        9.8172716796398163e-02 -7.8942984342575073e-01</leafValues></_>
    <_>
      <internalNodes>
        0 -1 97953 -2.0559504628181458e-02</internalNodes>
      <leafValues>
        4.6170234680175781e-01 -2.1307128667831421e-01</leafValues></_>
    <_>
      <internalNodes>
        0 -1 16893 -8.6953796446323395e-02</internalNodes>
      <leafValues>
        5.5864548683166504e-01 -1.4939953386783600e-01</leafValues></_>
    <_>
      <internalNodes>
        0 -1 17641 -2.3623406887054443e-03</internalNodes>
      <leafValues>
        3.7017196416854858e-01 -2.1853679418563843e-01</leafValues></_>
    <_>
      <internalNodes>
        0 -1 237492 5.5027788039296865e-04</internalNodes>
      <leafValues>
        1.3746033608913422e-01 -6.5570455789566040e-01</leafValues></_>
    <_>
      <internalNodes>
        0 -1 95643 -3.5741663305088878e-04</internalNodes>
      <leafValues>
        -5.4809486865997314e-01 1.1654355376958847e-01</leafValues></_>
    <_>
      <internalNodes>
        0 -1 182646 -1.0188061278313398e-03</internalNodes>
      <leafValues>
        -7.0769971609115601e-01 8.5609108209609985e-02</leafValues></_>
    <_>
      <internalNodes>
        0 -1 74752 6.9301081821322441e-03</internalNodes>
      <leafValues>
        -1.8573167920112610e-01 3.8196006417274475e-01</leafValues></_>
    <_>
      <internalNodes>
        0 -1 125817 -5.2653357852250338e-04</internalNodes>
      <leafValues>
        -6.9892996549606323e-01 1.0060188174247742e-01</leafValues></_>
    <_>
      <internalNodes>
        0 -1 24582 -9.1869249939918518e-02</internalNodes>
      <leafValues>
        6.0325789451599121e-01 -1.2328734248876572e-01</leafValues></_>
    <_>
      <internalNodes>
        0 -1 82877 9.2452118406072259e-04</internalNodes>
      <leafValues>
        9.0887561440467834e-02 -8.5263329744338989e-01</leafValues></_>
    <_>
      <internalNodes>
        0 -1 48531 -1.7172247171401978e-02</internalNodes>
      <leafValues>
        2.6942521333694458e-01 -2.3830221593379974e-01</leafValues></_>
    <_>
      <internalNodes>
        0 -1 155034 6.1549264937639236e-03</internalNodes>
      <leafValues>
        1.0186392813920975e-01 -7.4067455530166626e-01</leafValues></_></weakClassifiers></stage1>
</opencv_storage>
