<?xml version="1.0"?>
<opencv_storage>
<stage6>
  <maxWeakCount>34</maxWeakCount>
  <stageThreshold>-1.2217651605606079e+00</stageThreshold>
  <weakClassifiers>
    <_>
      <internalNodes>
        0 -1 81545 -4.6241320669651031e-02</internalNodes>
      <leafValues>
        6.9908463954925537e-01 -1.4309483766555786e-01</leafValues></_>
    <_>
      <internalNodes>
        0 -1 855 1.1183980703353882e+00</internalNodes>
      <leafValues>
        -1.3486166298389435e-01 7.2457486391067505e-01</leafValues></_>
    <_>
      <internalNodes>
        0 -1 486 -4.9350894987583160e-03</internalNodes>
      <leafValues>
        4.6011406183242798e-01 -2.2028246521949768e-01</leafValues></_>
    <_>
      <internalNodes>
        0 -1 2772 -1.6082033514976501e-01</internalNodes>
      <leafValues>
        -4.4338983297348022e-01 1.6392177343368530e-01</leafValues></_>
    <_>
      <internalNodes>
        0 -1 251834 -1.0327914729714394e-02</internalNodes>
      <leafValues>
        3.8189858198165894e-01 -2.2596107423305511e-01</leafValues></_>
    <_>
      <internalNodes>
        0 -1 203 1.8149647861719131e-02</internalNodes>
      <leafValues>
        -1.3579535484313965e-01 4.6348643302917480e-01</leafValues></_>
    <_>
      <internalNodes>
        0 -1 228893 5.9730015695095062e-02</internalNodes>
      <leafValues>
        -1.3455976545810699e-01 5.6115937232971191e-01</leafValues></_>
    <_>
      <internalNodes>
        0 -1 169010 -2.6533525437116623e-02</internalNodes>
      <leafValues>
        4.7674658894538879e-01 -1.4152999222278595e-01</leafValues></_>
    <_>
      <internalNodes>
        0 -1 182343 1.2081065215170383e-02</internalNodes>
      <leafValues>
        -1.8591776490211487e-01 3.4688535332679749e-01</leafValues></_>
    <_>
      <internalNodes>
        0 -1 196182 1.5384212601929903e-03</internalNodes>
      <leafValues>
        -1.3378812372684479e-01 3.9000502228736877e-01</leafValues></_>
    <_>
      <internalNodes>
        0 -1 64457 2.1567218936979771e-03</internalNodes>
      <leafValues>
        8.5642904043197632e-02 -6.1308395862579346e-01</leafValues></_>
    <_>
      <internalNodes>
        0 -1 127404 -3.1726828310638666e-03</internalNodes>
      <leafValues>
        3.3934172987937927e-01 -1.4656174182891846e-01</leafValues></_>
    <_>
      <internalNodes>
        0 -1 81235 -1.5556400176137686e-03</internalNodes>
      <leafValues>
        3.0146989226341248e-01 -2.0280449092388153e-01</leafValues></_>
    <_>
      <internalNodes>
        0 -1 21563 -3.0351573601365089e-02</internalNodes>
      <leafValues>
        -6.2858903408050537e-01 8.2887195050716400e-02</leafValues></_>
    <_>
      <internalNodes>
        0 -1 253258 -1.0680597275495529e-02</internalNodes>
      <leafValues>
        4.5321893692016602e-01 -1.2712654471397400e-01</leafValues></_>
    <_>
      <internalNodes>
        0 -1 52180 6.8704411387443542e-03</internalNodes>
      <leafValues>
        -1.6478921473026276e-01 2.9307419061660767e-01</leafValues></_>
    <_>
      <internalNodes>
        0 -1 99679 8.4863901138305664e-03</internalNodes>
      <leafValues>
        -1.3014961779117584e-01 3.8791587948799133e-01</leafValues></_>
    <_>
      <internalNodes>
        0 -1 57056 5.5626411922276020e-03</internalNodes>
      <leafValues>
        -2.1613579988479614e-01 2.8631299734115601e-01</leafValues></_>
    <_>
      <internalNodes>
        0 -1 5363 -2.7957828715443611e-03</internalNodes>
      <leafValues>
        -4.3500405550003052e-01 1.1826258152723312e-01</leafValues></_>
    <_>
      <internalNodes>
        0 -1 230713 -4.4728871434926987e-03</internalNodes>
      <leafValues>
        -6.1711931228637695e-01 7.5504258275032043e-02</leafValues></_>
    <_>
      <internalNodes>
        0 -1 20375 6.2535968609154224e-03</internalNodes>
      <leafValues>
        -1.7462654411792755e-01 2.8168305754661560e-01</leafValues></_>
    <_>
      <internalNodes>
        0 -1 142679 1.9119803328067064e-03</internalNodes>
      <leafValues>
        7.1642503142356873e-02 -7.0709943771362305e-01</leafValues></_>
    <_>
      <internalNodes>
        0 -1 93665 1.5137487649917603e-01</internalNodes>
      <leafValues>
        -1.3032524287700653e-01 3.6832258105278015e-01</leafValues></_>
    <_>
      <internalNodes>
        0 -1 179765 8.8307593250647187e-04</internalNodes>
      <leafValues>
        8.8256239891052246e-02 -6.0006570816040039e-01</leafValues></_>
    <_>
      <internalNodes>
        0 -1 142636 -6.0540279373526573e-03</internalNodes>
      <leafValues>
        5.4458570480346680e-01 -9.6346080303192139e-02</leafValues></_>
    <_>
      <internalNodes>
        0 -1 63272 -1.6847535967826843e-02</internalNodes>
      <leafValues>
        1.8212287127971649e-01 -2.6838028430938721e-01</leafValues></_>
    <_>
      <internalNodes>
        0 -1 250838 7.6994150876998901e-03</internalNodes>
      <leafValues>
        1.3335166871547699e-01 -4.3518024682998657e-01</leafValues></_>
    <_>
      <internalNodes>
        0 -1 215754 -7.2257209103554487e-04</internalNodes>
      <leafValues>
        3.0625045299530029e-01 -1.4571525156497955e-01</leafValues></_>
    <_>
      <internalNodes>
        0 -1 256237 -9.1796349734067917e-03</internalNodes>
      <leafValues>
        -1.2921853363513947e-01 3.5736894607543945e-01</leafValues></_>
    <_>
      <internalNodes>
        0 -1 53193 -4.4927373528480530e-03</internalNodes>
      <leafValues>
        3.2174253463745117e-01 -1.4246842265129089e-01</leafValues></_>
    <_>
      <internalNodes>
        0 -1 142320 9.5179621130228043e-03</internalNodes>
      <leafValues>
        -1.1343386769294739e-01 3.7425535917282104e-01</leafValues></_>
    <_>
      <internalNodes>
        0 -1 50137 -1.7040197271853685e-03</internalNodes>
      <leafValues>
        2.7919954061508179e-01 -1.7253130674362183e-01</leafValues></_>
    <_>
      <internalNodes>
        0 -1 223585 1.6480211634188890e-03</internalNodes>
      <leafValues>
        8.5689604282379150e-02 -5.3597849607467651e-01</leafValues></_>
    <_>
      <internalNodes>
        0 -1 174884 -2.5051081320270896e-04</internalNodes>
      <leafValues>
        2.6456162333488464e-01 -1.6505849361419678e-01</leafValues></_></weakClassifiers></stage6>
</opencv_storage>
