<?xml version="1.0"?>
<opencv_storage>
<stage20>
  <maxWeakCount>97</maxWeakCount>
  <stageThreshold>-8.5256767272949219e-01</stageThreshold>
  <weakClassifiers>
    <_>
      <internalNodes>
        0 -1 7605 7.9916134476661682e-02</internalNodes>
      <leafValues>
        3.0782761052250862e-02 5.5984556674957275e-01</leafValues></_>
    <_>
      <internalNodes>
        0 -1 81553 -9.1385275125503540e-02</internalNodes>
      <leafValues>
        2.7524253726005554e-01 -1.4114335179328918e-01</leafValues></_>
    <_>
      <internalNodes>
        0 -1 261035 -9.9939992651343346e-03</internalNodes>
      <leafValues>
        -1.4700150489807129e-01 2.6663291454315186e-01</leafValues></_>
    <_>
      <internalNodes>
        0 -1 376 -1.0831985622644424e-02</internalNodes>
      <leafValues>
        2.4708314239978790e-01 -1.3431324064731598e-01</leafValues></_>
    <_>
      <internalNodes>
        0 -1 38722 3.1712442636489868e-02</internalNodes>
      <leafValues>
        -1.0022561252117157e-01 3.0456930398941040e-01</leafValues></_>
    <_>
      <internalNodes>
        0 -1 148080 -1.8382009584456682e-03</internalNodes>
      <leafValues>
        2.0177553594112396e-01 -1.2376469373703003e-01</leafValues></_>
    <_>
      <internalNodes>
        0 -1 17133 7.1105800569057465e-02</internalNodes>
      <leafValues>
        -9.1117501258850098e-02 2.8854534029960632e-01</leafValues></_>
    <_>
      <internalNodes>
        0 -1 246111 -2.5019680615514517e-03</internalNodes>
      <leafValues>
        2.4951368570327759e-01 -9.6426889300346375e-02</leafValues></_>
    <_>
      <internalNodes>
        0 -1 132029 4.1714563965797424e-02</internalNodes>
      <leafValues>
        -8.2716375589370728e-02 2.9658499360084534e-01</leafValues></_>
    <_>
      <internalNodes>
        0 -1 173176 -2.2668847814202309e-03</internalNodes>
      <leafValues>
        4.8065405339002609e-02 -4.6214988827705383e-01</leafValues></_>
    <_>
      <internalNodes>
        0 -1 254346 6.4009269699454308e-03</internalNodes>
      <leafValues>
        -6.2856219708919525e-02 3.2370635867118835e-01</leafValues></_>
    <_>
      <internalNodes>
        0 -1 6 -6.2624763813801110e-05</internalNodes>
      <leafValues>
        -2.0158627629280090e-01 9.5827817916870117e-02</leafValues></_>
    <_>
      <internalNodes>
        0 -1 179349 -1.0514244437217712e-02</internalNodes>
      <leafValues>
        -4.8392924666404724e-01 4.5005477964878082e-02</leafValues></_>
    <_>
      <internalNodes>
        0 -1 182646 1.4821197837591171e-03</internalNodes>
      <leafValues>
        2.8846990317106247e-02 -6.7838406562805176e-01</leafValues></_>
    <_>
      <internalNodes>
        0 -1 203070 1.6567079583182931e-03</internalNodes>
      <leafValues>
        -2.1192717552185059e-01 9.6800141036510468e-02</leafValues></_>
    <_>
      <internalNodes>
        0 -1 139933 -3.2750247046351433e-03</internalNodes>
      <leafValues>
        2.8410631418228149e-01 -7.5905263423919678e-02</leafValues></_>
    <_>
      <internalNodes>
        0 -1 47090 6.4355675131082535e-03</internalNodes>
      <leafValues>
        -1.1267875134944916e-01 2.0554742217063904e-01</leafValues></_>
    <_>
      <internalNodes>
        0 -1 169355 -2.5611210148781538e-03</internalNodes>
      <leafValues>
        -5.6082826852798462e-01 3.1503096222877502e-02</leafValues></_>
    <_>
      <internalNodes>
        0 -1 255157 6.0946188867092133e-02</internalNodes>
      <leafValues>
        4.7410149127244949e-02 -3.7149089574813843e-01</leafValues></_>
    <_>
      <internalNodes>
        0 -1 239315 1.7130344640463591e-03</internalNodes>
      <leafValues>
        6.5075531601905823e-02 -2.7598738670349121e-01</leafValues></_>
    <_>
      <internalNodes>
        0 -1 23447 -5.8289226144552231e-03</internalNodes>
      <leafValues>
        1.6856956481933594e-01 -1.0633300244808197e-01</leafValues></_>
    <_>
      <internalNodes>
        0 -1 217499 -2.0111216232180595e-02</internalNodes>
      <leafValues>
        -5.6607449054718018e-01 3.5347755998373032e-02</leafValues></_>
    <_>
      <internalNodes>
        0 -1 208358 2.3151426576077938e-03</internalNodes>
      <leafValues>
        -3.7024170160293579e-02 5.3102141618728638e-01</leafValues></_>
    <_>
      <internalNodes>
        0 -1 254854 -9.1179285664111376e-04</internalNodes>
      <leafValues>
        -2.5311246514320374e-01 7.2665885090827942e-02</leafValues></_>
    <_>
      <internalNodes>
        0 -1 184815 -1.1714767664670944e-02</internalNodes>
      <leafValues>
        2.3674416542053223e-01 -7.2332315146923065e-02</leafValues></_>
    <_>
      <internalNodes>
        0 -1 83029 3.6196492612361908e-02</internalNodes>
      <leafValues>
        3.2191097736358643e-02 -5.6268596649169922e-01</leafValues></_>
    <_>
      <internalNodes>
        0 -1 69422 1.3214745558798313e-03</internalNodes>
      <leafValues>
        -1.1521317064762115e-01 1.6496025025844574e-01</leafValues></_>
    <_>
      <internalNodes>
        0 -1 103129 1.3302685692906380e-03</internalNodes>
      <leafValues>
        -7.1284629404544830e-02 2.5584542751312256e-01</leafValues></_>
    <_>
      <internalNodes>
        0 -1 162486 -5.6162923574447632e-02</internalNodes>
      <leafValues>
        -8.7863832712173462e-01 2.1826827898621559e-02</leafValues></_>
    <_>
      <internalNodes>
        0 -1 256216 5.9103178500663489e-05</internalNodes>
      <leafValues>
        8.6376473307609558e-02 -1.8263828754425049e-01</leafValues></_>
    <_>
      <internalNodes>
        0 -1 92185 6.2682330608367920e-03</internalNodes>
      <leafValues>
        -8.1713862717151642e-02 2.1790808439254761e-01</leafValues></_>
    <_>
      <internalNodes>
        0 -1 128233 1.7592303920537233e-03</internalNodes>
      <leafValues>
        -9.4610430300235748e-02 1.8715755641460419e-01</leafValues></_>
    <_>
      <internalNodes>
        0 -1 7736 1.4724160428158939e-04</internalNodes>
      <leafValues>
        1.7547281086444855e-01 -1.0753923654556274e-01</leafValues></_>
    <_>
      <internalNodes>
        0 -1 115 -5.6299910647794604e-04</internalNodes>
      <leafValues>
        -2.1142597496509552e-01 9.3516170978546143e-02</leafValues></_>
    <_>
      <internalNodes>
        0 -1 68488 7.5338989496231079e-02</internalNodes>
      <leafValues>
        4.8877682536840439e-02 -3.5799318552017212e-01</leafValues></_>
    <_>
      <internalNodes>
        0 -1 223152 -7.3073826730251312e-02</internalNodes>
      <leafValues>
        -1.2774740159511566e-01 1.4933200180530548e-01</leafValues></_>
    <_>
      <internalNodes>
        0 -1 258429 -1.9459438044577837e-03</internalNodes>
      <leafValues>
        2.8851035237312317e-01 -6.5937861800193787e-02</leafValues></_>
    <_>
      <internalNodes>
        0 -1 168122 1.3262378342915326e-04</internalNodes>
      <leafValues>
        -1.6644075512886047e-01 1.1311671882867813e-01</leafValues></_>
    <_>
      <internalNodes>
        0 -1 112134 4.3284855782985687e-03</internalNodes>
      <leafValues>
        3.3025924116373062e-02 -5.1177585124969482e-01</leafValues></_>
    <_>
      <internalNodes>
        0 -1 33842 -3.7857861025258899e-04</internalNodes>
      <leafValues>
        1.8023332953453064e-01 -1.0450126230716705e-01</leafValues></_>
    <_>
      <internalNodes>
        0 -1 126981 2.5406954810023308e-03</internalNodes>
      <leafValues>
        -3.9525341242551804e-02 4.0404155850410461e-01</leafValues></_>
    <_>
      <internalNodes>
        0 -1 154288 -1.3911753194406629e-04</internalNodes>
      <leafValues>
        -2.0253638923168182e-01 9.4854958355426788e-02</leafValues></_>
    <_>
      <internalNodes>
        0 -1 176547 -1.1471729725599289e-02</internalNodes>
      <leafValues>
        3.1374752521514893e-01 -5.8041300624608994e-02</leafValues></_>
    <_>
      <internalNodes>
        0 -1 225943 1.0825702920556068e-03</internalNodes>
      <leafValues>
        -1.0065463185310364e-01 1.8903551995754242e-01</leafValues></_>
    <_>
      <internalNodes>
        0 -1 217341 -2.6950426399707794e-03</internalNodes>
      <leafValues>
        2.3143604397773743e-01 -9.3618065118789673e-02</leafValues></_>
    <_>
      <internalNodes>
        0 -1 141615 -1.8889429047703743e-03</internalNodes>
      <leafValues>
        -3.3364841341972351e-01 5.9563260525465012e-02</leafValues></_>
    <_>
      <internalNodes>
        0 -1 241110 -2.2353503853082657e-02</internalNodes>
      <leafValues>
        3.1385868787765503e-01 -6.1434838920831680e-02</leafValues></_>
    <_>
      <internalNodes>
        0 -1 156824 -1.4596965909004211e-01</internalNodes>
      <leafValues>
        -6.6896265745162964e-01 3.2952953130006790e-02</leafValues></_>
    <_>
      <internalNodes>
        0 -1 217608 7.7608053106814623e-04</internalNodes>
      <leafValues>
        -7.2284907102584839e-02 2.6775369048118591e-01</leafValues></_>
    <_>
      <internalNodes>
        0 -1 177097 -1.2708402937278152e-04</internalNodes>
      <leafValues>
        -2.2205181419849396e-01 8.5531696677207947e-02</leafValues></_>
    <_>
      <internalNodes>
        0 -1 26097 1.4809940475970507e-03</internalNodes>
      <leafValues>
        -1.2473985552787781e-01 1.4013953506946564e-01</leafValues></_>
    <_>
      <internalNodes>
        0 -1 113665 -3.3766499254852533e-03</internalNodes>
      <leafValues>
        2.3195445537567139e-01 -8.5952296853065491e-02</leafValues></_>
    <_>
      <internalNodes>
        0 -1 50047 1.4823228120803833e-02</internalNodes>
      <leafValues>
        -1.0346606373786926e-01 1.9513437151908875e-01</leafValues></_>
    <_>
      <internalNodes>
        0 -1 231645 4.4418098405003548e-03</internalNodes>
      <leafValues>
        -4.2545184493064880e-02 4.2429962754249573e-01</leafValues></_>
    <_>
      <internalNodes>
        0 -1 260727 -1.0464893653988838e-02</internalNodes>
      <leafValues>
        -3.4340611100196838e-01 5.8552876114845276e-02</leafValues></_>
    <_>
      <internalNodes>
        0 -1 235659 3.0589062720537186e-02</internalNodes>
      <leafValues>
        -3.4542262554168701e-02 5.5923926830291748e-01</leafValues></_>
    <_>
      <internalNodes>
        0 -1 100147 2.7639907598495483e-01</internalNodes>
      <leafValues>
        3.2592140138149261e-02 -6.6591131687164307e-01</leafValues></_>
    <_>
      <internalNodes>
        0 -1 251550 1.6247434541583061e-04</internalNodes>
      <leafValues>
        7.0538975298404694e-02 -2.3679594695568085e-01</leafValues></_>
    <_>
      <internalNodes>
        0 -1 258839 -2.1569353993982077e-03</internalNodes>
      <leafValues>
        2.7034875750541687e-01 -6.1968948692083359e-02</leafValues></_>
    <_>
      <internalNodes>
        0 -1 206844 -2.0977755775675178e-04</internalNodes>
      <leafValues>
        1.9376900792121887e-01 -9.4618186354637146e-02</leafValues></_>
    <_>
      <internalNodes>
        0 -1 6 5.8208112022839487e-05</internalNodes>
      <leafValues>
        1.0251686722040176e-01 -1.8771946430206299e-01</leafValues></_>
    <_>
      <internalNodes>
        0 -1 130711 -8.0177020281553268e-03</internalNodes>
      <leafValues>
        2.5349909067153931e-01 -7.0815920829772949e-02</leafValues></_>
    <_>
      <internalNodes>
        0 -1 224071 7.4894628487527370e-03</internalNodes>
      <leafValues>
        2.8073215857148170e-02 -6.6223418712615967e-01</leafValues></_>
    <_>
      <internalNodes>
        0 -1 171497 -5.7849157601594925e-03</internalNodes>
      <leafValues>
        3.1211507320404053e-01 -7.5648285448551178e-02</leafValues></_>
    <_>
      <internalNodes>
        0 -1 226428 -2.5840364396572113e-03</internalNodes>
      <leafValues>
        2.1153730154037476e-01 -8.4346763789653778e-02</leafValues></_>
    <_>
      <internalNodes>
        0 -1 100710 1.0152729228138924e-02</internalNodes>
      <leafValues>
        2.4451749399304390e-02 -7.3679012060165405e-01</leafValues></_>
    <_>
      <internalNodes>
        0 -1 251770 3.0794586054980755e-03</internalNodes>
      <leafValues>
        -5.7393003255128860e-02 3.1329762935638428e-01</leafValues></_>
    <_>
      <internalNodes>
        0 -1 260786 -1.8681623041629791e-02</internalNodes>
      <leafValues>
        -5.5680561065673828e-01 3.4109901636838913e-02</leafValues></_>
    <_>
      <internalNodes>
        0 -1 193328 2.6001753285527229e-03</internalNodes>
      <leafValues>
        -1.1813564598560333e-01 1.5180839598178864e-01</leafValues></_>
    <_>
      <internalNodes>
        0 -1 204262 -2.9062922112643719e-04</internalNodes>
      <leafValues>
        -2.8998872637748718e-01 6.1576854437589645e-02</leafValues></_>
    <_>
      <internalNodes>
        0 -1 50041 -1.0995724238455296e-02</internalNodes>
      <leafValues>
        2.9763549566268921e-01 -6.1898145824670792e-02</leafValues></_>
    <_>
      <internalNodes>
        0 -1 256720 -5.9060472995042801e-03</internalNodes>
      <leafValues>
        -5.2020293474197388e-01 3.7556190043687820e-02</leafValues></_>
    <_>
      <internalNodes>
        0 -1 56518 -6.0180928558111191e-03</internalNodes>
      <leafValues>
        1.7187905311584473e-01 -1.1524171382188797e-01</leafValues></_>
    <_>
      <internalNodes>
        0 -1 194897 2.0500693470239639e-02</internalNodes>
      <leafValues>
        -3.8937639445066452e-02 4.9477535486221313e-01</leafValues></_>
    <_>
      <internalNodes>
        0 -1 205255 8.4445895627140999e-03</internalNodes>
      <leafValues>
        3.0321868136525154e-02 -7.9580140113830566e-01</leafValues></_>
    <_>
      <internalNodes>
        0 -1 56854 -4.1028829291462898e-03</internalNodes>
      <leafValues>
        3.6957523226737976e-01 -5.4402280598878860e-02</leafValues></_>
    <_>
      <internalNodes>
        0 -1 259196 -7.1605580160394311e-05</internalNodes>
      <leafValues>
        -1.7494332790374756e-01 1.0700675845146179e-01</leafValues></_>
    <_>
      <internalNodes>
        0 -1 256247 -1.5187675599008799e-03</internalNodes>
      <leafValues>
        2.0260377228260040e-01 -8.8846564292907715e-02</leafValues></_>
    <_>
      <internalNodes>
        0 -1 240092 -4.0191356092691422e-02</internalNodes>
      <leafValues>
        5.8717083930969238e-01 -3.0669329687952995e-02</leafValues></_>
    <_>
      <internalNodes>
        0 -1 1430 -2.3967097513377666e-03</internalNodes>
      <leafValues>
        -1.8580141663551331e-01 9.4729669392108917e-02</leafValues></_>
    <_>
      <internalNodes>
        0 -1 142250 -4.3329223990440369e-03</internalNodes>
      <leafValues>
        -2.2428818047046661e-02 6.7351120710372925e-01</leafValues></_>
    <_>
      <internalNodes>
        0 -1 198044 -8.6169253336265683e-04</internalNodes>
      <leafValues>
        1.8980352580547333e-01 -9.0968169271945953e-02</leafValues></_>
    <_>
      <internalNodes>
        0 -1 220415 -6.2814600765705109e-02</internalNodes>
      <leafValues>
        2.9927982017397881e-02 -5.4931813478469849e-01</leafValues></_>
    <_>
      <internalNodes>
        0 -1 5408 9.7834068583324552e-05</internalNodes>
      <leafValues>
        1.5351027250289917e-01 -1.0136324912309647e-01</leafValues></_>
    <_>
      <internalNodes>
        0 -1 16765 -1.1809952557086945e-03</internalNodes>
      <leafValues>
        -4.1382052004337311e-02 3.7396562099456787e-01</leafValues></_>
    <_>
      <internalNodes>
        0 -1 33679 -2.2851494140923023e-03</internalNodes>
      <leafValues>
        2.7457293868064880e-01 -5.9303637593984604e-02</leafValues></_>
    <_>
      <internalNodes>
        0 -1 50368 5.7054997887462378e-04</internalNodes>
      <leafValues>
        1.0550998896360397e-01 -1.9055169820785522e-01</leafValues></_>
    <_>
      <internalNodes>
        0 -1 258784 -2.8663685079663992e-03</internalNodes>
      <leafValues>
        2.0442135632038116e-01 -1.0349269211292267e-01</leafValues></_>
    <_>
      <internalNodes>
        0 -1 80471 2.5542291998863220e-01</internalNodes>
      <leafValues>
        4.0088217705488205e-02 -4.8973226547241211e-01</leafValues></_>
    <_>
      <internalNodes>
        0 -1 224724 -2.1942779421806335e-01</internalNodes>
      <leafValues>
        -8.0511689186096191e-01 1.9519958645105362e-02</leafValues></_>
    <_>
      <internalNodes>
        0 -1 46 1.0358778759837151e-02</internalNodes>
      <leafValues>
        -3.4183062613010406e-02 5.6297284364700317e-01</leafValues></_>
    <_>
      <internalNodes>
        0 -1 156077 1.6644112765789032e-02</internalNodes>
      <leafValues>
        -2.7520649135112762e-02 5.2573192119598389e-01</leafValues></_>
    <_>
      <internalNodes>
        0 -1 223212 1.1695995926856995e-03</internalNodes>
      <leafValues>
        -9.0312175452709198e-02 1.8313524127006531e-01</leafValues></_>
    <_>
      <internalNodes>
        0 -1 168452 -3.0395900830626488e-03</internalNodes>
      <leafValues>
        -3.6478757858276367e-01 5.1684703677892685e-02</leafValues></_>
    <_>
      <internalNodes>
        0 -1 168363 -6.9723604246973991e-03</internalNodes>
      <leafValues>
        5.0861829519271851e-01 -3.6774687469005585e-02</leafValues></_>
    <_>
      <internalNodes>
        0 -1 62051 -8.0096460878849030e-03</internalNodes>
      <leafValues>
        7.0932811498641968e-01 -2.2109905257821083e-02</leafValues></_>
    <_>
      <internalNodes>
        0 -1 174867 2.3723806953057647e-04</internalNodes>
      <leafValues>
        -1.3848352432250977e-01 1.3006694614887238e-01</leafValues></_></weakClassifiers></stage20>
</opencv_storage>
