<?xml version="1.0"?>
<opencv_storage>
<cascade>
  <stageType>BOOST</stageType>
  <featureType>HAAR</featureType>
  <height>24</height>
  <width>24</width>
  <stageParams>
    <boostType>GAB</boostType>
    <minHitRate>9.9000000953674316e-01</minHitRate>
    <maxFalseAlarm>5.0000000000000000e-01</maxFalseAlarm>
    <weightTrimRate>9.4999999999999996e-01</weightTrimRate>
    <maxDepth>1</maxDepth>
    <maxWeakCount>100</maxWeakCount></stageParams>
  <featureParams>
    <maxCatCount>0</maxCatCount>
    <featSize>1</featSize>
    <mode>ALL</mode></featureParams>
  <stageNum>25</stageNum>
  <stages>
    <!-- stage 0 -->
    <_>
      <maxWeakCount>7</maxWeakCount>
      <stageThreshold>-3.3827069401741028e-01</stageThreshold>
      <weakClassifiers>
        <_>
          <internalNodes>
            0 -1 116 1.6837576031684875e-01</internalNodes>
          <leafValues>
            -3.5955941677093506e-01 8.9755809307098389e-01</leafValues></_>
        <_>
          <internalNodes>
            0 -1 34 -7.5776392221450806e-01</internalNodes>
          <leafValues>
            -1.7558543384075165e-01 7.7441340684890747e-01</leafValues></_>
        <_>
          <internalNodes>
            0 -1 164 2.8860646486282349e-01</internalNodes>
          <leafValues>
            -1.2171310186386108e-01 8.8183176517486572e-01</leafValues></_>
        <_>
          <internalNodes>
            0 -1 467 1.0995140764862299e-03</internalNodes>
          <leafValues>
            1.6928853094577789e-01 -8.6430686712265015e-01</leafValues></_>
        <_>
          <internalNodes>
            0 -1 467 -9.6692284569144249e-04</internalNodes>
          <leafValues>
            -8.3219748735427856e-01 1.5238618850708008e-01</leafValues></_>
        <_>
          <internalNodes>
            0 -1 180 -1.2651212513446808e-01</internalNodes>
          <leafValues>
            -1.8160104751586914e-01 9.0207356214523315e-01</leafValues></_>
        <_>
          <internalNodes>
            0 -1 704 1.4961240813136101e-02</internalNodes>
          <leafValues>
            2.1309837698936462e-01 -6.8679559230804443e-01</leafValues></_></weakClassifiers></_>
    <!-- stage 1 -->
    <_>
      <maxWeakCount>12</maxWeakCount>
      <stageThreshold>-8.4586316347122192e-01</stageThreshold>
      <weakClassifiers>
        <_>
          <internalNodes>
            0 -1 56 2.1987113356590271e-01</internalNodes>
          <leafValues>
            -2.4507486820220947e-01 8.0963712930679321e-01</leafValues></_>
        <_>
          <internalNodes>
            0 -1 24 5.8170380070805550e-03</internalNodes>
          <leafValues>
            -2.5439020991325378e-01 5.1272910833358765e-01</leafValues></_>
        <_>
          <internalNodes>
            0 -1 279 -3.8135372102260590e-02</internalNodes>
          <leafValues>
            5.7592606544494629e-01 -2.3308201134204865e-01</leafValues></_>
        <_>
          <internalNodes>
            0 -1 514 -4.0406000614166260e-01</internalNodes>
          <leafValues>
            -3.3532431721687317e-01 3.4457197785377502e-01</leafValues></_>
        <_>
          <internalNodes>
            0 -1 498 1.2692278251051903e-03</internalNodes>
          <leafValues>
            1.0198739916086197e-01 -6.7829704284667969e-01</leafValues></_>
        <_>
          <internalNodes>
            0 -1 440 -1.5963297337293625e-03</internalNodes>
          <leafValues>
            -9.2204147577285767e-01 8.8080644607543945e-02</leafValues></_>
        <_>
          <internalNodes>
            0 -1 208 3.7271678447723389e-02</internalNodes>
          <leafValues>
            -1.9225774705410004e-01 4.4019541144371033e-01</leafValues></_>
        <_>
          <internalNodes>
            0 -1 458 4.0866632480174303e-04</internalNodes>
          <leafValues>
            1.1339098215103149e-01 -6.7373991012573242e-01</leafValues></_>
        <_>
          <internalNodes>
            0 -1 14 -9.3486253172159195e-03</internalNodes>
          <leafValues>
            4.2533749341964722e-01 -1.8526546657085419e-01</leafValues></_>
        <_>
          <internalNodes>
            0 -1 428 1.7434748588129878e-03</internalNodes>
          <leafValues>
            1.3127505779266357e-01 -6.3934278488159180e-01</leafValues></_>
        <_>
          <internalNodes>
            0 -1 605 2.1763388067483902e-03</internalNodes>
          <leafValues>
            8.0414831638336182e-02 -7.1303272247314453e-01</leafValues></_>
        <_>
          <internalNodes>
            0 -1 629 1.0186252184212208e-03</internalNodes>
          <leafValues>
            1.0439416021108627e-01 -5.7178121805191040e-01</leafValues></_></weakClassifiers></_>
    <!-- stage 2 -->
    <_>
      <maxWeakCount>10</maxWeakCount>
      <stageThreshold>-8.4547382593154907e-01</stageThreshold>
      <weakClassifiers>
        <_>
          <internalNodes>
            0 -1 161 2.4665692448616028e-01</internalNodes>
          <leafValues>
            -1.8194842338562012e-01 8.3912485837936401e-01</leafValues></_>
        <_>
          <internalNodes>
            0 -1 43 -5.7347142696380615e-01</internalNodes>
          <leafValues>
            -7.4523925781250000e-01 4.0706810355186462e-01</leafValues></_>
        <_>
          <internalNodes>
            0 -1 649 -6.7657887935638428e-02</internalNodes>
          <leafValues>
            5.8540475368499756e-01 -3.0170315504074097e-01</leafValues></_>
        <_>
          <internalNodes>
            0 -1 98 -6.2146350741386414e-02</internalNodes>
          <leafValues>
            -1.2978601455688477e-01 7.6459085941314697e-01</leafValues></_>
        <_>
          <internalNodes>
            0 -1 497 -6.6924828570336103e-04</internalNodes>
          <leafValues>
            -6.2454289197921753e-01 1.6734726727008820e-01</leafValues></_>
        <_>
          <internalNodes>
            0 -1 321 -7.3957850690931082e-04</internalNodes>
          <leafValues>
            -6.9314169883728027e-01 1.4022567868232727e-01</leafValues></_>
        <_>
          <internalNodes>
            0 -1 321 9.4973074737936258e-04</internalNodes>
          <leafValues>
            1.3268098235130310e-01 -6.7611348628997803e-01</leafValues></_>
        <_>
          <internalNodes>
            0 -1 23 -1.3068949803709984e-02</internalNodes>
          <leafValues>
            4.3075504899024963e-01 -2.4763929843902588e-01</leafValues></_>
        <_>
          <internalNodes>
            0 -1 49 9.0791627764701843e-02</internalNodes>
          <leafValues>
            -2.2353677451610565e-01 4.4328084588050842e-01</leafValues></_>
        <_>
          <internalNodes>
            0 -1 224 -6.5490797162055969e-02</internalNodes>
          <leafValues>
            -1.2269250303506851e-01 9.8509097099304199e-01</leafValues></_></weakClassifiers></_>
    <!-- stage 3 -->
    <_>
      <maxWeakCount>15</maxWeakCount>
      <stageThreshold>-8.8305640220642090e-01</stageThreshold>
      <weakClassifiers>
        <_>
          <internalNodes>
            0 -1 28 7.5642508268356323e-01</internalNodes>
          <leafValues>
            -1.3126844167709351e-01 7.7038896083831787e-01</leafValues></_>
        <_>
          <internalNodes>
            0 -1 752 -1.7432667315006256e-02</internalNodes>
          <leafValues>
            5.9035688638687134e-01 -1.8767404556274414e-01</leafValues></_>
        <_>
          <internalNodes>
            0 -1 479 -1.7169754952192307e-02</internalNodes>
          <leafValues>
            -7.0382326841354370e-01 2.1950432658195496e-01</leafValues></_>
        <_>
          <internalNodes>
            0 -1 264 3.4721057862043381e-02</internalNodes>
          <leafValues>
            -2.2185041010379791e-01 5.7422137260437012e-01</leafValues></_>
        <_>
          <internalNodes>
            0 -1 237 -1.6718594357371330e-02</internalNodes>
          <leafValues>
            3.7370690703392029e-01 -2.4884276092052460e-01</leafValues></_>
        <_>
          <internalNodes>
            0 -1 259 -5.4109917255118489e-04</internalNodes>
          <leafValues>
            -6.6911953687667847e-01 1.2501886487007141e-01</leafValues></_>
        <_>
          <internalNodes>
            0 -1 274 -1.2165704742074013e-02</internalNodes>
          <leafValues>
            4.6576905250549316e-01 -1.7087881267070770e-01</leafValues></_>
        <_>
          <internalNodes>
            0 -1 63 2.2407360374927521e-02</internalNodes>
          <leafValues>
            -2.3634655773639679e-01 3.5874849557876587e-01</leafValues></_>
        <_>
          <internalNodes>
            0 -1 695 -3.9214408025145531e-04</internalNodes>
          <leafValues>
            -5.8076256513595581e-01 1.3395160436630249e-01</leafValues></_>
        <_>
          <internalNodes>
            0 -1 505 -1.1398775130510330e-01</internalNodes>
          <leafValues>
            -7.9642260074615479e-01 7.6381839811801910e-02</leafValues></_>
        <_>
          <internalNodes>
            0 -1 2 -3.2300455495715141e-04</internalNodes>
          <leafValues>
            -5.2437353134155273e-01 1.2770085036754608e-01</leafValues></_>
        <_>
          <internalNodes>
            0 -1 8 1.3122756499797106e-03</internalNodes>
          <leafValues>
            -2.1100017428398132e-01 3.4803861379623413e-01</leafValues></_>
        <_>
          <internalNodes>
            0 -1 394 3.0000269180163741e-04</internalNodes>
          <leafValues>
            1.3551369309425354e-01 -5.4578316211700439e-01</leafValues></_>
        <_>
          <internalNodes>
            0 -1 739 2.7321778237819672e-02</internalNodes>
          <leafValues>
            -1.4584438502788544e-01 4.8921400308609009e-01</leafValues></_>
        <_>
          <internalNodes>
            0 -1 711 2.7372928336262703e-02</internalNodes>
          <leafValues>
            -1.4742197096347809e-01 5.2322071790695190e-01</leafValues></_></weakClassifiers></_>
    <!-- stage 4 -->
    <_>
      <maxWeakCount>14</maxWeakCount>
      <stageThreshold>-1.0157421827316284e+00</stageThreshold>
      <weakClassifiers>
        <_>
          <internalNodes>
            0 -1 28 8.2598841190338135e-01</internalNodes>
          <leafValues>
            -1.2894375622272491e-01 8.2975870370864868e-01</leafValues></_>
        <_>
          <internalNodes>
            0 -1 761 -9.7511298954486847e-03</internalNodes>
          <leafValues>
            6.3604408502578735e-01 -2.1348136663436890e-01</leafValues></_>
        <_>
          <internalNodes>
            0 -1 11 2.9644973576068878e-02</internalNodes>
          <leafValues>
            -1.4774401485919952e-01 7.6925754547119141e-01</leafValues></_>
        <_>
          <internalNodes>
            0 -1 603 1.0936733335256577e-02</internalNodes>
          <leafValues>
            -2.2900730371475220e-01 5.2289170026779175e-01</leafValues></_>
        <_>
          <internalNodes>
            0 -1 570 -6.5996563062071800e-03</internalNodes>
          <leafValues>
            -4.4644856452941895e-01 2.6265770196914673e-01</leafValues></_>
        <_>
          <internalNodes>
            0 -1 10 4.9226768314838409e-03</internalNodes>
          <leafValues>
            -3.0703654885292053e-01 3.2112774252891541e-01</leafValues></_>
        <_>
          <internalNodes>
            0 -1 403 -1.9363431259989738e-02</internalNodes>
          <leafValues>
            8.5575729608535767e-02 -9.1639775037765503e-01</leafValues></_>
        <_>
          <internalNodes>
            0 -1 503 5.9248390607535839e-04</internalNodes>
          <leafValues>
            6.5765321254730225e-02 -7.2977244853973389e-01</leafValues></_>
        <_>
          <internalNodes>
            0 -1 146 1.5869244933128357e-02</internalNodes>
          <leafValues>
            -1.4228770136833191e-01 4.6660399436950684e-01</leafValues></_>
        <_>
          <internalNodes>
            0 -1 145 -1.4569096267223358e-02</internalNodes>
          <leafValues>
            4.6719285845756531e-01 -1.9217374920845032e-01</leafValues></_>
        <_>
          <internalNodes>
            0 -1 662 4.4073126628063619e-04</internalNodes>
          <leafValues>
            1.1233700811862946e-01 -6.4621591567993164e-01</leafValues></_>
        <_>
          <internalNodes>
            0 -1 111 -2.5685155391693115e-01</internalNodes>
          <leafValues>
            -5.8126223087310791e-01 1.0588072985410690e-01</leafValues></_>
        <_>
          <internalNodes>
            0 -1 499 -4.8619890585541725e-03</internalNodes>
          <leafValues>
            3.2336178421974182e-01 -2.4398262798786163e-01</leafValues></_>
        <_>
          <internalNodes>
            0 -1 382 -1.4481115341186523e-01</internalNodes>
          <leafValues>
            6.6580468416213989e-01 -1.2259414792060852e-01</leafValues></_></weakClassifiers></_>
    <!-- stage 5 -->
    <_>
      <maxWeakCount>12</maxWeakCount>
      <stageThreshold>-7.6211327314376831e-01</stageThreshold>
      <weakClassifiers>
        <_>
          <internalNodes>
            0 -1 275 -4.6959750354290009e-02</internalNodes>
          <leafValues>
            7.3371428251266479e-01 -1.9499999284744263e-01</leafValues></_>
        <_>
          <internalNodes>
            0 -1 18 3.6161221563816071e-02</internalNodes>
          <leafValues>
            -2.2972495853900909e-01 6.9305098056793213e-01</leafValues></_>
        <_>
          <internalNodes>
            0 -1 340 9.7321555949747562e-04</internalNodes>
          <leafValues>
            -3.0415359139442444e-01 4.4460737705230713e-01</leafValues></_>
        <_>
          <internalNodes>
            0 -1 647 -3.5553318448364735e-03</internalNodes>
          <leafValues>
            3.9873975515365601e-01 -3.1888857483863831e-01</leafValues></_>
        <_>
          <internalNodes>
            0 -1 412 -2.5043439120054245e-02</internalNodes>
          <leafValues>
            -4.6412914991378784e-01 2.1461619436740875e-01</leafValues></_>
        <_>
          <internalNodes>
            0 -1 107 -2.1006560418754816e-03</internalNodes>
          <leafValues>
            3.9585807919502258e-01 -2.7137264609336853e-01</leafValues></_>
        <_>
          <internalNodes>
            0 -1 358 -1.0020142421126366e-02</internalNodes>
          <leafValues>
            4.4086202979087830e-01 -2.0392806828022003e-01</leafValues></_>
        <_>
          <internalNodes>
            0 -1 140 -2.6717267930507660e-02</internalNodes>
          <leafValues>
            3.0363142490386963e-01 -3.1446948647499084e-01</leafValues></_>
        <_>
          <internalNodes>
            0 -1 173 -2.2919777780771255e-02</internalNodes>
          <leafValues>
            6.5680497884750366e-01 -1.4548219740390778e-01</leafValues></_>
        <_>
          <internalNodes>
            0 -1 654 -1.3158394023776054e-02</internalNodes>
          <leafValues>
            4.5029383897781372e-01 -1.8434885144233704e-01</leafValues></_>
        <_>
          <internalNodes>
            0 -1 687 1.8568739760667086e-03</internalNodes>
          <leafValues>
            1.3473218679428101e-01 -6.5415787696838379e-01</leafValues></_>
        <_>
          <internalNodes>
            0 -1 186 -2.6636160910129547e-02</internalNodes>
          <leafValues>
            5.1909089088439941e-01 -1.5816316008567810e-01</leafValues></_></weakClassifiers></_>
    <!-- stage 6 -->
    <_>
      <maxWeakCount>20</maxWeakCount>
      <stageThreshold>-7.8224736452102661e-01</stageThreshold>
      <weakClassifiers>
        <_>
          <internalNodes>
            0 -1 126 6.5581224858760834e-02</internalNodes>
          <leafValues>
            -1.5622076392173767e-01 6.4699625968933105e-01</leafValues></_>
        <_>
          <internalNodes>
            0 -1 648 -9.4855383038520813e-02</internalNodes>
          <leafValues>
            6.6153508424758911e-01 -1.8091405928134918e-01</leafValues></_>
        <_>
          <internalNodes>
            0 -1 12 2.1264288574457169e-02</internalNodes>
          <leafValues>
            -1.9422803819179535e-01 4.7842302918434143e-01</leafValues></_>
        <_>
          <internalNodes>
            0 -1 312 -2.2228953242301941e-01</internalNodes>
          <leafValues>
            -8.3408814668655396e-01 1.0040047019720078e-01</leafValues></_>
        <_>
          <internalNodes>
            0 -1 20 -6.2392419204115868e-03</internalNodes>
          <leafValues>
            2.9152500629425049e-01 -2.7491694688796997e-01</leafValues></_>
        <_>
          <internalNodes>
            0 -1 709 4.3830387294292450e-02</internalNodes>
          <leafValues>
            -9.7541712224483490e-02 7.1008175611495972e-01</leafValues></_>
        <_>
          <internalNodes>
            0 -1 364 -1.1792089790105820e-02</internalNodes>
          <leafValues>
            4.2002063989639282e-01 -1.5875631570816040e-01</leafValues></_>
        <_>
          <internalNodes>
            0 -1 214 -3.3094022423028946e-02</internalNodes>
          <leafValues>
            6.2736082077026367e-01 -1.2032703310251236e-01</leafValues></_>
        <_>
          <internalNodes>
            0 -1 28 1.1889767646789551e+00</internalNodes>
          <leafValues>
            -9.5430940389633179e-02 5.2144491672515869e-01</leafValues></_>
        <_>
          <internalNodes>
            0 -1 615 -3.7439219653606415e-02</internalNodes>
          <leafValues>
            -9.0180695056915283e-01 6.0419198125600815e-02</leafValues></_>
        <_>
          <internalNodes>
            0 -1 814 -2.1026027388870716e-03</internalNodes>
          <leafValues>
            3.3958026766777039e-01 -1.8777571618556976e-01</leafValues></_>
        <_>
          <internalNodes>
            0 -1 462 -3.1401333399116993e-04</internalNodes>
          <leafValues>
            -4.8794299364089966e-01 1.1179637908935547e-01</leafValues></_>
        <_>
          <internalNodes>
            0 -1 589 3.6981101147830486e-03</internalNodes>
          <leafValues>
            -1.7733117938041687e-01 3.6251714825630188e-01</leafValues></_>
        <_>
          <internalNodes>
            0 -1 93 -4.3964855372905731e-02</internalNodes>
          <leafValues>
            5.0254809856414795e-01 -1.2229061871767044e-01</leafValues></_>
        <_>
          <internalNodes>
            0 -1 659 4.6164050698280334e-02</internalNodes>
          <leafValues>
            -1.0111561417579651e-01 5.5672067403793335e-01</leafValues></_>
        <_>
          <internalNodes>
            0 -1 402 1.9757202826440334e-03</internalNodes>
          <leafValues>
            6.5455004572868347e-02 -8.1871891021728516e-01</leafValues></_>
        <_>
          <internalNodes>
            0 -1 613 9.4282894860953093e-04</internalNodes>
          <leafValues>
            4.5037280768156052e-02 -8.0391991138458252e-01</leafValues></_>
        <_>
          <internalNodes>
            0 -1 141 -2.1738496143370867e-03</internalNodes>
          <leafValues>
            2.2380270063877106e-01 -2.0036095380783081e-01</leafValues></_>
        <_>
          <internalNodes>
            0 -1 619 -7.0502946618944407e-04</internalNodes>
          <leafValues>
            2.7302435040473938e-01 -1.7111517488956451e-01</leafValues></_>
        <_>
          <internalNodes>
            0 -1 679 -4.0211409213952720e-04</internalNodes>
          <leafValues>
            -5.4031103849411011e-01 8.2363776862621307e-02</leafValues></_></weakClassifiers></_>
    <!-- stage 7 -->
    <_>
      <maxWeakCount>26</maxWeakCount>
      <stageThreshold>-7.9778331518173218e-01</stageThreshold>
      <weakClassifiers>
        <_>
          <internalNodes>
            0 -1 28 1.1028928756713867e+00</internalNodes>
          <leafValues>
            4.7065660357475281e-02 7.8844588994979858e-01</leafValues></_>
        <_>
          <internalNodes>
            0 -1 317 -1.4353720471262932e-02</internalNodes>
          <leafValues>
            4.3750971555709839e-01 -2.2818939387798309e-01</leafValues></_>
        <_>
          <internalNodes>
            0 -1 750 -1.3471229933202267e-02</internalNodes>
          <leafValues>
            4.0904930233955383e-01 -2.2191305458545685e-01</leafValues></_>
        <_>
          <internalNodes>
            0 -1 574 1.7774212174117565e-03</internalNodes>
          <leafValues>
            -2.5492557883262634e-01 2.6779106259346008e-01</leafValues></_>
        <_>
          <internalNodes>
            0 -1 534 -2.7041281573474407e-03</internalNodes>
          <leafValues>
            -6.8719232082366943e-01 8.8802069425582886e-02</leafValues></_>
        <_>
          <internalNodes>
            0 -1 47 2.3772558197379112e-02</internalNodes>
          <leafValues>
            -1.6309067606925964e-01 3.5028952360153198e-01</leafValues></_>
        <_>
          <internalNodes>
            0 -1 781 -2.2931804414838552e-03</internalNodes>
          <leafValues>
            -5.2527165412902832e-01 1.1267076432704926e-01</leafValues></_>
        <_>
          <internalNodes>
            0 -1 714 -4.4249696657061577e-04</internalNodes>
          <leafValues>
            -5.3576809167861938e-01 9.4987824559211731e-02</leafValues></_>
        <_>
          <internalNodes>
            0 -1 308 -1.5646964311599731e-03</internalNodes>
          <leafValues>
            -4.5208403468132019e-01 1.1163196712732315e-01</leafValues></_>
        <_>
          <internalNodes>
            0 -1 437 2.0335414446890354e-03</internalNodes>
          <leafValues>
            7.4876122176647186e-02 -7.6136112213134766e-01</leafValues></_>
        <_>
          <internalNodes>
            0 -1 563 -6.1972029507160187e-02</internalNodes>
          <leafValues>
            3.8266378641128540e-01 -1.3462172448635101e-01</leafValues></_>
        <_>
          <internalNodes>
            0 -1 168 -8.7514668703079224e-02</internalNodes>
          <leafValues>
            5.8561187982559204e-01 -1.2064237892627716e-01</leafValues></_>
        <_>
          <internalNodes>
            0 -1 254 2.9492810368537903e-02</internalNodes>
          <leafValues>
            -1.9666820764541626e-01 3.1835427880287170e-01</leafValues></_>
        <_>
          <internalNodes>
            0 -1 0 -2.2791433730162680e-04</internalNodes>
          <leafValues>
            -3.8241961598396301e-01 1.1684536933898926e-01</leafValues></_>
        <_>
          <internalNodes>
            0 -1 592 9.6241314895451069e-04</internalNodes>
          <leafValues>
            8.9739121496677399e-02 -5.4642879962921143e-01</leafValues></_>
        <_>
          <internalNodes>
            0 -1 682 8.8990209624171257e-03</internalNodes>
          <leafValues>
            -1.6045984625816345e-01 3.2162699103355408e-01</leafValues></_>
        <_>
          <internalNodes>
            0 -1 444 -7.4430094100534916e-03</internalNodes>
          <leafValues>
            -4.3645140528678894e-01 1.2415092438459396e-01</leafValues></_>
        <_>
          <internalNodes>
            0 -1 150 3.3890497870743275e-03</internalNodes>
          <leafValues>
            -1.7246256768703461e-01 2.8516837954521179e-01</leafValues></_>
        <_>
          <internalNodes>
            0 -1 330 9.0144388377666473e-04</internalNodes>
          <leafValues>
            7.5161427259445190e-02 -5.9598308801651001e-01</leafValues></_>
        <_>
          <internalNodes>
            0 -1 95 -1.3457894325256348e-02</internalNodes>
          <leafValues>
            3.2908993959426880e-01 -1.4288569986820221e-01</leafValues></_>
        <_>
          <internalNodes>
            0 -1 564 1.1422191746532917e-03</internalNodes>
          <leafValues>
            7.5502477586269379e-02 -6.2243175506591797e-01</leafValues></_>
        <_>
          <internalNodes>
            0 -1 548 1.4847642742097378e-03</internalNodes>
          <leafValues>
            4.6441700309514999e-02 -8.4622365236282349e-01</leafValues></_>
        <_>
          <internalNodes>
            0 -1 622 -3.2869039569050074e-04</internalNodes>
          <leafValues>
            2.3589529097080231e-01 -1.9503551721572876e-01</leafValues></_>
        <_>
          <internalNodes>
            0 -1 510 2.7849073521792889e-03</internalNodes>
          <leafValues>
            -1.8431937694549561e-01 2.5064381957054138e-01</leafValues></_>
        <_>
          <internalNodes>
            0 -1 714 4.6054384438320994e-04</internalNodes>
          <leafValues>
            8.2973681390285492e-02 -5.0760239362716675e-01</leafValues></_>
        <_>
          <internalNodes>
            0 -1 523 7.3994143167510629e-04</internalNodes>
          <leafValues>
            -1.4594651758670807e-01 3.1885567307472229e-01</leafValues></_></weakClassifiers></_>
    <!-- stage 8 -->
    <_>
      <maxWeakCount>24</maxWeakCount>
      <stageThreshold>-6.8587321043014526e-01</stageThreshold>
      <weakClassifiers>
        <_>
          <internalNodes>
            0 -1 112 4.3516504764556885e-01</internalNodes>
          <leafValues>
            -2.6178010739386082e-03 7.4120956659317017e-01</leafValues></_>
        <_>
          <internalNodes>
            0 -1 755 -2.2092990577220917e-02</internalNodes>
          <leafValues>
            5.5261921882629395e-01 -1.7681939899921417e-01</leafValues></_>
        <_>
          <internalNodes>
            0 -1 17 6.0446154326200485e-02</internalNodes>
          <leafValues>
            -1.5664777159690857e-01 5.0633060932159424e-01</leafValues></_>
        <_>
          <internalNodes>
            0 -1 329 -5.6483782827854156e-03</internalNodes>
          <leafValues>
            2.6337912678718567e-01 -2.9398146271705627e-01</leafValues></_>
        <_>
          <internalNodes>
            0 -1 522 -2.0254540722817183e-03</internalNodes>
          <leafValues>
            9.0898379683494568e-02 -6.0033130645751953e-01</leafValues></_>
        <_>
          <internalNodes>
            0 -1 295 -1.0662187635898590e-01</internalNodes>
          <leafValues>
            -7.3549360036849976e-01 7.7480450272560120e-02</leafValues></_>
        <_>
          <internalNodes>
            0 -1 32 3.0047246813774109e-01</internalNodes>
          <leafValues>
            -1.6544981300830841e-01 3.4006306529045105e-01</leafValues></_>
        <_>
          <internalNodes>
            0 -1 80 -1.7501022666692734e-03</internalNodes>
          <leafValues>
            2.1525512635707855e-01 -2.7161869406700134e-01</leafValues></_>
        <_>
          <internalNodes>
            0 -1 421 1.4549995958805084e-01</internalNodes>
          <leafValues>
            -9.9951900541782379e-02 5.3319793939590454e-01</leafValues></_>
        <_>
          <internalNodes>
            0 -1 537 -1.7542988061904907e-02</internalNodes>
          <leafValues>
            3.7663108110427856e-01 -1.6910691559314728e-01</leafValues></_>
        <_>
          <internalNodes>
            0 -1 779 -1.2213097885251045e-02</internalNodes>
          <leafValues>
            4.3906757235527039e-01 -1.1394789069890976e-01</leafValues></_>
        <_>
          <internalNodes>
            0 -1 148 -4.9020082224160433e-04</internalNodes>
          <leafValues>
            2.2078095376491547e-01 -2.0325383543968201e-01</leafValues></_>
        <_>
          <internalNodes>
            0 -1 395 -1.4508205465972424e-02</internalNodes>
          <leafValues>
            -6.9172781705856323e-01 5.6250341236591339e-02</leafValues></_>
        <_>
          <internalNodes>
            0 -1 826 1.1182306334376335e-03</internalNodes>
          <leafValues>
            -1.8324215710163116e-01 2.2196744382381439e-01</leafValues></_>
        <_>
          <internalNodes>
            0 -1 572 -1.6766024054959416e-03</internalNodes>
          <leafValues>
            -6.2556761503219604e-01 5.8685503900051117e-02</leafValues></_>
        <_>
          <internalNodes>
            0 -1 113 -1.7050097230821848e-03</internalNodes>
          <leafValues>
            4.5346733927726746e-01 -9.3561485409736633e-02</leafValues></_>
        <_>
          <internalNodes>
            0 -1 668 2.2498983889818192e-03</internalNodes>
          <leafValues>
            7.3942661285400391e-02 -6.1212027072906494e-01</leafValues></_>
        <_>
          <internalNodes>
            0 -1 453 -2.3709703236818314e-04</internalNodes>
          <leafValues>
            2.5729635357856750e-01 -1.7131930589675903e-01</leafValues></_>
        <_>
          <internalNodes>
            0 -1 230 -2.0691961981356144e-03</internalNodes>
          <leafValues>
            2.0147581398487091e-01 -2.3579254746437073e-01</leafValues></_>
        <_>
          <internalNodes>
            0 -1 265 -2.3492969572544098e-02</internalNodes>
          <leafValues>
            5.1882141828536987e-01 -9.5021642744541168e-02</leafValues></_>
        <_>
          <internalNodes>
            0 -1 802 1.7423897981643677e-02</internalNodes>
          <leafValues>
            8.3896994590759277e-02 -5.4781115055084229e-01</leafValues></_>
        <_>
          <internalNodes>
            0 -1 577 1.2052437523379922e-03</internalNodes>
          <leafValues>
            5.3357470780611038e-02 -6.7455279827117920e-01</leafValues></_>
        <_>
          <internalNodes>
            0 -1 84 -1.0305967589374632e-04</internalNodes>
          <leafValues>
            2.0208290219306946e-01 -1.8730247020721436e-01</leafValues></_>
        <_>
          <internalNodes>
            0 -1 301 -6.7245197296142578e-01</internalNodes>
          <leafValues>
            -9.4264888763427734e-01 4.0861625224351883e-02</leafValues></_></weakClassifiers></_>
    <!-- stage 9 -->
    <_>
      <maxWeakCount>25</maxWeakCount>
      <stageThreshold>-7.7316558361053467e-01</stageThreshold>
      <weakClassifiers>
        <_>
          <internalNodes>
            0 -1 26 1.7404827475547791e-01</internalNodes>
          <leafValues>
            -3.6075036972761154e-02 7.0332479476928711e-01</leafValues></_>
        <_>
          <internalNodes>
            0 -1 50 3.2446163892745972e-01</internalNodes>
          <leafValues>
            -2.5428703427314758e-01 4.6945413947105408e-01</leafValues></_>
        <_>
          <internalNodes>
            0 -1 766 -3.4484669566154480e-02</internalNodes>
          <leafValues>
            6.4155924320220947e-01 -1.1479610949754715e-01</leafValues></_>
        <_>
          <internalNodes>
            0 -1 8 2.0582037977874279e-03</internalNodes>
          <leafValues>
            -2.4414612352848053e-01 3.2560542225837708e-01</leafValues></_>
        <_>
          <internalNodes>
            0 -1 250 9.8923011682927608e-04</internalNodes>
          <leafValues>
            -2.3984739184379578e-01 2.7376210689544678e-01</leafValues></_>
        <_>
          <internalNodes>
            0 -1 136 -3.0836116522550583e-02</internalNodes>
          <leafValues>
            6.9983261823654175e-01 -1.1118287593126297e-01</leafValues></_>
        <_>
          <internalNodes>
            0 -1 315 -3.0228707473725080e-03</internalNodes>
          <leafValues>
            2.7620211243629456e-01 -1.6862516105175018e-01</leafValues></_>
        <_>
          <internalNodes>
            0 -1 561 7.1376144886016846e-02</internalNodes>
          <leafValues>
            -1.4314255118370056e-01 4.9665266275405884e-01</leafValues></_>
        <_>
          <internalNodes>
            0 -1 610 3.7961028283461928e-04</internalNodes>
          <leafValues>
            -2.0521877706050873e-01 2.4820210039615631e-01</leafValues></_>
        <_>
          <internalNodes>
            0 -1 646 -3.9666020311415195e-03</internalNodes>
          <leafValues>
            3.0406618118286133e-01 -1.7235842347145081e-01</leafValues></_>
        <_>
          <internalNodes>
            0 -1 631 -1.9876934587955475e-01</internalNodes>
          <leafValues>
            -2.2907952964305878e-01 2.4753208458423615e-01</leafValues></_>
        <_>
          <internalNodes>
            0 -1 359 1.0666465386748314e-03</internalNodes>
          <leafValues>
            9.9396005272865295e-02 -4.5265388488769531e-01</leafValues></_>
        <_>
          <internalNodes>
            0 -1 165 1.0125218250323087e-04</internalNodes>
          <leafValues>
            -2.1066224575042725e-01 1.9976608455181122e-01</leafValues></_>
        <_>
          <internalNodes>
            0 -1 456 -7.6983729377388954e-03</internalNodes>
          <leafValues>
            -7.3726296424865723e-01 5.2404914051294327e-02</leafValues></_>
        <_>
          <internalNodes>
            0 -1 835 8.0079887993633747e-05</internalNodes>
          <leafValues>
            1.2730836868286133e-01 -3.0816963315010071e-01</leafValues></_>
        <_>
          <internalNodes>
            0 -1 366 -5.2083716727793217e-03</internalNodes>
          <leafValues>
            2.7464184165000916e-01 -1.5367242693901062e-01</leafValues></_>
        <_>
          <internalNodes>
            0 -1 273 -7.8945085406303406e-03</internalNodes>
          <leafValues>
            4.6066418290138245e-01 -1.1638767272233963e-01</leafValues></_>
        <_>
          <internalNodes>
            0 -1 489 -1.2933219550177455e-03</internalNodes>
          <leafValues>
            1.5371595323085785e-01 -3.0077776312828064e-01</leafValues></_>
        <_>
          <internalNodes>
            0 -1 144 8.7415678426623344e-03</internalNodes>
          <leafValues>
            -1.2709228694438934e-01 3.2069882750511169e-01</leafValues></_>
        <_>
          <internalNodes>
            0 -1 122 -1.0172009468078613e-02</internalNodes>
          <leafValues>
            4.2884305119514465e-01 -9.7514390945434570e-02</leafValues></_>
        <_>
          <internalNodes>
            0 -1 541 -5.2150385454297066e-04</internalNodes>
          <leafValues>
            -5.5970150232315063e-01 7.7094607055187225e-02</leafValues></_>
        <_>
          <internalNodes>
            0 -1 732 4.0987995453178883e-04</internalNodes>
          <leafValues>
            -2.0735365152359009e-01 1.8839979171752930e-01</leafValues></_>
        <_>
          <internalNodes>
            0 -1 55 -1.8057878315448761e-01</internalNodes>
          <leafValues>
            4.8889696598052979e-01 -7.9269148409366608e-02</leafValues></_>
        <_>
          <internalNodes>
            0 -1 635 -1.7177425324916840e-02</internalNodes>
          <leafValues>
            3.2299584150314331e-01 -1.2252578884363174e-01</leafValues></_>
        <_>
          <internalNodes>
            0 -1 623 1.5462154988199472e-03</internalNodes>
          <leafValues>
            -1.2014049291610718e-01 3.2472297549247742e-01</leafValues></_></weakClassifiers></_>
    <!-- stage 10 -->
    <_>
      <maxWeakCount>28</maxWeakCount>
      <stageThreshold>-6.8608653545379639e-01</stageThreshold>
      <weakClassifiers>
        <_>
          <internalNodes>
            0 -1 76 1.5541157126426697e-01</internalNodes>
          <leafValues>
            4.0774013847112656e-02 6.5934795141220093e-01</leafValues></_>
        <_>
          <internalNodes>
            0 -1 247 -8.0427192151546478e-03</internalNodes>
          <leafValues>
            4.5233678817749023e-01 -1.6988582909107208e-01</leafValues></_>
        <_>
          <internalNodes>
            0 -1 11 3.4102454781532288e-02</internalNodes>
          <leafValues>
            -1.6218067705631256e-01 4.9243897199630737e-01</leafValues></_>
        <_>
          <internalNodes>
            0 -1 66 3.2087422907352448e-02</internalNodes>
          <leafValues>
            -2.2473755478858948e-01 2.4175685644149780e-01</leafValues></_>
        <_>
          <internalNodes>
            0 -1 576 -1.9235864747315645e-03</internalNodes>
          <leafValues>
            2.2191171348094940e-01 -2.5921630859375000e-01</leafValues></_>
        <_>
          <internalNodes>
            0 -1 616 3.5814195871353149e-02</internalNodes>
          <leafValues>
            -1.2097544223070145e-01 5.0593662261962891e-01</leafValues></_>
        <_>
          <internalNodes>
            0 -1 776 3.5324536263942719e-02</internalNodes>
          <leafValues>
            -1.3385462760925293e-01 3.5474684834480286e-01</leafValues></_>
        <_>
          <internalNodes>
            0 -1 103 -1.2402185348037165e-05</internalNodes>
          <leafValues>
            -2.9367515444755554e-01 1.5370027720928192e-01</leafValues></_>
        <_>
          <internalNodes>
            0 -1 837 1.0540505172684789e-04</internalNodes>
          <leafValues>
            1.4000327885150909e-01 -3.4716090559959412e-01</leafValues></_>
        <_>
          <internalNodes>
            0 -1 821 -1.2052598409354687e-02</internalNodes>
          <leafValues>
            6.2579429149627686e-01 -7.2169296443462372e-02</leafValues></_>
        <_>
          <internalNodes>
            0 -1 533 2.3354526609182358e-02</internalNodes>
          <leafValues>
            6.9730602204799652e-02 -6.5539467334747314e-01</leafValues></_>
        <_>
          <internalNodes>
            0 -1 147 -1.7843004316091537e-02</internalNodes>
          <leafValues>
            3.0477342009544373e-01 -1.4415775239467621e-01</leafValues></_>
        <_>
          <internalNodes>
            0 -1 265 4.5904666185379028e-02</internalNodes>
          <leafValues>
            -9.6580408513545990e-02 4.5600703358650208e-01</leafValues></_>
        <_>
          <internalNodes>
            0 -1 720 -1.6162986867129803e-03</internalNodes>
          <leafValues>
            -5.4896706342697144e-01 7.0033408701419830e-02</leafValues></_>
        <_>
          <internalNodes>
            0 -1 436 -4.6211224980652332e-04</internalNodes>
          <leafValues>
            -4.4258618354797363e-01 8.2005985081195831e-02</leafValues></_>
        <_>
          <internalNodes>
            0 -1 657 5.2435919642448425e-03</internalNodes>
          <leafValues>
            -9.8841138184070587e-02 3.9296424388885498e-01</leafValues></_>
        <_>
          <internalNodes>
            0 -1 426 -5.4542534053325653e-04</internalNodes>
          <leafValues>
            1.4049775898456573e-01 -2.7693644165992737e-01</leafValues></_>
        <_>
          <internalNodes>
            0 -1 74 -3.5128779709339142e-03</internalNodes>
          <leafValues>
            4.1816574335098267e-01 -9.6917286515235901e-02</leafValues></_>
        <_>
          <internalNodes>
            0 -1 796 -3.4023988991975784e-03</internalNodes>
          <leafValues>
            3.2031726837158203e-01 -1.1767917126417160e-01</leafValues></_>
        <_>
          <internalNodes>
            0 -1 446 -4.0492430329322815e-02</internalNodes>
          <leafValues>
            -6.1961454153060913e-01 5.7881571352481842e-02</leafValues></_>
        <_>
          <internalNodes>
            0 -1 416 9.1741071082651615e-04</internalNodes>
          <leafValues>
            -2.0696915686130524e-01 1.8660190701484680e-01</leafValues></_>
        <_>
          <internalNodes>
            0 -1 41 2.3779440671205521e-03</internalNodes>
          <leafValues>
            -1.8780742585659027e-01 2.1997840702533722e-01</leafValues></_>
        <_>
          <internalNodes>
            0 -1 571 -1.3007521629333496e-03</internalNodes>
          <leafValues>
            -7.6431947946548462e-01 4.9607962369918823e-02</leafValues></_>
        <_>
          <internalNodes>
            0 -1 586 -8.2035746891051531e-04</internalNodes>
          <leafValues>
            2.6738336682319641e-01 -1.4842732250690460e-01</leafValues></_>
        <_>
          <internalNodes>
            0 -1 797 8.6735226213932037e-03</internalNodes>
          <leafValues>
            7.1858689188957214e-02 -5.4156672954559326e-01</leafValues></_>
        <_>
          <internalNodes>
            0 -1 302 6.5369263291358948e-02</internalNodes>
          <leafValues>
            6.3498377799987793e-02 -5.9041333198547363e-01</leafValues></_>
        <_>
          <internalNodes>
            0 -1 462 6.3862965907901525e-04</internalNodes>
          <leafValues>
            4.7311645001173019e-02 -7.0690870285034180e-01</leafValues></_>
        <_>
          <internalNodes>
            0 -1 483 1.5229990240186453e-03</internalNodes>
          <leafValues>
            -2.0405635237693787e-01 1.8097287416458130e-01</leafValues></_></weakClassifiers></_>
    <!-- stage 11 -->
    <_>
      <maxWeakCount>35</maxWeakCount>
      <stageThreshold>-6.3538473844528198e-01</stageThreshold>
      <weakClassifiers>
        <_>
          <internalNodes>
            0 -1 119 2.8066393733024597e-01</internalNodes>
          <leafValues>
            -2.9162747785449028e-02 5.7286697626113892e-01</leafValues></_>
        <_>
          <internalNodes>
            0 -1 24 7.8297238796949387e-03</internalNodes>
          <leafValues>
            -2.8175386786460876e-01 3.3166232705116272e-01</leafValues></_>
        <_>
          <internalNodes>
            0 -1 92 -8.1153213977813721e-03</internalNodes>
          <leafValues>
            4.0399733185768127e-01 -1.8002805113792419e-01</leafValues></_>
        <_>
          <internalNodes>
            0 -1 377 -7.1462444961071014e-02</internalNodes>
          <leafValues>
            -4.4069272279739380e-01 1.3463008403778076e-01</leafValues></_>
        <_>
          <internalNodes>
            0 -1 715 1.3536040671169758e-02</internalNodes>
          <leafValues>
            -1.7498946189880371e-01 2.8193572163581848e-01</leafValues></_>
        <_>
          <internalNodes>
            0 -1 524 -1.4497209340333939e-03</internalNodes>
          <leafValues>
            2.9266303777694702e-01 -1.8830470740795135e-01</leafValues></_>
        <_>
          <internalNodes>
            0 -1 432 3.9959331043064594e-03</internalNodes>
          <leafValues>
            7.3019511997699738e-02 -6.1998343467712402e-01</leafValues></_>
        <_>
          <internalNodes>
            0 -1 805 3.2875370234251022e-03</internalNodes>
          <leafValues>
            5.5147629231214523e-02 -5.8515614271163940e-01</leafValues></_>
        <_>
          <internalNodes>
            0 -1 829 -9.5060560852289200e-03</internalNodes>
          <leafValues>
            5.3648430109024048e-01 -6.7566029727458954e-02</leafValues></_>
        <_>
          <internalNodes>
            0 -1 568 -5.8467639610171318e-04</internalNodes>
          <leafValues>
            1.7260894179344177e-01 -2.1835942566394806e-01</leafValues></_>
        <_>
          <internalNodes>
            0 -1 183 -6.9914814084768295e-03</internalNodes>
          <leafValues>
            4.9038821458816528e-01 -6.6885292530059814e-02</leafValues></_>
        <_>
          <internalNodes>
            0 -1 184 5.3171031177043915e-03</internalNodes>
          <leafValues>
            -1.8709811568260193e-01 2.3358453810214996e-01</leafValues></_>
        <_>
          <internalNodes>
            0 -1 172 1.8983077257871628e-02</internalNodes>
          <leafValues>
            -1.7518638074398041e-01 2.1669133007526398e-01</leafValues></_>
        <_>
          <internalNodes>
            0 -1 249 -7.9082623124122620e-02</internalNodes>
          <leafValues>
            7.8918629884719849e-01 -4.7093931585550308e-02</leafValues></_>
        <_>
          <internalNodes>
            0 -1 322 2.8084665536880493e-03</internalNodes>
          <leafValues>
            7.2707735002040863e-02 -6.1900019645690918e-01</leafValues></_>
        <_>
          <internalNodes>
            0 -1 786 -1.7263933550566435e-03</internalNodes>
          <leafValues>
            1.9063411653041840e-01 -1.8564583361148834e-01</leafValues></_>
        <_>
          <internalNodes>
            0 -1 651 1.5512876212596893e-02</internalNodes>
          <leafValues>
            -1.0269260406494141e-01 3.6353820562362671e-01</leafValues></_>
        <_>
          <internalNodes>
            0 -1 188 -2.6095411740243435e-03</internalNodes>
          <leafValues>
            -4.7306394577026367e-01 8.5393376648426056e-02</leafValues></_>
        <_>
          <internalNodes>
            0 -1 196 4.0113511495292187e-03</internalNodes>
          <leafValues>
            -1.0292237997055054e-01 3.2509329915046692e-01</leafValues></_>
        <_>
          <internalNodes>
            0 -1 449 1.4343569055199623e-03</internalNodes>
          <leafValues>
            -1.6856895387172699e-01 2.4043539166450500e-01</leafValues></_>
        <_>
          <internalNodes>
            0 -1 607 -6.5348476171493530e-02</internalNodes>
          <leafValues>
            2.4596464633941650e-01 -1.4237144589424133e-01</leafValues></_>
        <_>
          <internalNodes>
            0 -1 349 -1.6422696411609650e-02</internalNodes>
          <leafValues>
            -3.9966490864753723e-01 8.5223771631717682e-02</leafValues></_>
        <_>
          <internalNodes>
            0 -1 538 1.4214569237083197e-03</internalNodes>
          <leafValues>
            6.1196491122245789e-02 -4.8687595129013062e-01</leafValues></_>
        <_>
          <internalNodes>
            0 -1 637 -6.0121668502688408e-03</internalNodes>
          <leafValues>
            4.2857605218887329e-01 -8.5394278168678284e-02</leafValues></_>
        <_>
          <internalNodes>
            0 -1 674 7.3833097703754902e-03</internalNodes>
          <leafValues>
            -7.7040605247020721e-02 3.7697610259056091e-01</leafValues></_>
        <_>
          <internalNodes>
            0 -1 686 -5.0216792151331902e-03</internalNodes>
          <leafValues>
            -6.6797351837158203e-01 4.7636140137910843e-02</leafValues></_>
        <_>
          <internalNodes>
            0 -1 436 8.6029962403699756e-04</internalNodes>
          <leafValues>
            4.4309783726930618e-02 -5.9987854957580566e-01</leafValues></_>
        <_>
          <internalNodes>
            0 -1 37 -1.9309617578983307e-02</internalNodes>
          <leafValues>
            -3.7627121806144714e-01 7.0503972470760345e-02</leafValues></_>
        <_>
          <internalNodes>
            0 -1 477 -1.6312166117131710e-03</internalNodes>
          <leafValues>
            2.3538221418857574e-01 -1.3161967694759369e-01</leafValues></_>
        <_>
          <internalNodes>
            0 -1 553 5.9339031577110291e-04</internalNodes>
          <leafValues>
            -1.2908695638179779e-01 2.5196066498756409e-01</leafValues></_>
        <_>
          <internalNodes>
            0 -1 476 -4.5064138248562813e-03</internalNodes>
          <leafValues>
            2.6384890079498291e-01 -1.2586939334869385e-01</leafValues></_>
        <_>
          <internalNodes>
            0 -1 48 1.1112682819366455e+00</internalNodes>
          <leafValues>
            -7.9182215034961700e-02 3.9804691076278687e-01</leafValues></_>
        <_>
          <internalNodes>
            0 -1 176 -3.4487391822040081e-03</internalNodes>
          <leafValues>
            2.9069894552230835e-01 -1.1720976978540421e-01</leafValues></_>
        <_>
          <internalNodes>
            0 -1 352 2.9080423992127180e-03</internalNodes>
          <leafValues>
            5.3481895476579666e-02 -6.6058677434921265e-01</leafValues></_>
        <_>
          <internalNodes>
            0 -1 787 -2.3544044233858585e-04</internalNodes>
          <leafValues>
            -2.7746674418449402e-01 1.0783485323190689e-01</leafValues></_></weakClassifiers></_>
    <!-- stage 12 -->
    <_>
      <maxWeakCount>36</maxWeakCount>
      <stageThreshold>-6.9356769323348999e-01</stageThreshold>
      <weakClassifiers>
        <_>
          <internalNodes>
            0 -1 118 3.1848835945129395e-01</internalNodes>
          <leafValues>
            2.2761760279536247e-02 6.2500000000000000e-01</leafValues></_>
        <_>
          <internalNodes>
            0 -1 94 -4.4160515069961548e-02</internalNodes>
          <leafValues>
            -1.5020300447940826e-01 4.3753889203071594e-01</leafValues></_>
        <_>
          <internalNodes>
            0 -1 727 -2.7471492066979408e-03</internalNodes>
          <leafValues>
            2.6626327633857727e-01 -2.1909871697425842e-01</leafValues></_>
        <_>
          <internalNodes>
            0 -1 706 9.2900037998333573e-05</internalNodes>
          <leafValues>
            -2.9636687040328979e-01 1.4687073230743408e-01</leafValues></_>
        <_>
          <internalNodes>
            0 -1 19 5.9532886371016502e-03</internalNodes>
          <leafValues>
            -2.0374085009098053e-01 2.2158434987068176e-01</leafValues></_>
        <_>
          <internalNodes>
            0 -1 493 -4.1451022028923035e-02</internalNodes>
          <leafValues>
            -9.3475443124771118e-01 5.3003273904323578e-02</leafValues></_>
        <_>
          <internalNodes>
            0 -1 142 -5.9878909960389137e-03</internalNodes>
          <leafValues>
            3.0123963952064514e-01 -1.4993119239807129e-01</leafValues></_>
        <_>
          <internalNodes>
            0 -1 431 -1.6912131104618311e-03</internalNodes>
          <leafValues>
            -6.2305867671966553e-01 7.1362063288688660e-02</leafValues></_>
        <_>
          <internalNodes>
            0 -1 671 9.6583329141139984e-03</internalNodes>
          <leafValues>
            -1.4420296251773834e-01 2.5051406025886536e-01</leafValues></_>
        <_>
          <internalNodes>
            0 -1 311 -7.6546762138605118e-03</internalNodes>
          <leafValues>
            4.0810218453407288e-01 -9.6180155873298645e-02</leafValues></_>
        <_>
          <internalNodes>
            0 -1 159 1.0404685745015740e-03</internalNodes>
          <leafValues>
            -2.4465122818946838e-01 1.6622266173362732e-01</leafValues></_>
        <_>
          <internalNodes>
            0 -1 310 3.1060157343745232e-03</internalNodes>
          <leafValues>
            7.4200965464115143e-02 -4.7230535745620728e-01</leafValues></_>
        <_>
          <internalNodes>
            0 -1 641 -4.4912775047123432e-04</internalNodes>
          <leafValues>
            -5.4520702362060547e-01 5.5123846977949142e-02</leafValues></_>
        <_>
          <internalNodes>
            0 -1 199 -8.0575617030262947e-03</internalNodes>
          <leafValues>
            3.2778438925743103e-01 -1.1097784340381622e-01</leafValues></_>
        <_>
          <internalNodes>
            0 -1 303 -2.4860017001628876e-02</internalNodes>
          <leafValues>
            -6.9386577606201172e-01 6.1186112463474274e-02</leafValues></_>
        <_>
          <internalNodes>
            0 -1 469 2.3686557542532682e-03</internalNodes>
          <leafValues>
            2.8431747108697891e-02 -8.1870883703231812e-01</leafValues></_>
        <_>
          <internalNodes>
            0 -1 745 1.3163659023120999e-03</internalNodes>
          <leafValues>
            -1.1816913634538651e-01 2.7375099062919617e-01</leafValues></_>
        <_>
          <internalNodes>
            0 -1 839 -1.3900886988267303e-03</internalNodes>
          <leafValues>
            -5.7686805725097656e-01 6.2173161655664444e-02</leafValues></_>
        <_>
          <internalNodes>
            0 -1 644 -6.3750077970325947e-03</internalNodes>
          <leafValues>
            3.0596345663070679e-01 -1.0033649206161499e-01</leafValues></_>
        <_>
          <internalNodes>
            0 -1 689 2.5708649307489395e-02</internalNodes>
          <leafValues>
            5.8953288942575455e-02 -5.2255243062973022e-01</leafValues></_>
        <_>
          <internalNodes>
            0 -1 636 3.8376849261112511e-05</internalNodes>
          <leafValues>
            -2.3648701608181000e-01 1.3103437423706055e-01</leafValues></_>
        <_>
          <internalNodes>
            0 -1 661 6.5840587019920349e-02</internalNodes>
          <leafValues>
            -5.9543590992689133e-02 5.0847393274307251e-01</leafValues></_>
        <_>
          <internalNodes>
            0 -1 626 1.3852714619133621e-04</internalNodes>
          <leafValues>
            -2.1517741680145264e-01 1.5322518348693848e-01</leafValues></_>
        <_>
          <internalNodes>
            0 -1 60 -2.5769684463739395e-02</internalNodes>
          <leafValues>
            3.9712855219841003e-01 -9.2108972370624542e-02</leafValues></_>
        <_>
          <internalNodes>
            0 -1 337 3.9279498159885406e-02</internalNodes>
          <leafValues>
            -8.2142740488052368e-02 3.8106524944305420e-01</leafValues></_>
        <_>
          <internalNodes>
            0 -1 187 4.1436136234551668e-04</internalNodes>
          <leafValues>
            7.2493411600589752e-02 -4.6971961855888367e-01</leafValues></_>
        <_>
          <internalNodes>
            0 -1 372 -2.8043021447956562e-03</internalNodes>
          <leafValues>
            2.6106864213943481e-01 -1.1306042224168777e-01</leafValues></_>
        <_>
          <internalNodes>
            0 -1 6 -1.2199180673633236e-05</internalNodes>
          <leafValues>
            -2.6451465487480164e-01 1.1889699846506119e-01</leafValues></_>
        <_>
          <internalNodes>
            0 -1 266 -6.9913171231746674e-02</internalNodes>
          <leafValues>
            -6.7723184823989868e-01 4.2550612241029739e-02</leafValues></_>
        <_>
          <internalNodes>
            0 -1 804 -5.8944825083017349e-02</internalNodes>
          <leafValues>
            -5.4522603750228882e-01 4.8752058297395706e-02</leafValues></_>
        <_>
          <internalNodes>
            0 -1 459 -3.2216409454122186e-04</internalNodes>
          <leafValues>
            1.0337475687265396e-01 -2.9026302695274353e-01</leafValues></_>
        <_>
          <internalNodes>
            0 -1 491 -1.4534162357449532e-02</internalNodes>
          <leafValues>
            -3.4053117036819458e-01 8.0856762826442719e-02</leafValues></_>
        <_>
          <internalNodes>
            0 -1 663 1.4594502281397581e-03</internalNodes>
          <leafValues>
            4.4661525636911392e-02 -5.8882981538772583e-01</leafValues></_>
        <_>
          <internalNodes>
            0 -1 798 2.4605970829725266e-02</internalNodes>
          <leafValues>
            4.5381624251604080e-02 -5.9123110771179199e-01</leafValues></_>
        <_>
          <internalNodes>
            0 -1 792 1.1167455231770873e-03</internalNodes>
          <leafValues>
            -2.1840733289718628e-01 1.2872816622257233e-01</leafValues></_>
        <_>
          <internalNodes>
            0 -1 45 1.0154050588607788e-01</internalNodes>
          <leafValues>
            5.2508354187011719e-02 -6.2242579460144043e-01</leafValues></_></weakClassifiers></_>
    <!-- stage 13 -->
    <_>
      <maxWeakCount>43</maxWeakCount>
      <stageThreshold>-7.3101919889450073e-01</stageThreshold>
      <weakClassifiers>
        <_>
          <internalNodes>
            0 -1 12 1.8920108675956726e-02</internalNodes>
          <leafValues>
            7.0796459913253784e-02 5.9849435091018677e-01</leafValues></_>
        <_>
          <internalNodes>
            0 -1 204 4.0524619817733765e-01</internalNodes>
          <leafValues>
            -1.3745336234569550e-01 4.4575542211532593e-01</leafValues></_>
        <_>
          <internalNodes>
            0 -1 700 -6.0533642768859863e-02</internalNodes>
          <leafValues>
            3.2746821641921997e-01 -1.8901996314525604e-01</leafValues></_>
        <_>
          <internalNodes>
            0 -1 581 -1.7503747344017029e-01</internalNodes>
          <leafValues>
            -4.7636729478836060e-01 8.8511109352111816e-02</leafValues></_>
        <_>
          <internalNodes>
            0 -1 547 1.8939578440040350e-03</internalNodes>
          <leafValues>
            -1.8673062324523926e-01 2.5258588790893555e-01</leafValues></_>
        <_>
          <internalNodes>
            0 -1 461 -1.6681339591741562e-02</internalNodes>
          <leafValues>
            -7.4908024072647095e-01 4.9419652670621872e-02</leafValues></_>
        <_>
          <internalNodes>
            0 -1 562 -2.5613256730139256e-03</internalNodes>
          <leafValues>
            -6.1350536346435547e-01 4.9050185829401016e-02</leafValues></_>
        <_>
          <internalNodes>
            0 -1 166 9.3597586965188384e-04</internalNodes>
          <leafValues>
            -1.8548244237899780e-01 1.7825673520565033e-01</leafValues></_>
        <_>
          <internalNodes>
            0 -1 52 -4.3609561398625374e-03</internalNodes>
          <leafValues>
            -7.1179139614105225e-01 4.6793133020401001e-02</leafValues></_>
        <_>
          <internalNodes>
            0 -1 435 -7.1631313767284155e-04</internalNodes>
          <leafValues>
            2.0778524875640869e-01 -1.6297632455825806e-01</leafValues></_>
        <_>
          <internalNodes>
            0 -1 268 -5.5664889514446259e-03</internalNodes>
          <leafValues>
            5.2349543571472168e-01 -7.1273170411586761e-02</leafValues></_>
        <_>
          <internalNodes>
            0 -1 148 -2.1636150777339935e-03</internalNodes>
          <leafValues>
            2.4185509979724884e-01 -1.2743298709392548e-01</leafValues></_>
        <_>
          <internalNodes>
            0 -1 15 -4.7618746757507324e-02</internalNodes>
          <leafValues>
            -9.7879737615585327e-02 3.0776399374008179e-01</leafValues></_>
        <_>
          <internalNodes>
            0 -1 717 -1.7673853784799576e-02</internalNodes>
          <leafValues>
            5.5520397424697876e-01 -5.6735388934612274e-02</leafValues></_>
        <_>
          <internalNodes>
            0 -1 778 -5.0973976030945778e-03</internalNodes>
          <leafValues>
            -3.5243612527847290e-01 1.0679776221513748e-01</leafValues></_>
        <_>
          <internalNodes>
            0 -1 238 -6.6295349970459938e-03</internalNodes>
          <leafValues>
            3.5828295350074768e-01 -9.1568306088447571e-02</leafValues></_>
        <_>
          <internalNodes>
            0 -1 545 -3.3246312523260713e-04</internalNodes>
          <leafValues>
            -4.7771480679512024e-01 7.2201706469058990e-02</leafValues></_>
        <_>
          <internalNodes>
            0 -1 212 8.2846090197563171e-02</internalNodes>
          <leafValues>
            6.0870762914419174e-02 -5.1321309804916382e-01</leafValues></_>
        <_>
          <internalNodes>
            0 -1 478 -6.2521761283278465e-03</internalNodes>
          <leafValues>
            3.1038874387741089e-01 -1.2600086629390717e-01</leafValues></_>
        <_>
          <internalNodes>
            0 -1 62 -6.2822639942169189e-02</internalNodes>
          <leafValues>
            -3.4688621759414673e-01 9.2742167413234711e-02</leafValues></_>
        <_>
          <internalNodes>
            0 -1 411 -1.9829217344522476e-03</internalNodes>
          <leafValues>
            5.1409970968961716e-02 -5.4594969749450684e-01</leafValues></_>
        <_>
          <internalNodes>
            0 -1 743 1.7002722597680986e-04</internalNodes>
          <leafValues>
            9.2061080038547516e-02 -2.9662504792213440e-01</leafValues></_>
        <_>
          <internalNodes>
            0 -1 783 7.5328247621655464e-03</internalNodes>
          <leafValues>
            -1.0207526385784149e-01 2.9409438371658325e-01</leafValues></_>
        <_>
          <internalNodes>
            0 -1 726 2.7095121331512928e-03</internalNodes>
          <leafValues>
            -1.2934479117393494e-01 2.5203484296798706e-01</leafValues></_>
        <_>
          <internalNodes>
            0 -1 79 -2.0629338920116425e-02</internalNodes>
          <leafValues>
            1.2673145532608032e-01 -2.6379108428955078e-01</leafValues></_>
        <_>
          <internalNodes>
            0 -1 124 -1.1151760071516037e-01</internalNodes>
          <leafValues>
            -4.0157532691955566e-01 7.1677468717098236e-02</leafValues></_>
        <_>
          <internalNodes>
            0 -1 220 -4.5037973904982209e-04</internalNodes>
          <leafValues>
            -4.7334963083267212e-01 5.3553573787212372e-02</leafValues></_>
        <_>
          <internalNodes>
            0 -1 773 -8.1793162971735001e-03</internalNodes>
          <leafValues>
            4.7252145409584045e-01 -5.8696117252111435e-02</leafValues></_>
        <_>
          <internalNodes>
            0 -1 542 -4.3304797145538032e-04</internalNodes>
          <leafValues>
            -3.7257191538810730e-01 8.1887632608413696e-02</leafValues></_>
        <_>
          <internalNodes>
            0 -1 233 -1.0111622978001833e-03</internalNodes>
          <leafValues>
            1.7465716600418091e-01 -1.6173529624938965e-01</leafValues></_>
        <_>
          <internalNodes>
            0 -1 725 5.6067006662487984e-03</internalNodes>
          <leafValues>
            -1.0308420658111572e-01 2.6912865042686462e-01</leafValues></_>
        <_>
          <internalNodes>
            0 -1 833 -1.1680025636451319e-05</internalNodes>
          <leafValues>
            -2.0686082541942596e-01 1.4012497663497925e-01</leafValues></_>
        <_>
          <internalNodes>
            0 -1 735 -2.0650878548622131e-02</internalNodes>
          <leafValues>
            -4.3046104907989502e-01 6.6373392939567566e-02</leafValues></_>
        <_>
          <internalNodes>
            0 -1 558 4.7679588897153735e-04</internalNodes>
          <leafValues>
            -1.3296127319335938e-01 2.0756188035011292e-01</leafValues></_>
        <_>
          <internalNodes>
            0 -1 341 2.7759201824665070e-02</internalNodes>
          <leafValues>
            -9.4866238534450531e-02 3.0977660417556763e-01</leafValues></_>
        <_>
          <internalNodes>
            0 -1 590 -1.9244154100306332e-04</internalNodes>
          <leafValues>
            -3.2500231266021729e-01 9.4620712101459503e-02</leafValues></_>
        <_>
          <internalNodes>
            0 -1 387 6.1099817976355553e-03</internalNodes>
          <leafValues>
            -1.3017930090427399e-01 2.3328237235546112e-01</leafValues></_>
        <_>
          <internalNodes>
            0 -1 321 -5.8439606800675392e-04</internalNodes>
          <leafValues>
            -4.6069553494453430e-01 6.3621737062931061e-02</leafValues></_>
        <_>
          <internalNodes>
            0 -1 285 2.8419836889952421e-03</internalNodes>
          <leafValues>
            -1.3592000305652618e-01 2.0564669370651245e-01</leafValues></_>
        <_>
          <internalNodes>
            0 -1 624 1.4538389630615711e-02</internalNodes>
          <leafValues>
            -5.4744593799114227e-02 5.4664754867553711e-01</leafValues></_>
        <_>
          <internalNodes>
            0 -1 137 2.5104086846113205e-02</internalNodes>
          <leafValues>
            -1.7708092927932739e-01 1.5889862179756165e-01</leafValues></_>
        <_>
          <internalNodes>
            0 -1 799 1.4668773859739304e-02</internalNodes>
          <leafValues>
            4.9389321357011795e-02 -5.2253383398056030e-01</leafValues></_>
        <_>
          <internalNodes>
            0 -1 160 -1.1596361547708511e-01</internalNodes>
          <leafValues>
            -7.9347842931747437e-01 3.2592203468084335e-02</leafValues></_></weakClassifiers></_>
    <!-- stage 14 -->
    <_>
      <maxWeakCount>41</maxWeakCount>
      <stageThreshold>-6.1456501483917236e-01</stageThreshold>
      <weakClassifiers>
        <_>
          <internalNodes>
            0 -1 768 -1.5868736431002617e-02</internalNodes>
          <leafValues>
            6.3460105657577515e-01 1.2367930263280869e-01</leafValues></_>
        <_>
          <internalNodes>
            0 -1 75 1.5487951226532459e-02</internalNodes>
          <leafValues>
            -1.7309416830539703e-01 3.4759926795959473e-01</leafValues></_>
        <_>
          <internalNodes>
            0 -1 472 -8.9025925844907761e-03</internalNodes>
          <leafValues>
            3.2505884766578674e-01 -1.7132562398910522e-01</leafValues></_>
        <_>
          <internalNodes>
            0 -1 28 1.2373974323272705e+00</internalNodes>
          <leafValues>
            -1.7453765869140625e-01 2.9145923256874084e-01</leafValues></_>
        <_>
          <internalNodes>
            0 -1 9 2.8844904154539108e-03</internalNodes>
          <leafValues>
            -2.2880773246288300e-01 1.6721500456333160e-01</leafValues></_>
        <_>
          <internalNodes>
            0 -1 769 1.1984813027083874e-02</internalNodes>
          <leafValues>
            -9.2725336551666260e-02 4.4218674302101135e-01</leafValues></_>
        <_>
          <internalNodes>
            0 -1 397 -2.3602262139320374e-02</internalNodes>
          <leafValues>
            2.9860144853591919e-01 -1.0573010891675949e-01</leafValues></_>
        <_>
          <internalNodes>
            0 -1 543 5.1542650908231735e-03</internalNodes>
          <leafValues>
            -1.2145204842090607e-01 3.2280352711677551e-01</leafValues></_>
        <_>
          <internalNodes>
            0 -1 683 -5.5824099108576775e-03</internalNodes>
          <leafValues>
            3.2076796889305115e-01 -1.0672681033611298e-01</leafValues></_>
        <_>
          <internalNodes>
            0 -1 65 2.9023434035480022e-03</internalNodes>
          <leafValues>
            -2.1963444352149963e-01 1.7046490311622620e-01</leafValues></_>
        <_>
          <internalNodes>
            0 -1 167 -2.1527323871850967e-02</internalNodes>
          <leafValues>
            4.5233011245727539e-01 -7.2510100901126862e-02</leafValues></_>
        <_>
          <internalNodes>
            0 -1 345 -7.2404295206069946e-03</internalNodes>
          <leafValues>
            2.0376138389110565e-01 -1.6233171522617340e-01</leafValues></_>
        <_>
          <internalNodes>
            0 -1 276 -3.1205993145704269e-02</internalNodes>
          <leafValues>
            1.4861312508583069e-01 -2.3877312242984772e-01</leafValues></_>
        <_>
          <internalNodes>
            0 -1 344 -4.5884653925895691e-02</internalNodes>
          <leafValues>
            -4.9767304211854935e-02 6.8325304985046387e-01</leafValues></_>
        <_>
          <internalNodes>
            0 -1 808 9.4714472070336342e-03</internalNodes>
          <leafValues>
            -4.0740448981523514e-02 6.3312381505966187e-01</leafValues></_>
        <_>
          <internalNodes>
            0 -1 688 7.3926430195569992e-03</internalNodes>
          <leafValues>
            -9.4164274632930756e-02 3.4003216028213501e-01</leafValues></_>
        <_>
          <internalNodes>
            0 -1 531 1.5537356957793236e-03</internalNodes>
          <leafValues>
            -2.0368757843971252e-01 1.6142897307872772e-01</leafValues></_>
        <_>
          <internalNodes>
            0 -1 670 2.0893963519483805e-03</internalNodes>
          <leafValues>
            8.2127235829830170e-02 -4.1539004445075989e-01</leafValues></_>
        <_>
          <internalNodes>
            0 -1 367 1.3721182476729155e-03</internalNodes>
          <leafValues>
            4.0065236389636993e-02 -7.5462543964385986e-01</leafValues></_>
        <_>
          <internalNodes>
            0 -1 215 9.1487437486648560e-02</internalNodes>
          <leafValues>
            4.2719662189483643e-02 -6.6603410243988037e-01</leafValues></_>
        <_>
          <internalNodes>
            0 -1 580 -2.1301943808794022e-02</internalNodes>
          <leafValues>
            -6.5216434001922607e-01 4.1294310241937637e-02</leafValues></_>
        <_>
          <internalNodes>
            0 -1 525 -8.7001681327819824e-02</internalNodes>
          <leafValues>
            5.9155326336622238e-02 -4.8642128705978394e-01</leafValues></_>
        <_>
          <internalNodes>
            0 -1 807 2.5617459323257208e-03</internalNodes>
          <leafValues>
            6.5082058310508728e-02 -4.5983338356018066e-01</leafValues></_>
        <_>
          <internalNodes>
            0 -1 4 7.1121389046311378e-03</internalNodes>
          <leafValues>
            -8.5825502872467041e-02 3.4727361798286438e-01</leafValues></_>
        <_>
          <internalNodes>
            0 -1 81 -8.6091028060764074e-04</internalNodes>
          <leafValues>
            2.2680826485157013e-01 -1.4054042100906372e-01</leafValues></_>
        <_>
          <internalNodes>
            0 -1 179 2.1515984553843737e-04</internalNodes>
          <leafValues>
            1.0427189618349075e-01 -3.2874795794487000e-01</leafValues></_>
        <_>
          <internalNodes>
            0 -1 120 1.5450315549969673e-03</internalNodes>
          <leafValues>
            5.1901873201131821e-02 -5.3887462615966797e-01</leafValues></_>
        <_>
          <internalNodes>
            0 -1 793 -7.6135003473609686e-04</internalNodes>
          <leafValues>
            2.4090830981731415e-01 -1.2033163011074066e-01</leafValues></_>
        <_>
          <internalNodes>
            0 -1 729 9.1844014823436737e-03</internalNodes>
          <leafValues>
            -6.8793378770351410e-02 4.9906048178672791e-01</leafValues></_>
        <_>
          <internalNodes>
            0 -1 192 -6.3513671047985554e-03</internalNodes>
          <leafValues>
            2.4142780900001526e-01 -1.2087062746286392e-01</leafValues></_>
        <_>
          <internalNodes>
            0 -1 202 3.9585173130035400e-02</internalNodes>
          <leafValues>
            -6.8791612982749939e-02 3.7138399481773376e-01</leafValues></_>
        <_>
          <internalNodes>
            0 -1 138 2.6778534054756165e-02</internalNodes>
          <leafValues>
            -1.0699938237667084e-01 3.0292409658432007e-01</leafValues></_>
        <_>
          <internalNodes>
            0 -1 222 1.0171856731176376e-02</internalNodes>
          <leafValues>
            6.1126820743083954e-02 -4.9442532658576965e-01</leafValues></_>
        <_>
          <internalNodes>
            0 -1 639 6.5817194990813732e-04</internalNodes>
          <leafValues>
            -1.7999513447284698e-01 1.4826068282127380e-01</leafValues></_>
        <_>
          <internalNodes>
            0 -1 813 -4.6435520052909851e-03</internalNodes>
          <leafValues>
            -1.1072053015232086e-01 2.6299360394477844e-01</leafValues></_>
        <_>
          <internalNodes>
            0 -1 569 5.0593484193086624e-03</internalNodes>
          <leafValues>
            -7.6929427683353424e-02 3.9651933312416077e-01</leafValues></_>
        <_>
          <internalNodes>
            0 -1 402 1.8178236205130816e-03</internalNodes>
          <leafValues>
            4.9898639321327209e-02 -6.1154085397720337e-01</leafValues></_>
        <_>
          <internalNodes>
            0 -1 655 5.5789691396057606e-04</internalNodes>
          <leafValues>
            -1.6658131778240204e-01 1.5529160201549530e-01</leafValues></_>
        <_>
          <internalNodes>
            0 -1 21 -8.0095662269741297e-05</internalNodes>
          <leafValues>
            -2.1022416651248932e-01 1.3391527533531189e-01</leafValues></_>
        <_>
          <internalNodes>
            0 -1 290 1.5501789748668671e-02</internalNodes>
          <leafValues>
            -9.8531126976013184e-02 3.2085061073303223e-01</leafValues></_>
        <_>
          <internalNodes>
            0 -1 379 -7.3438622057437897e-03</internalNodes>
          <leafValues>
            4.0230691432952881e-01 -7.4056953191757202e-02</leafValues></_></weakClassifiers></_>
    <!-- stage 15 -->
    <_>
      <maxWeakCount>44</maxWeakCount>
      <stageThreshold>-6.5845066308975220e-01</stageThreshold>
      <weakClassifiers>
        <_>
          <internalNodes>
            0 -1 182 -1.4554855227470398e-01</internalNodes>
          <leafValues>
            5.7400721311569214e-01 7.4534162878990173e-02</leafValues></_>
        <_>
          <internalNodes>
            0 -1 471 -2.9746959917247295e-03</internalNodes>
          <leafValues>
            3.0400952696800232e-01 -1.9432559609413147e-01</leafValues></_>
        <_>
          <internalNodes>
            0 -1 68 2.7943629771471024e-02</internalNodes>
          <leafValues>
            -1.4541217684745789e-01 4.2965036630630493e-01</leafValues></_>
        <_>
          <internalNodes>
            0 -1 486 -5.3952948655933142e-04</internalNodes>
          <leafValues>
            1.0229169577360153e-01 -3.6953055858612061e-01</leafValues></_>
        <_>
          <internalNodes>
            0 -1 656 1.7853070050477982e-02</internalNodes>
          <leafValues>
            -1.4628650248050690e-01 3.2696342468261719e-01</leafValues></_>
        <_>
          <internalNodes>
            0 -1 708 -6.9471374154090881e-03</internalNodes>
          <leafValues>
            -3.1247454881668091e-01 1.1248427629470825e-01</leafValues></_>
        <_>
          <internalNodes>
            0 -1 539 1.0703714797273278e-03</internalNodes>
          <leafValues>
            8.1255070865154266e-02 -5.0723725557327271e-01</leafValues></_>
        <_>
          <internalNodes>
            0 -1 753 -1.0749159264378250e-04</internalNodes>
          <leafValues>
            -2.8314703702926636e-01 1.2226712703704834e-01</leafValues></_>
        <_>
          <internalNodes>
            0 -1 457 -2.2003101184964180e-03</internalNodes>
          <leafValues>
            -4.8838973045349121e-01 6.2862403690814972e-02</leafValues></_>
        <_>
          <internalNodes>
            0 -1 380 -2.2754911333322525e-03</internalNodes>
          <leafValues>
            2.2648420929908752e-01 -1.2542803585529327e-01</leafValues></_>
        <_>
          <internalNodes>
            0 -1 405 1.0991255752742290e-02</internalNodes>
          <leafValues>
            -1.0865247249603271e-01 2.8474771976470947e-01</leafValues></_>
        <_>
          <internalNodes>
            0 -1 544 9.0275239199399948e-04</internalNodes>
          <leafValues>
            5.7284694164991379e-02 -4.8733130097389221e-01</leafValues></_>
        <_>
          <internalNodes>
            0 -1 121 8.1565976142883301e-04</internalNodes>
          <leafValues>
            -2.0143418014049530e-01 1.2809060513973236e-01</leafValues></_>
        <_>
          <internalNodes>
            0 -1 7 6.1700236983597279e-04</internalNodes>
          <leafValues>
            -1.6242627799510956e-01 1.7359811067581177e-01</leafValues></_>
        <_>
          <internalNodes>
            0 -1 178 -3.6003693938255310e-02</internalNodes>
          <leafValues>
            -5.0875544548034668e-01 5.3561504930257797e-02</leafValues></_>
        <_>
          <internalNodes>
            0 -1 529 2.8545508394017816e-04</internalNodes>
          <leafValues>
            -1.7695479094982147e-01 1.5666952729225159e-01</leafValues></_>
        <_>
          <internalNodes>
            0 -1 270 -3.7656933069229126e-02</internalNodes>
          <leafValues>
            6.6259515285491943e-01 -4.9953259527683258e-02</leafValues></_>
        <_>
          <internalNodes>
            0 -1 673 -1.1624208418652415e-03</internalNodes>
          <leafValues>
            2.5568932294845581e-01 -1.1176569759845734e-01</leafValues></_>
        <_>
          <internalNodes>
            0 -1 205 4.6098381280899048e-02</internalNodes>
          <leafValues>
            -1.2785211205482483e-01 2.7576762437820435e-01</leafValues></_>
        <_>
          <internalNodes>
            0 -1 174 -5.7836715131998062e-03</internalNodes>
          <leafValues>
            3.7135681509971619e-01 -8.6795195937156677e-02</leafValues></_>
        <_>
          <internalNodes>
            0 -1 287 3.7439336301758885e-04</internalNodes>
          <leafValues>
            7.3407098650932312e-02 -4.3253028392791748e-01</leafValues></_>
        <_>
          <internalNodes>
            0 -1 239 6.6668936051428318e-04</internalNodes>
          <leafValues>
            -1.6353741288185120e-01 1.7741519212722778e-01</leafValues></_>
        <_>
          <internalNodes>
            0 -1 691 -1.8404257716611028e-03</internalNodes>
          <leafValues>
            -4.9765864014625549e-01 6.1273600906133652e-02</leafValues></_>
        <_>
          <internalNodes>
            0 -1 747 -1.7246040515601635e-03</internalNodes>
          <leafValues>
            2.0415440201759338e-01 -1.3524261116981506e-01</leafValues></_>
        <_>
          <internalNodes>
            0 -1 762 1.3503239024430513e-03</internalNodes>
          <leafValues>
            -9.5135264098644257e-02 3.3262473344802856e-01</leafValues></_>
        <_>
          <internalNodes>
            0 -1 733 -1.7866611480712891e-02</internalNodes>
          <leafValues>
            -8.4320420026779175e-01 3.7033904343843460e-02</leafValues></_>
        <_>
          <internalNodes>
            0 -1 371 1.0178361088037491e-02</internalNodes>
          <leafValues>
            3.0510330572724342e-02 -6.6317248344421387e-01</leafValues></_>
        <_>
          <internalNodes>
            0 -1 375 3.2930936664342880e-02</internalNodes>
          <leafValues>
            3.0156446620821953e-02 -6.8682169914245605e-01</leafValues></_>
        <_>
          <internalNodes>
            0 -1 309 -3.1774569302797318e-02</internalNodes>
          <leafValues>
            -1.5391109883785248e-01 1.6653831303119659e-01</leafValues></_>
        <_>
          <internalNodes>
            0 -1 658 -6.4786896109580994e-04</internalNodes>
          <leafValues>
            -5.0058126449584961e-01 5.5044047534465790e-02</leafValues></_>
        <_>
          <internalNodes>
            0 -1 77 1.1574117466807365e-02</internalNodes>
          <leafValues>
            -4.9348816275596619e-02 5.9097838401794434e-01</leafValues></_>
        <_>
          <internalNodes>
            0 -1 413 -2.3773619905114174e-03</internalNodes>
          <leafValues>
            2.4231687188148499e-01 -1.0450459271669388e-01</leafValues></_>
        <_>
          <internalNodes>
            0 -1 513 -7.8571550548076630e-03</internalNodes>
          <leafValues>
            2.7580228447914124e-01 -9.1546438634395599e-02</leafValues></_>
        <_>
          <internalNodes>
            0 -1 163 1.7233273386955261e-01</internalNodes>
          <leafValues>
            4.0708288550376892e-02 -6.7934542894363403e-01</leafValues></_>
        <_>
          <internalNodes>
            0 -1 139 2.7250461280345917e-03</internalNodes>
          <leafValues>
            -1.4935648441314697e-01 1.7025499045848846e-01</leafValues></_>
        <_>
          <internalNodes>
            0 -1 560 -3.1973339617252350e-02</internalNodes>
          <leafValues>
            -6.3952523469924927e-01 3.8154795765876770e-02</leafValues></_>
        <_>
          <internalNodes>
            0 -1 811 -8.8990945369005203e-03</internalNodes>
          <leafValues>
            4.7500389814376831e-01 -5.9984453022480011e-02</leafValues></_>
        <_>
          <internalNodes>
            0 -1 822 -4.1371917177457362e-05</internalNodes>
          <leafValues>
            -1.3510224223136902e-01 2.1016138792037964e-01</leafValues></_>
        <_>
          <internalNodes>
            0 -1 782 -1.1068711755797267e-03</internalNodes>
          <leafValues>
            2.4232275784015656e-01 -1.1072653532028198e-01</leafValues></_>
        <_>
          <internalNodes>
            0 -1 830 -1.5808354364708066e-03</internalNodes>
          <leafValues>
            3.0313965678215027e-01 -9.9993772804737091e-02</leafValues></_>
        <_>
          <internalNodes>
            0 -1 625 6.1426870524883270e-04</internalNodes>
          <leafValues>
            -1.6613650321960449e-01 1.6345670819282532e-01</leafValues></_>
        <_>
          <internalNodes>
            0 -1 418 -2.9397783800959587e-03</internalNodes>
          <leafValues>
            3.8667100667953491e-01 -7.4514538049697876e-02</leafValues></_>
        <_>
          <internalNodes>
            0 -1 640 -6.9825310492888093e-04</internalNodes>
          <leafValues>
            1.6991931200027466e-01 -1.6460956633090973e-01</leafValues></_>
        <_>
          <internalNodes>
            0 -1 612 -4.9834344536066055e-03</internalNodes>
          <leafValues>
            1.3519605994224548e-01 -2.0088569819927216e-01</leafValues></_></weakClassifiers></_>
    <!-- stage 16 -->
    <_>
      <maxWeakCount>44</maxWeakCount>
      <stageThreshold>-5.6934309005737305e-01</stageThreshold>
      <weakClassifiers>
        <_>
          <internalNodes>
            0 -1 226 9.5424950122833252e-03</internalNodes>
          <leafValues>
            1.0468850284814835e-01 6.3675522804260254e-01</leafValues></_>
        <_>
          <internalNodes>
            0 -1 710 -4.5433383435010910e-02</internalNodes>
          <leafValues>
            3.3450648188591003e-01 -1.3562045991420746e-01</leafValues></_>
        <_>
          <internalNodes>
            0 -1 20 -7.5303455814719200e-03</internalNodes>
          <leafValues>
            2.4964095652103424e-01 -1.9471751153469086e-01</leafValues></_>
        <_>
          <internalNodes>
            0 -1 258 -1.6322700539603829e-03</internalNodes>
          <leafValues>
            9.9396303296089172e-02 -3.2705292105674744e-01</leafValues></_>
        <_>
          <internalNodes>
            0 -1 439 -3.0312769114971161e-02</internalNodes>
          <leafValues>
            -3.2427415251731873e-01 1.1481461673974991e-01</leafValues></_>
        <_>
          <internalNodes>
            0 -1 363 -2.0720643922686577e-02</internalNodes>
          <leafValues>
            2.0861947536468506e-01 -1.8313349783420563e-01</leafValues></_>
        <_>
          <internalNodes>
            0 -1 42 1.3442919589579105e-02</internalNodes>
          <leafValues>
            -1.3094045221805573e-01 2.4963429570198059e-01</leafValues></_>
        <_>
          <internalNodes>
            0 -1 362 -1.6958351479843259e-03</internalNodes>
          <leafValues>
            3.7742680311203003e-01 -9.5400780439376831e-02</leafValues></_>
        <_>
          <internalNodes>
            0 -1 535 -5.0915796309709549e-03</internalNodes>
          <leafValues>
            -6.2156391143798828e-01 5.6169249117374420e-02</leafValues></_>
        <_>
          <internalNodes>
            0 -1 429 1.6597599023953080e-03</internalNodes>
          <leafValues>
            8.1580802798271179e-02 -3.6732605099678040e-01</leafValues></_>
        <_>
          <internalNodes>
            0 -1 324 6.4579289755783975e-05</internalNodes>
          <leafValues>
            1.3245667517185211e-01 -2.1911847591400146e-01</leafValues></_>
        <_>
          <internalNodes>
            0 -1 400 -4.9637630581855774e-04</internalNodes>
          <leafValues>
            -3.9261248707771301e-01 5.5970784276723862e-02</leafValues></_>
        <_>
          <internalNodes>
            0 -1 281 -2.5343205779790878e-03</internalNodes>
          <leafValues>
            2.0476575195789337e-01 -1.2699039280414581e-01</leafValues></_>
        <_>
          <internalNodes>
            0 -1 827 6.3689979724586010e-03</internalNodes>
          <leafValues>
            5.1315508782863617e-02 -5.0368249416351318e-01</leafValues></_>
        <_>
          <internalNodes>
            0 -1 716 -6.9465655833482742e-03</internalNodes>
          <leafValues>
            -3.5717442631721497e-01 6.1868615448474884e-02</leafValues></_>
        <_>
          <internalNodes>
            0 -1 267 -1.8712633755058050e-03</internalNodes>
          <leafValues>
            -5.3191065788269043e-01 4.7657061368227005e-02</leafValues></_>
        <_>
          <internalNodes>
            0 -1 342 5.5176583118736744e-03</internalNodes>
          <leafValues>
            -1.4172379672527313e-01 1.8153251707553864e-01</leafValues></_>
        <_>
          <internalNodes>
            0 -1 283 1.6558323986828327e-03</internalNodes>
          <leafValues>
            -1.2252358347177505e-01 2.2951704263687134e-01</leafValues></_>
        <_>
          <internalNodes>
            0 -1 385 -4.7656208276748657e-02</internalNodes>
          <leafValues>
            6.3556331396102905e-01 -4.9270421266555786e-02</leafValues></_>
        <_>
          <internalNodes>
            0 -1 425 -2.0410208962857723e-03</internalNodes>
          <leafValues>
            1.0694356262683868e-01 -2.6677599549293518e-01</leafValues></_>
        <_>
          <internalNodes>
            0 -1 596 -8.8884867727756500e-03</internalNodes>
          <leafValues>
            1.9399705529212952e-01 -1.4241293072700500e-01</leafValues></_>
        <_>
          <internalNodes>
            0 -1 5 7.3943478055298328e-03</internalNodes>
          <leafValues>
            -9.2959880828857422e-02 3.0500903725624084e-01</leafValues></_>
        <_>
          <internalNodes>
            0 -1 829 -1.8691276200115681e-03</internalNodes>
          <leafValues>
            2.6631993055343628e-01 -9.1940924525260925e-02</leafValues></_>
        <_>
          <internalNodes>
            0 -1 665 1.6888894606381655e-03</internalNodes>
          <leafValues>
            -9.7631722688674927e-02 2.4281857907772064e-01</leafValues></_>
        <_>
          <internalNodes>
            0 -1 601 -1.1838837526738644e-03</internalNodes>
          <leafValues>
            -4.1970217227935791e-01 5.8862630277872086e-02</leafValues></_>
        <_>
          <internalNodes>
            0 -1 653 -7.2937496006488800e-03</internalNodes>
          <leafValues>
            -3.1688073277473450e-01 7.7451400458812714e-02</leafValues></_>
        <_>
          <internalNodes>
            0 -1 840 -2.0526610314846039e-03</internalNodes>
          <leafValues>
            3.0697587132453918e-01 -8.2010120153427124e-02</leafValues></_>
        <_>
          <internalNodes>
            0 -1 388 -4.8554819659329951e-04</internalNodes>
          <leafValues>
            -4.3818262219429016e-01 5.6378606706857681e-02</leafValues></_>
        <_>
          <internalNodes>
            0 -1 257 9.2173687880858779e-04</internalNodes>
          <leafValues>
            -1.1715853214263916e-01 2.0523294806480408e-01</leafValues></_>
        <_>
          <internalNodes>
            0 -1 134 -7.3880076408386230e-02</internalNodes>
          <leafValues>
            -4.6060359477996826e-01 5.9250850230455399e-02</leafValues></_>
        <_>
          <internalNodes>
            0 -1 643 3.8113906048238277e-03</internalNodes>
          <leafValues>
            3.5235345363616943e-02 -6.1868560314178467e-01</leafValues></_>
        <_>
          <internalNodes>
            0 -1 448 -4.8922575078904629e-03</internalNodes>
          <leafValues>
            2.5741365551948547e-01 -9.1300375759601593e-02</leafValues></_>
        <_>
          <internalNodes>
            0 -1 441 1.1672198772430420e-02</internalNodes>
          <leafValues>
            -8.7506793439388275e-02 3.4963065385818481e-01</leafValues></_>
        <_>
          <internalNodes>
            0 -1 307 1.6367860138416290e-02</internalNodes>
          <leafValues>
            3.7464175373315811e-02 -7.5685185194015503e-01</leafValues></_>
        <_>
          <internalNodes>
            0 -1 606 7.1086166426539421e-03</internalNodes>
          <leafValues>
            -1.0692646354436874e-01 2.3296774923801422e-01</leafValues></_>
        <_>
          <internalNodes>
            0 -1 401 -8.9756984380073845e-05</internalNodes>
          <leafValues>
            -2.3980911076068878e-01 1.0572276264429092e-01</leafValues></_>
        <_>
          <internalNodes>
            0 -1 158 1.9751018844544888e-03</internalNodes>
          <leafValues>
            -1.4164949953556061e-01 1.8215873837471008e-01</leafValues></_>
        <_>
          <internalNodes>
            0 -1 527 6.8581034429371357e-04</internalNodes>
          <leafValues>
            -1.6540819406509399e-01 1.5771789848804474e-01</leafValues></_>
        <_>
          <internalNodes>
            0 -1 406 1.6366803646087646e-01</internalNodes>
          <leafValues>
            5.8134313672780991e-02 -4.2887490987777710e-01</leafValues></_>
        <_>
          <internalNodes>
            0 -1 260 -5.2328426390886307e-03</internalNodes>
          <leafValues>
            -4.7329771518707275e-01 5.2948288619518280e-02</leafValues></_>
        <_>
          <internalNodes>
            0 -1 255 7.3046679608523846e-03</internalNodes>
          <leafValues>
            -1.7570571601390839e-01 1.7289799451828003e-01</leafValues></_>
        <_>
          <internalNodes>
            0 -1 398 1.7673930153250694e-02</internalNodes>
          <leafValues>
            -4.4763758778572083e-02 6.1053329706192017e-01</leafValues></_>
        <_>
          <internalNodes>
            0 -1 218 3.2518040388822556e-02</internalNodes>
          <leafValues>
            4.1345372796058655e-02 -6.9172370433807373e-01</leafValues></_>
        <_>
          <internalNodes>
            0 -1 269 8.8584551122039557e-04</internalNodes>
          <leafValues>
            -2.5103256106376648e-01 1.0217785835266113e-01</leafValues></_></weakClassifiers></_>
    <!-- stage 17 -->
    <_>
      <maxWeakCount>50</maxWeakCount>
      <stageThreshold>-6.0636740922927856e-01</stageThreshold>
      <weakClassifiers>
        <_>
          <internalNodes>
            0 -1 758 5.6970495730638504e-02</internalNodes>
          <leafValues>
            1.6964285075664520e-01 6.4421415328979492e-01</leafValues></_>
        <_>
          <internalNodes>
            0 -1 751 -1.9781693816184998e-02</internalNodes>
          <leafValues>
            2.8278425335884094e-01 -1.7491768300533295e-01</leafValues></_>
        <_>
          <internalNodes>
            0 -1 378 -2.4921311438083649e-01</internalNodes>
          <leafValues>
            -3.4143185615539551e-01 1.3272657990455627e-01</leafValues></_>
        <_>
          <internalNodes>
            0 -1 284 -5.5644381791353226e-03</internalNodes>
          <leafValues>
            2.3901692032814026e-01 -2.0681278407573700e-01</leafValues></_>
        <_>
          <internalNodes>
            0 -1 106 1.2916738633066416e-03</internalNodes>
          <leafValues>
            -2.1131242811679840e-01 1.9021375477313995e-01</leafValues></_>
        <_>
          <internalNodes>
            0 -1 430 1.5400400152429938e-03</internalNodes>
          <leafValues>
            7.2744913399219513e-02 -4.0391457080841064e-01</leafValues></_>
        <_>
          <internalNodes>
            0 -1 278 -2.7181881014257669e-03</internalNodes>
          <leafValues>
            3.3271548151969910e-01 -8.1686422228813171e-02</leafValues></_>
        <_>
          <internalNodes>
            0 -1 97 1.3085594400763512e-02</internalNodes>
          <leafValues>
            -1.1667247116565704e-01 2.3888872563838959e-01</leafValues></_>
        <_>
          <internalNodes>
            0 -1 381 -1.9421064853668213e-01</internalNodes>
          <leafValues>
            -5.7986599206924438e-01 3.6723982542753220e-02</leafValues></_>
        <_>
          <internalNodes>
            0 -1 299 8.5569033399224281e-04</internalNodes>
          <leafValues>
            -2.0974598824977875e-01 1.1861634999513626e-01</leafValues></_>
        <_>
          <internalNodes>
            0 -1 376 4.9624048173427582e-02</internalNodes>
          <leafValues>
            4.5732758939266205e-02 -5.7702237367630005e-01</leafValues></_>
        <_>
          <internalNodes>
            0 -1 789 -3.1786938197910786e-03</internalNodes>
          <leafValues>
            2.7654954791069031e-01 -1.1294022947549820e-01</leafValues></_>
        <_>
          <internalNodes>
            0 -1 506 -9.9514797329902649e-04</internalNodes>
          <leafValues>
            -5.8041542768478394e-01 4.0693707764148712e-02</leafValues></_>
        <_>
          <internalNodes>
            0 -1 316 -4.0955021977424622e-03</internalNodes>
          <leafValues>
            3.7420469522476196e-01 -7.4809029698371887e-02</leafValues></_>
        <_>
          <internalNodes>
            0 -1 357 -3.6421446129679680e-03</internalNodes>
          <leafValues>
            -4.5669943094253540e-01 6.3251011073589325e-02</leafValues></_>
        <_>
          <internalNodes>
            0 -1 353 9.2538190074265003e-05</internalNodes>
          <leafValues>
            -2.3777693510055542e-01 1.1374404281377792e-01</leafValues></_>
        <_>
          <internalNodes>
            0 -1 488 1.2101811589673162e-03</internalNodes>
          <leafValues>
            -8.8089749217033386e-02 2.9584276676177979e-01</leafValues></_>
        <_>
          <internalNodes>
            0 -1 347 -7.8986911103129387e-04</internalNodes>
          <leafValues>
            2.2526682913303375e-01 -1.1325472593307495e-01</leafValues></_>
        <_>
          <internalNodes>
            0 -1 467 7.3705508839339018e-04</internalNodes>
          <leafValues>
            5.7720713317394257e-02 -4.8034688830375671e-01</leafValues></_>
        <_>
          <internalNodes>
            0 -1 368 2.2030510008335114e-03</internalNodes>
          <leafValues>
            -1.6609208285808563e-01 1.5740659832954407e-01</leafValues></_>
        <_>
          <internalNodes>
            0 -1 540 -4.1436068713665009e-02</internalNodes>
          <leafValues>
            2.3773185908794403e-01 -1.0302786529064178e-01</leafValues></_>
        <_>
          <internalNodes>
            0 -1 816 -3.7448441144078970e-03</internalNodes>
          <leafValues>
            -7.1390104293823242e-01 3.1449735164642334e-02</leafValues></_>
        <_>
          <internalNodes>
            0 -1 667 -1.2373095378279686e-03</internalNodes>
          <leafValues>
            -3.1332346796989441e-01 7.4400343000888824e-02</leafValues></_>
        <_>
          <internalNodes>
            0 -1 828 -6.1758830270264298e-05</internalNodes>
          <leafValues>
            -1.6126793622970581e-01 1.5191364288330078e-01</leafValues></_>
        <_>
          <internalNodes>
            0 -1 774 -1.1848477646708488e-02</internalNodes>
          <leafValues>
            -4.5116263628005981e-01 5.3115721791982651e-02</leafValues></_>
        <_>
          <internalNodes>
            0 -1 211 -6.2261181883513927e-03</internalNodes>
          <leafValues>
            4.7458231449127197e-01 -5.4460629820823669e-02</leafValues></_>
        <_>
          <internalNodes>
            0 -1 125 1.0905638337135315e-01</internalNodes>
          <leafValues>
            -2.0391581952571869e-01 1.2898750603199005e-01</leafValues></_>
        <_>
          <internalNodes>
            0 -1 130 4.5468777418136597e-02</internalNodes>
          <leafValues>
            3.9579719305038452e-02 -5.7231307029724121e-01</leafValues></_>
        <_>
          <internalNodes>
            0 -1 585 -1.0102494806051254e-01</internalNodes>
          <leafValues>
            5.4066753387451172e-01 -4.4303130358457565e-02</leafValues></_>
        <_>
          <internalNodes>
            0 -1 521 -1.3853356242179871e-01</internalNodes>
          <leafValues>
            4.9953413009643555e-01 -3.9750657975673676e-02</leafValues></_>
        <_>
          <internalNodes>
            0 -1 348 -7.1486239321529865e-03</internalNodes>
          <leafValues>
            1.0718829184770584e-01 -2.5078257918357849e-01</leafValues></_>
        <_>
          <internalNodes>
            0 -1 685 1.4436322264373302e-02</internalNodes>
          <leafValues>
            3.7732940167188644e-02 -6.3485926389694214e-01</leafValues></_>
        <_>
          <internalNodes>
            0 -1 156 1.2676999904215336e-03</internalNodes>
          <leafValues>
            -9.8354071378707886e-02 2.4234284460544586e-01</leafValues></_>
        <_>
          <internalNodes>
            0 -1 414 -5.4194796830415726e-03</internalNodes>
          <leafValues>
            1.9719357788562775e-01 -1.2209068983793259e-01</leafValues></_>
        <_>
          <internalNodes>
            0 -1 588 5.9004416689276695e-03</internalNodes>
          <leafValues>
            5.1697328686714172e-02 -4.9349629878997803e-01</leafValues></_>
        <_>
          <internalNodes>
            0 -1 71 9.2470040544867516e-03</internalNodes>
          <leafValues>
            -9.4688035547733307e-02 2.5952309370040894e-01</leafValues></_>
        <_>
          <internalNodes>
            0 -1 35 -1.6863327473402023e-03</internalNodes>
          <leafValues>
            -6.8237438797950745e-02 3.4703874588012695e-01</leafValues></_>
        <_>
          <internalNodes>
            0 -1 355 1.2285812990739942e-03</internalNodes>
          <leafValues>
            9.3413710594177246e-02 -2.5705677270889282e-01</leafValues></_>
        <_>
          <internalNodes>
            0 -1 370 -3.4969777334481478e-03</internalNodes>
          <leafValues>
            -9.0771263837814331e-01 2.6083940640091896e-02</leafValues></_>
        <_>
          <internalNodes>
            0 -1 36 2.0926347933709621e-03</internalNodes>
          <leafValues>
            -6.3556686043739319e-02 4.3862265348434448e-01</leafValues></_>
        <_>
          <internalNodes>
            0 -1 675 3.6355964839458466e-02</internalNodes>
          <leafValues>
            -3.2390937209129333e-02 6.5569198131561279e-01</leafValues></_>
        <_>
          <internalNodes>
            0 -1 567 -2.8947619721293449e-03</internalNodes>
          <leafValues>
            1.6609533131122589e-01 -1.4744849503040314e-01</leafValues></_>
        <_>
          <internalNodes>
            0 -1 604 3.3955860137939453e-01</internalNodes>
          <leafValues>
            5.6716799736022949e-02 -4.7464862465858459e-01</leafValues></_>
        <_>
          <internalNodes>
            0 -1 500 1.9708327017724514e-03</internalNodes>
          <leafValues>
            4.0192246437072754e-02 -6.1205792427062988e-01</leafValues></_>
        <_>
          <internalNodes>
            0 -1 599 -5.4550421191379428e-04</internalNodes>
          <leafValues>
            -4.1255629062652588e-01 5.4086133837699890e-02</leafValues></_>
        <_>
          <internalNodes>
            0 -1 114 -2.5239712558686733e-03</internalNodes>
          <leafValues>
            3.4633663296699524e-01 -6.7385673522949219e-02</leafValues></_>
        <_>
          <internalNodes>
            0 -1 61 2.0773993805050850e-02</internalNodes>
          <leafValues>
            -1.6821964085102081e-01 1.5009850263595581e-01</leafValues></_>
        <_>
          <internalNodes>
            0 -1 234 -9.6895819297060370e-05</internalNodes>
          <leafValues>
            -1.9225472211837769e-01 1.2898047268390656e-01</leafValues></_>
        <_>
          <internalNodes>
            0 -1 393 -3.5661816596984863e-02</internalNodes>
          <leafValues>
            -5.5958056449890137e-01 4.2306002229452133e-02</leafValues></_>
        <_>
          <internalNodes>
            0 -1 528 -3.2124869525432587e-02</internalNodes>
          <leafValues>
            -9.5751130580902100e-01 1.9705127924680710e-02</leafValues></_></weakClassifiers></_>
    <!-- stage 18 -->
    <_>
      <maxWeakCount>52</maxWeakCount>
      <stageThreshold>-6.0524284839630127e-01</stageThreshold>
      <weakClassifiers>
        <_>
          <internalNodes>
            0 -1 128 1.7667002975940704e-01</internalNodes>
          <leafValues>
